{"learner":{"attributes":{"scikit_learn":"{\"_estimator_type\": \"classifier\"}"},"feature_names":[],"feature_types":[],"gradient_booster":{"model":{"cats":{"enc":[],"feature_segments":[],"sorted_idx":[]},"gbtree_model_param":{"num_parallel_tree":"1","num_trees":"2000"},"iteration_indptr":[0,10,20,30,40,50,60,70,80,90,100,110,120,130,140,150,160,170,180,190,200,210,220,230,240,250,260,270,280,290,300,310,320,330,340,350,360,370,380,390,400,410,420,430,440,450,460,470,480,490,500,510,520,530,540,550,560,570,580,590,600,610,620,630,640,650,660,670,680,690,700,710,720,730,740,750,760,770,780,790,800,810,820,830,840,850,860,870,880,890,900,910,920,930,940,950,960,970,980,990,1000,1010,1020,1030,1040,1050,1060,1070,1080,1090,1100,1110,1120,1130,1140,1150,1160,1170,1180,1190,1200,1210,1220,1230,1240,1250,1260,1270,1280,1290,1300,1310,1320,1330,1340,1350,1360,1370,1380,1390,1400,1410,1420,1430,1440,1450,1460,1470,1480,1490,1500,1510,1520,1530,1540,1550,1560,1570,1580,1590,1600,1610,1620,1630,1640,1650,1660,1670,1680,1690,1700,1710,1720,1730,1740,1750,1760,1770,1780,1790,1800,1810,1820,1830,1840,1850,1860,1870,1880,1890,1900,1910,1920,1930,1940,1950,1960,1970,1980,1990,2000],"tree_info":[0,1,2,3,4,5,6,7,8,9,0,1,2,3,4,5,6,7,8,9,0,1,2,3,4,5,6,7,8,9,0,1,2,3,4,5,6,7,8,9,0,1,2,3,4,5,6,7,8,9,0,1,2,3,4,5,6,7,8,9,0,1,2,3,4,5,6,7,8,9,0,1,2,3,4,5,6,7,8,9,0,1,2,3,4,5,6,7,8,9,0,1,2,3,4,5,6,7,8,9,0,1,2,3,4,5,6,7,8,9,0,1,2,3,4,5,6,7,8,9,0,1,2,3,4,5,6,7,8,9,0,1,2,3,4,5,6,7,8,9,0,1,2,3,4,5,6,7,8,9,0,1,2,3,4,5,6,7,8,9,0,1,2,3,4,5,6,7,8,9,0,1,2,3,4,5,6,7,8,9,0,1,2,3,4,5,6,7,8,9,0,1,2,3,4,5,6,7,8,9,0,1,2,3,4,5,6,7,8,9,0,1,2,3,4,5,6,7,8,9,0,1,2,3,4,5,6,7,8,9,0,1,2,3,4,5,6,7,8,9,0,1,2,3,4,5,6,7,8,9,0,1,2,3,4,5,6,7,8,9,0,1,2,3,4,5,6,7,8,9,0,1,2,3,4,5,6,7,8,9,0,1,2,3,4,5,6,7,8,9,0,1,2,3,4,5,6,7,8,9,0,1,2,3,4,5,6,7,8,9,0,1,2,3,4,5,6,7,8,9,0,1,2,3,4,5,6,7,8,9,0,1,2,3,4,5,6,7,8,9,0,1,2,3,4,5,6,7,8,9,0,1,2,3,4,5,6,7,8,9,0,1,2,3,4,5,6,7,8,9,0,1,2,3,4,5,6,7,8,9,0,1,2,3,4,5,6,7,8,9,0,1,2,3,4,5,6,7,8,9,0,1,2,3,4,5,6,7,8,9,0,1,2,3,4,5,6,7,8,9,0,1,2,3,4,5,6,7,8,9,0,1,2,3,4,5,6,7,8,9,0,1,2,3,4,5,6,7,8,9,0,1,2,3,4,5,6,7,8,9,0,1,2,3,4,5,6,7,8,9,0,1,2,3,4,5,6,7,8,9,0,1,2,3,4,5,6,7,8,9,0,1,2,3,4,5,6,7,8,9,0,1,2,3,4,5,6,7,8,9,0,1,2,3,4,5,6,7,8,9,0,1,2,3,4,5,6,7,8,9,0,1,2,3,4,5,6,7,8,9,0,1,2,3,4,5,6,7,8,9,0,1,2,3,4,5,6,7,8,9,0,1,2,3,4,5,6,7,8,9,0,1,2,3,4,5,6,7,8,9,0,1,2,3,4,5,6,7,8,9,0,1,2,3,4,5,6,7,8,9,0,1,2,3,4,5,6,7,8,9,0,1,2,3,4,5,6,7,8,9,0,1,2,3,4,5,6,7,8,9,0,1,2,3,4,5,6,7,8,9,0,1,2,3,4,5,6,7,8,9,0,1,2,3,4,5,6,7,8,9,0,1,2,3,4,5,6,7,8,9,0,1,2,3,4,5,6,7,8,9,0,1,2,3,4,5,6,7,8,9,0,1,2,3,4,5,6,7,8,9,0,1,2,3,4,5,6,7,8,9,0,1,2,3,4,5,6,7,8,9,0,1,2,3,4,5,6,7,8,9,0,1,2,3,4,5,6,7,8,9,0,1,2,3,4,5,6,7,8,9,0,1,2,3,4,5,6,7,8,9,0,1,2,3,4,5,6,7,8,9,0,1,2,3,4,5,6,7,8,9,0,1,2,3,4,5,6,7,8,9,0,1,2,3,4,5,6,7,8,9,0,1,2,3,4,5,6,7,8,9,0,1,2,3,4,5,6,7,8,9,0,1,2,3,4,5,6,7,8,9,0,1,2,3,4,5,6,7,8,9,0,1,2,3,4,5,6,7,8,9,0,1,2,3,4,5,6,7,8,9,0,1,2,3,4,5,6,7,8,9,0,1,2,3,4,5,6,7,8,9,0,1,2,3,4,5,6,7,8,9,0,1,2,3,4,5,6,7,8,9,0,1,2,3,4,5,6,7,8,9,0,1,2,3,4,5,6,7,8,9,0,1,2,3,4,5,6,7,8,9,0,1,2,3,4,5,6,7,8,9,0,1,2,3,4,5,6,7,8,9,0,1,2,3,4,5,6,7,8,9,0,1,2,3,4,5,6,7,8,9,0,1,2,3,4,5,6,7,8,9,0,1,2,3,4,5,6,7,8,9,0,1,2,3,4,5,6,7,8,9,0,1,2,3,4,5,6,7,8,9,0,1,2,3,4,5,6,7,8,9,0,1,2,3,4,5,6,7,8,9,0,1,2,3,4,5,6,7,8,9,0,1,2,3,4,5,6,7,8,9,0,1,2,3,4,5,6,7,8,9,0,1,2,3,4,5,6,7,8,9,0,1,2,3,4,5,6,7,8,9,0,1,2,3,4,5,6,7,8,9,0,1,2,3,4,5,6,7,8,9,0,1,2,3,4,5,6,7,8,9,0,1,2,3,4,5,6,7,8,9,0,1,2,3,4,5,6,7,8,9,0,1,2,3,4,5,6,7,8,9,0,1,2,3,4,5,6,7,8,9,0,1,2,3,4,5,6,7,8,9,0,1,2,3,4,5,6,7,8,9,0,1,2,3,4,5,6,7,8,9,0,1,2,3,4,5,6,7,8,9,0,1,2,3,4,5,6,7,8,9,0,1,2,3,4,5,6,7,8,9,0,1,2,3,4,5,6,7,8,9,0,1,2,3,4,5,6,7,8,9,0,1,2,3,4,5,6,7,8,9,0,1,2,3,4,5,6,7,8,9,0,1,2,3,4,5,6,7,8,9,0,1,2,3,4,5,6,7,8,9,0,1,2,3,4,5,6,7,8,9,0,1,2,3,4,5,6,7,8,9,0,1,2,3,4,5,6,7,8,9,0,1,2,3,4,5,6,7,8,9,0,1,2,3,4,5,6,7,8,9,0,1,2,3,4,5,6,7,8,9,0,1,2,3,4,5,6,7,8,9,0,1,2,3,4,5,6,7,8,9,0,1,2,3,4,5,6,7,8,9,0,1,2,3,4,5,6,7,8,9,0,1,2,3,4,5,6,7,8,9,0,1,2,3,4,5,6,7,8,9,0,1,2,3,4,5,6,7,8,9,0,1,2,3,4,5,6,7,8,9,0,1,2,3,4,5,6,7,8,9,0,1,2,3,4,5,6,7,8,9,0,1,2,3,4,5,6,7,8,9,0,1,2,3,4,5,6,7,8,9,0,1,2,3,4,5,6,7,8,9,0,1,2,3,4,5,6,7,8,9,0,1,2,3,4,5,6,7,8,9,0,1,2,3,4,5,6,7,8,9,0,1,2,3,4,5,6,7,8,9,0,1,2,3,4,5,6,7,8,9,0,1,2,3,4,5,6,7,8,9,0,1,2,3,4,5,6,7,8,9,0,1,2,3,4,5,6,7,8,9,0,1,2,3,4,5,6,7,8,9,0,1,2,3,4,5,6,7,8,9,0,1,2,3,4,5,6,7,8,9,0,1,2,3,4,5,6,7,8,9,0,1,2,3,4,5,6,7,8,9,0,1,2,3,4,5,6,7,8,9,0,1,2,3,4,5,6,7,8,9,0,1,2,3,4,5,6,7,8,9,0,1,2,3,4,5,6,7,8,9,0,1,2,3,4,5,6,7,8,9,0,1,2,3,4,5,6,7,8,9,0,1,2,3,4,5,6,7,8,9,0,1,2,3,4,5,6,7,8,9,0,1,2,3,4,5,6,7,8,9,0,1,2,3,4,5,6,7,8,9,0,1,2,3,4,5,6,7,8,9,0,1,2,3,4,5,6,7,8,9,0,1,2,3,4,5,6,7,8,9,0,1,2,3,4,5,6,7,8,9,0,1,2,3,4,5,6,7,8,9,0,1,2,3,4,5,6,7,8,9,0,1,2,3,4,5,6,7,8,9,0,1,2,3,4,5,6,7,8,9,0,1,2,3,4,5,6,7,8,9,0,1,2,3,4,5,6,7,8,9,0,1,2,3,4,5,6,7,8,9,0,1,2,3,4,5,6,7,8,9,0,1,2,3,4,5,6,7,8,9,0,1,2,3,4,5,6,7,8,9,0,1,2,3,4,5,6,7,8,9,0,1,2,3,4,5,6,7,8,9,0,1,2,3,4,5,6,7,8,9,0,1,2,3,4,5,6,7,8,9,0,1,2,3,4,5,6,7,8,9,0,1,2,3,4,5,6,7,8,9,0,1,2,3,4,5,6,7,8,9,0,1,2,3,4,5,6,7,8,9,0,1,2,3,4,5,6,7,8,9,0,1,2,3,4,5,6,7,8,9,0,1,2,3,4,5,6,7,8,9,0,1,2,3,4,5,6,7,8,9,0,1,2,3,4,5,6,7,8,9,0,1,2,3,4,5,6,7,8,9,0,1,2,3,4,5,6,7,8,9,0,1,2,3,4,5,6,7,8,9,0,1,2,3,4,5,6,7,8,9],"trees":[{"base_weights":[-7.958021E-3,-1.9277439E-1,9.414176E-1,-3.7865514E-1,1.0777301E0,-3.341539E-1,1.8140644E0,-4.574557E-1,4.0751377E-1,1.4084594E-1,9.720172E-3,-5.1636044E-3,-4.3417003E-2,1.1705846E0,2.4884169E-1,7.798152E-2,-5.1598763E-1,-4.2603917E-2,1.4612679E-1,1.8115237E-1,-5.1636044E-3,-3.9520297E-2,5.0127994E-2,-5.1636044E-3,-5.319015E-1,-5.490003E-2,-8.911558E-3],"categories":[],"categories_nodes":[],"categories_segments":[],"categories_sizes":[],"default_left":[0,0,0,0,0,0,0,0,0,0,0,0,0,0,0,0,0,0,0,0,0,0,0,0,0,0,0],"id":0,"left_children":[1,3,5,7,9,11,13,15,17,-1,-1,-1,-1,19,-1,21,23,-1,-1,-1,-1,-1,-1,-1,25,-1,-1],"loss_changes":[1.5912235E1,1.8362202E1,1.7184399E1,4.3661547E0,2.9334507E0,1.20970905E-1,6.1208534E-1,2.0219822E0,6.4815087E0,0E0,0E0,0E0,0E0,5.4025297E0,0E0,1.5695179E0,3.2830906E-1,0E0,0E0,0E0,0E0,0E0,0E0,0E0,2.9511452E-1,0E0,0E0],"parents":[2147483647,0,0,1,1,2,2,3,3,4,4,5,5,6,6,7,7,8,8,13,13,15,15,16,16,24,24],"right_children":[2,4,6,8,10,12,14,16,18,-1,-1,-1,-1,20,-1,22,24,-1,-1,-1,-1,-1,-1,-1,26,-1,-1],"split_conditions":[1.59E2,6.25E-2,4.5E1,8.3333336E-2,1E0,-9.42E-2,2.2E-2,2E1,4.3E-2,1.4084594E-1,9.720172E-3,-5.1636044E-3,-4.3417003E-2,-3.27E-2,2.4884169E-1,5E0,-2.43E-1,-4.2603917E-2,1.4612679E-1,1.8115237E-1,-5.1636044E-3,-3.9520297E-2,5.0127994E-2,-5.1636044E-3,7.2E1,-5.490003E-2,-8.911558E-3],"split_indices":[17,28,8,35,17,11,11,8,11,0,0,0,0,11,0,17,11,0,0,0,0,0,0,0,22,0,0],"split_type":[0,0,0,0,0,0,0,0,0,0,0,0,0,0,0,0,0,0,0,0,0,0,0,0,0,0,0],"sum_hessian":[8.908096E1,7.532049E1,1.3760474E1,6.638825E1,8.932238E0,5.793884E0,7.96659E0,6.0835777E1,5.5524716E0,6.276707E0,2.65553E0,2.1727064E0,3.6211772E0,5.5524716E0,2.4141183E0,5.793884E0,5.5041897E1,3.3797655E0,2.1727064E0,3.3797655E0,2.1727064E0,2.65553E0,3.1383536E0,2.1727064E0,5.286919E1,5.045507E1,2.4141183E0],"tree_param":{"num_deleted":"0","num_feature":"38","num_nodes":"27","size_leaf_vector":"1"}},{"base_weights":[3.1080356E-2,3.895858E-1,-1.3567153E-1,2.539365E-1,1.3589944E-1,-2.5819433E-1,3.05468E-1,1.2771459E-1,8.2998954E-2,-4.0285912E-1,3.3904273E-2,1.20755E0,-1.8153676E-1,3.159637E-2,7.786592E-2,-4.6445653E-1,3.199591E-2,4.0187326E-1,-4.1733953E-1,1.7977186E-1,1.6513197E-2,-5.0885137E-2,3.61121E-2,1.2394151E-1,-4.3151025E-2,-3.320499E-1,-5.62795E-2,-8.027895E-3,1.6513197E-2,1.09754264E-1,3.5270207E-2,-5.0121393E-2,-8.027895E-3,9.3976577E-4,6.685146E-2,-4.169356E-2,5.1735914E-3,4.481059E-2,-4.4251747E-2],"categories":[],"categories_nodes":[],"categories_segments":[],"categories_sizes":[],"default_left":[0,0,0,0,0,0,0,0,0,0,0,0,0,0,0,0,0,0,0,0,0,0,0,0,0,0,0,0,0,0,0,0,0,0,0,0,0,0,0],"id":1,"left_children":[1,3,5,7,-1,9,11,13,-1,15,17,19,21,23,-1,25,27,29,31,-1,-1,-1,-1,33,-1,35,-1,-1,-1,-1,37,-1,-1,-1,-1,-1,-1,-1,-1],"loss_changes":[6.3524656E0,3.934042E0,3.9757133E0,2.0480995E0,0E0,2.4681892E0,7.3383574E0,1.5652823E0,0E0,1.0912352E0,3.4278793E0,3.076356E0,2.1824145E0,1.0681667E0,0E0,1.6699553E-1,1.04249135E-1,2.7686007E0,1.6147602E-1,0E0,0E0,0E0,0E0,1.2569716E0,0E0,6.244198E-1,0E0,0E0,0E0,0E0,1.9005018E0,0E0,0E0,0E0,0E0,0E0,0E0,0E0,0E0],"parents":[2147483647,0,0,1,1,2,2,3,3,5,5,6,6,7,7,9,9,10,10,11,11,12,12,13,13,15,15,16,16,17,17,18,18,23,23,25,25,30,30],"right_children":[2,4,6,8,-1,10,12,14,-1,16,18,20,22,24,-1,26,28,30,32,-1,-1,-1,-1,34,-1,36,-1,-1,-1,-1,38,-1,-1,-1,-1,-1,-1,-1,-1],"split_conditions":[-3E-1,1.2E0,4.4E-2,6.666667E-2,1.3589944E-1,4E1,2E1,1.82E-1,8.2998954E-2,1E0,5E-3,6E-2,8.193511E-2,1.1070234E0,7.786592E-2,5E0,-2E-1,4.5E1,8.193511E-2,1.7977186E-1,1.6513197E-2,-5.0885137E-2,3.61121E-2,6E1,-4.3151025E-2,4E0,-5.62795E-2,-8.027895E-3,1.6513197E-2,1.09754264E-1,1.1304348E0,-5.0121393E-2,-8.027895E-3,9.3976577E-4,6.685146E-2,-4.169356E-2,5.1735914E-3,4.481059E-2,-4.4251747E-2],"split_indices":[9,20,23,32,0,19,19,25,0,5,23,23,14,20,0,17,9,19,14,0,0,0,0,22,0,17,0,0,0,0,20,0,0,0,0,0,0,0,0],"split_type":[0,0,0,0,0,0,0,0,0,0,0,0,0,0,0,0,0,0,0,0,0,0,0,0,0,0,0,0,0,0,0,0,0,0,0,0,0,0,0],"sum_hessian":[1.0395258E2,3.2767662E1,7.118492E1,2.9942863E1,2.8247986E0,5.621349E1,1.4971432E1,2.5705667E1,4.237198E0,3.756982E1,1.8643671E1,4.8021574E0,1.0169274E1,2.3445827E1,2.2598388E0,3.3050144E1,4.5196776E0,1.0451755E1,8.1919155E0,2.5423186E0,2.2598388E0,6.4970365E0,3.672238E0,2.0338549E1,3.1072783E0,1.6383831E1,1.6666311E1,2.2598388E0,2.2598388E0,2.8247986E0,7.626956E0,5.932077E0,2.2598388E0,1.779623E1,2.5423186E0,1.3559032E1,2.8247986E0,4.237198E0,3.389758E0],"tree_param":{"num_deleted":"0","num_feature":"38","num_nodes":"39","size_leaf_vector":"1"}},{"base_weights":[-0E0,-2.4664977E-1,2.970491E-1,-5.0254434E-2,1.0403819E0,2.6848885E-1,-9.760646E-2,2.4058022E-2,-3.7395123E-2],"categories":[],"categories_nodes":[],"categories_segments":[],"categories_sizes":[],"default_left":[0,0,0,0,0,0,0,0,0],"id":2,"left_children":[1,3,-1,-1,5,-1,7,-1,-1],"loss_changes":[3.9305435E1,1.6824818E1,0E0,0E0,1.6422844E1,0E0,6.594628E-1,0E0,0E0],"parents":[2147483647,0,0,1,1,4,4,6,6],"right_children":[2,4,-1,-1,6,-1,8,-1,-1],"split_conditions":[5E1,6.666667E-2,2.970491E-1,-5.0254434E-2,2.5E1,2.6848885E-1,3.27E-2,2.4058022E-2,-3.7395123E-2],"split_indices":[8,30,0,0,8,0,12,0,0],"split_type":[0,0,0,0,0,0,0,0,0],"sum_hessian":[5.177365E1,4.8661575E1,3.1120775E0,4.1164295E1,7.4972773E0,2.546245E0,4.951032E0,2.121871E0,2.8291612E0],"tree_param":{"num_deleted":"0","num_feature":"38","num_nodes":"9","size_leaf_vector":"1"}},{"base_weights":[2.16381E-2,-4.7384527E-2,3.8097998E-1,2.0136194E0,-2.2829251E-1,3.0600963E0,-4.1038994E-2,-3.82271E-1,3.7744477E-1,3.7241316E-1,1.0130532E-1,-4.0964022E-2,-5.2348804E-2,9.667458E-2,-3.7941642E-2,2.578996E-2,-2.710755E-1,-3.6955267E-2,-5.3814123E-3],"categories":[],"categories_nodes":[],"categories_segments":[],"categories_sizes":[],"default_left":[0,0,0,0,0,0,0,0,0,0,0,0,0,0,0,0,0,0,0],"id":3,"left_children":[1,-1,3,5,7,9,-1,11,13,-1,-1,15,-1,-1,-1,-1,17,-1,-1],"loss_changes":[1.317937E1,0E0,4.343018E1,3.1548573E1,3.1463547E0,7.192276E0,0E0,1.1891229E0,3.5004172E0,0E0,0E0,6.8917876E-1,0E0,0E0,0E0,0E0,6.0869247E-2,0E0,0E0],"parents":[2147483647,0,0,2,2,3,3,4,4,5,5,7,7,8,8,11,11,16,16],"right_children":[2,-1,4,6,8,10,-1,12,14,-1,-1,16,-1,-1,-1,-1,18,-1,-1],"split_conditions":[3.5E1,-4.7384527E-2,4E1,7.1428575E-2,5E1,2.6000312E-2,-4.1038994E-2,1E0,1.1100569E0,3.7241316E-1,1.0130532E-1,-3E-1,-5.2348804E-2,9.667458E-2,-3.7941642E-2,2.578996E-2,-2.1E-2,-3.6955267E-2,-5.3814123E-3],"split_indices":[8,0,8,34,8,13,0,17,20,0,0,9,0,0,0,0,10,0,0],"split_type":[0,0,0,0,0,0,0,0,0,0,0,0,0,0,0,0,0,0,0],"sum_hessian":[7.205972E1,3.0040728E1,4.2018993E1,1.0837478E1,3.1181515E1,7.4151163E0,3.4223614E0,2.5287449E1,5.894067E0,4.943411E0,2.4717054E0,7.98551E0,1.7301937E1,3.2322302E0,2.6618366E0,3.2322302E0,4.7532797E0,2.4717054E0,2.2815742E0],"tree_param":{"num_deleted":"0","num_feature":"38","num_nodes":"19","size_leaf_vector":"1"}},{"base_weights":[5.350476E-2,-8.4333144E-2,2.0544875E-1,-3.4844774E-1,4.2905623E-1,-4.0614882E-1,1.775471E-2,2.1141048E-1,9.257728E-2,-4.5243517E-2,2.5575584E-2,-3.805771E-1,5.212878E-1,-4.661092E-2,-7.7079557E-4,-1.2257133E-2,1.17204405E-1,5.8508564E-2,-4.139778E-2],"categories":[],"categories_nodes":[],"categories_segments":[],"categories_sizes":[],"default_left":[0,0,0,0,0,0,0,0,0,0,0,0,0,0,0,0,0,0,0],"id":4,"left_children":[1,3,-1,5,7,9,-1,-1,11,-1,-1,13,15,-1,-1,17,-1,-1,-1],"loss_changes":[1.8807121E1,8.745096E0,0E0,1.3872309E0,1.1985706E1,1.3254638E0,0E0,0E0,4.1331205E0,0E0,0E0,2.569455E-1,3.8361738E0,0E0,0E0,1.849664E0,0E0,0E0,0E0],"parents":[2147483647,0,0,1,1,3,3,4,4,5,5,8,8,11,11,12,12,15,15],"right_children":[2,4,-1,6,8,10,-1,-1,12,-1,-1,14,16,-1,-1,18,-1,-1,-1],"split_conditions":[2.73E-1,1.146789E1,2.0544875E-1,1.419E-1,-1.826E-1,6E-2,1.775471E-2,2.1141048E-1,6.9E1,-4.5243517E-2,2.5575584E-2,1.112E-1,4.39E-2,-4.661092E-2,-7.7079557E-4,1.12E2,1.17204405E-1,5.8508564E-2,-4.139778E-2],"split_indices":[25,18,0,12,11,23,0,0,17,0,0,12,11,0,0,17,0,0,0],"split_type":[0,0,0,0,0,0,0,0,0,0,0,0,0,0,0,0,0,0,0],"sum_hessian":[6.584587E1,6.2451756E1,3.394117E0,4.1577934E1,2.087382E1,3.7844406E1,3.7335289E0,2.5455878E0,1.8328232E1,3.5807934E1,2.0364702E0,8.654999E0,9.673234E0,6.6185284E0,2.0364702E0,5.769999E0,3.9032347E0,2.0364702E0,3.7335289E0],"tree_param":{"num_deleted":"0","num_feature":"38","num_nodes":"19","size_leaf_vector":"1"}},{"base_weights":[2.3635764E-2,-2.2318219E-1,2.506015E0,-5.47525E-2,5.2993596E-1,3.230307E-1,5.454856E-2,1.6644897E0,-4.2707908E-1,-3.496E-2,2.259088E-1,-2.9926577E-3,-4.9661484E-2],"categories":[],"categories_nodes":[],"categories_segments":[],"categories_sizes":[],"default_left":[0,0,0,0,0,0,0,0,0,0,0,0,0],"id":5,"left_children":[1,3,5,-1,7,-1,-1,9,11,-1,-1,-1,-1],"loss_changes":[4.73936E1,1.7407686E1,7.7969475E0,0E0,2.4187714E1,0E0,0E0,1.3068062E1,2.7533603E-1,0E0,0E0,0E0,0E0],"parents":[2147483647,0,0,1,1,2,2,4,4,7,7,8,8],"right_children":[2,4,6,-1,8,-1,-1,10,12,-1,-1,-1,-1],"split_conditions":[1E0,4.5E1,1E-1,-5.47525E-2,2E1,3.230307E-1,5.454856E-2,-5E-1,-5.8E-3,-3.496E-2,2.259088E-1,-2.9926577E-3,-4.9661484E-2],"split_indices":[4,8,29,0,19,0,0,9,12,0,0,0,0],"split_type":[0,0,0,0,0,0,0,0,0,0,0,0,0],"sum_hessian":[7.506715E1,6.906951E1,5.997633E0,4.8561478E1,2.0508036E1,3.8694406E0,2.1281924E0,9.093185E0,1.1414849E1,2.1281924E0,6.964993E0,2.1281924E0,9.286657E0],"tree_param":{"num_deleted":"0","num_feature":"38","num_nodes":"13","size_leaf_vector":"1"}},{"base_weights":[8.92324E-3,-3.4330603E-1,1.2111557E0,-3.96141E-1,2.4586264E-2,1.878269E0,-4.134452E-2,-4.1256663E-1,-1.1088512E-3,2.3806455E0,-1.1088512E-3,-4.3070543E-1,-1.1088512E-3,4.6964105E-2,3.0917673E0,-3.755354E-3,-4.5042822E-1,1.3549282E-1,3.92593E-1,-4.6946097E-2,-1.9438995E-2],"categories":[],"categories_nodes":[],"categories_segments":[],"categories_sizes":[],"default_left":[0,0,0,0,0,0,0,0,0,0,0,0,0,0,0,0,0,0,0,0,0],"id":6,"left_children":[1,3,5,7,-1,9,-1,11,-1,13,-1,15,-1,-1,17,-1,19,-1,-1,-1,-1],"loss_changes":[2.5944689E1,1.5811424E0,1.5986841E1,2.3032236E-1,0E0,9.828293E0,0E0,2.5521135E-1,0E0,9.072937E0,0E0,2.4210262E-1,0E0,0E0,2.2922592E0,0E0,2.4941444E-2,0E0,0E0,0E0,0E0],"parents":[2147483647,0,0,1,1,2,2,3,3,5,5,7,7,9,9,11,11,14,14,16,16],"right_children":[2,4,6,8,-1,10,-1,12,-1,14,-1,16,-1,-1,18,-1,20,-1,-1,-1,-1],"split_conditions":[8.526351E0,1E0,4E1,1.419E-1,2.4586264E-2,6.74E-2,-4.134452E-2,4.7130927E-1,-1.1088512E-3,1.9E1,-1.1088512E-3,-2.43E-1,-1.1088512E-3,4.6964105E-2,2E-1,-3.755354E-3,1.92E2,1.3549282E-1,3.92593E-1,-4.6946097E-2,-1.9438995E-2],"split_indices":[16,6,8,12,0,10,0,14,0,17,0,10,0,0,9,0,17,0,0,0,0],"split_type":[0,0,0,0,0,0,0,0,0,0,0,0,0,0,0,0,0,0,0,0,0],"sum_hessian":[5.9081284E1,4.6182133E1,1.2899148E1,4.283791E1,3.3442235E0,9.077178E0,3.8219697E0,4.0767677E1,2.0702336E0,7.0069447E0,2.0702336E0,3.8697445E1,2.0702336E0,2.388731E0,4.6182137E0,2.2294824E0,3.646796E1,2.388731E0,2.2294824E0,3.280524E1,3.662721E0],"tree_param":{"num_deleted":"0","num_feature":"38","num_nodes":"21","size_leaf_vector":"1"}},{"base_weights":[-2.1326574E-2,-4.0745515E-1,4.0180302E-1,-4.5386434E-1,5.81329E-3,-5.966653E-3,-5.084874E-2],"categories":[],"categories_nodes":[],"categories_segments":[],"categories_sizes":[],"default_left":[0,0,0,0,0,0,0],"id":7,"left_children":[1,3,-1,5,-1,-1,-1],"loss_changes":[6.4619995E1,8.8703585E-1,0E0,6.63548E-1,0E0,0E0,0E0],"parents":[2147483647,0,0,1,1,3,3],"right_children":[2,4,-1,6,-1,-1,-1],"split_conditions":[8.3333336E-2,1E0,4.0180302E-1,-5E-1,5.81329E-3,-5.966653E-3,-5.084874E-2],"split_indices":[35,6,0,9,0,0,0],"split_type":[0,0,0,0,0,0,0],"sum_hessian":[3.961258E1,3.699961E1,2.6129668E0,3.386405E1,3.1355603E0,4.5988216E0,2.9265228E1],"tree_param":{"num_deleted":"0","num_feature":"38","num_nodes":"7","size_leaf_vector":"1"}},{"base_weights":[-1.2222135E-2,-4.6721414E-1,6.320663E-1,-4.929453E-1,-3.491915E-3,3.5515374E-1,-5.0867736E-2,-1.1406388E-2,-5.2206855E-2],"categories":[],"categories_nodes":[],"categories_segments":[],"categories_sizes":[],"default_left":[0,0,0,0,0,0,0,0,0],"id":8,"left_children":[1,3,5,7,-1,-1,-1,-1,-1],"loss_changes":[1.7172112E1,3.131075E-1,8.265939E1,2.3227262E-1,0E0,0E0,0E0,0E0,0E0],"parents":[2147483647,0,0,1,1,2,2,3,3],"right_children":[2,4,6,8,-1,-1,-1,-1,-1],"split_conditions":[4E1,1E-1,4.5E1,-6E-1,-3.491915E-3,3.5515374E-1,-5.0867736E-2,-1.1406388E-2,-5.2206855E-2],"split_indices":[8,29,8,9,0,0,0,0,0],"split_type":[0,0,0,0,0,0,0,0,0],"sum_hessian":[5.662753E1,3.3441452E1,2.3186075E1,3.1212023E1,2.2294302E0,5.9451475E0,1.7240927E1,2.823945E0,2.8388079E1],"tree_param":{"num_deleted":"0","num_feature":"38","num_nodes":"9","size_leaf_vector":"1"}},{"base_weights":[1.4690281E-2,-3.5190392E-1,5.3609943E-1,7.044642E-1,-5.228178E-2,-4.9344018E-2,1.5314128E0,-1.0360191E-3,1.2230851E-1,-2.428232E-1,2.5279222E0,-1.0360191E-3,-3.53345E-2,3.7026274E-1,-7.782699E-3],"categories":[],"categories_nodes":[],"categories_segments":[],"categories_sizes":[],"default_left":[0,0,0,0,0,0,0,0,0,0,0,0,0,0,0],"id":9,"left_children":[1,3,5,7,-1,-1,9,-1,-1,11,13,-1,-1,-1,-1],"loss_changes":[1.1307551E1,6.5953097E0,2.5947886E1,2.0474677E0,0E0,0E0,2.3370163E1,0E0,0E0,1.0021907E-1,2.6004204E1,0E0,0E0,0E0,0E0],"parents":[2147483647,0,0,1,1,2,2,3,3,6,6,9,9,10,10],"right_children":[2,4,6,8,-1,-1,10,-1,-1,12,14,-1,-1,-1,-1],"split_conditions":[4E1,-6E-1,1E0,-3.8E-2,-5.228178E-2,-4.9344018E-2,-8.11E-2,-1.0360191E-3,1.2230851E-1,-1.53E-1,4.46E-2,-1.0360191E-3,-3.53345E-2,3.7026274E-1,-7.782699E-3],"split_indices":[8,9,2,10,0,0,10,0,0,10,10,0,0,0,0],"split_type":[0,0,0,0,0,0,0,0,0,0,0,0,0,0,0],"sum_hessian":[5.7073414E1,3.359008E1,2.3483332E1,4.161603E0,2.9428478E1,1.1741666E1,1.1741666E1,2.0808015E0,2.0808015E0,4.4588604E0,7.2828054E0,2.0808015E0,2.378059E0,4.756118E0,2.5266876E0],"tree_param":{"num_deleted":"0","num_feature":"38","num_nodes":"15","size_leaf_vector":"1"}},{"base_weights":[2.595439E-2,-1.1017785E-1,1.0473704E0,-2.6465377E-1,1.03845E0,-1.6879637E-2,1.5360459E0,-5.313837E-1,-1.2498964E-2,1.5821238E0,-0E0,8.3889955E-1,2.0458153E-1,-3.6366011E-3,-5.5775948E-2,-1.0465745E-1,8.7521866E-2,7.0502125E-2,2.1723297E-1,1.2062844E-1,1.9363983E-2,-1.9064943E-1,8.920243E-2,-3.5531137E-2,2.1055816E-2],"categories":[],"categories_nodes":[],"categories_segments":[],"categories_sizes":[],"default_left":[0,0,0,0,0,0,0,0,0,0,0,0,0,0,0,0,0,0,0,0,0,0,0,0,0],"id":10,"left_children":[1,3,5,7,9,-1,11,13,15,17,-1,19,-1,-1,-1,21,-1,-1,-1,-1,-1,23,-1,-1,-1],"loss_changes":[1.3361506E1,1.5152315E1,7.115057E0,4.99441E0,5.750943E0,0E0,9.1749E-1,3.9439106E-1,3.2751372E0,1.6265335E0,0E0,8.7120914E-1,0E0,0E0,0E0,3.279828E0,0E0,0E0,0E0,0E0,0E0,2.4062443E0,0E0,0E0,0E0],"parents":[2147483647,0,0,1,1,2,2,3,3,4,4,6,6,7,7,8,8,9,9,11,11,15,15,21,21],"right_children":[2,4,6,8,10,-1,12,14,16,18,-1,20,-1,-1,-1,22,-1,-1,-1,-1,-1,24,-1,-1,-1],"split_conditions":[6E1,6.25E-2,5E-3,9E0,-3E-1,-1.6879637E-2,2.59E-2,-1.269E-1,1E0,1.25E-1,-0E0,1.1935484E0,2.0458153E-1,-3.6366011E-3,-5.5775948E-2,1.332E-1,8.7521866E-2,7.0502125E-2,2.1723297E-1,1.2062844E-1,1.9363983E-2,1.59E2,8.920243E-2,-3.5531137E-2,2.1055816E-2],"split_indices":[19,28,23,17,9,0,11,11,0,28,0,20,0,0,0,11,0,0,0,0,0,17,0,0,0],"split_type":[0,0,0,0,0,0,0,0,0,0,0,0,0,0,0,0,0,0,0,0,0,0,0,0,0],"sum_hessian":[9.358908E1,8.328346E1,1.030562E1,7.416576E1,9.117705E0,3.0829732E0,7.222647E0,3.5310394E1,3.8855362E1,5.6563673E0,3.461338E0,4.2509627E0,2.9716847E0,2.0983803E0,3.3212013E1,3.610217E1,2.7531962E0,3.2260761E0,2.4302912E0,2.0559535E0,2.195009E0,3.407158E1,2.0305886E0,2.4414944E1,9.656635E0],"tree_param":{"num_deleted":"0","num_feature":"38","num_nodes":"25","size_leaf_vector":"1"}},{"base_weights":[4.2293187E-2,1.8435495E-1,-1.145255E-1,3.8654688E-1,-5.474162E-1,-3.7923515E-1,1.3261522E0,-5.8517702E-2,1.6121468E-2,-1.2226463E-1,-5.5498343E-2,2.0562596E0,-1.2333007E-1,3.6965687E-2,-3.1114087E-1,9.05894E-2,2.3236315E-1,4.5889053E-2,-4.7158998E-2,-1.2159753E-2,-4.507547E-2],"categories":[],"categories_nodes":[],"categories_segments":[],"categories_sizes":[],"default_left":[0,0,0,0,0,0,0,0,0,0,0,0,0,0,0,0,0,0,0,0,0],"id":11,"left_children":[1,-1,3,5,7,9,11,-1,-1,13,-1,15,17,-1,19,-1,-1,-1,-1,-1,-1],"loss_changes":[2.9485008E1,0E0,2.0977804E1,3.2846004E1,1.5240011E0,1.012095E0,2.2042301E1,0E0,0E0,1.2087651E0,0E0,1.7775917E0,1.7856714E0,0E0,1.3250577E-1,0E0,0E0,0E0,0E0,0E0,0E0],"parents":[2147483647,0,0,2,2,3,3,4,4,5,5,6,6,9,9,11,11,12,12,14,14],"right_children":[2,-1,4,6,8,10,12,-1,-1,14,-1,16,18,-1,20,-1,-1,-1,-1,-1,-1],"split_conditions":[0E0,1.8435495E-1,3.1E1,2.5E1,1E-1,6E0,5E-2,-5.8517702E-2,1.6121468E-2,1.1E1,-5.5498343E-2,8.897637E0,4E-3,3.6965687E-2,-4E-1,9.05894E-2,2.3236315E-1,4.5889053E-2,-4.7158998E-2,-1.2159753E-2,-4.507547E-2],"split_indices":[21,0,8,8,29,17,29,0,0,8,0,18,10,0,9,0,0,0,0,0,0],"split_type":[0,0,0,0,0,0,0,0,0,0,0,0,0,0,0,0,0,0,0,0,0],"sum_hessian":[1.02022995E2,7.360485E0,9.466251E1,4.381851E1,5.0844006E1,2.4412325E1,1.9406181E1,4.857113E1,2.272878E0,1.0834835E1,1.3577491E1,1.267309E1,6.733091E0,2.5935194E0,8.241315E0,3.2881207E0,9.384969E0,2.2936914E0,4.4393997E0,4.592982E0,3.6483333E0],"tree_param":{"num_deleted":"0","num_feature":"38","num_nodes":"21","size_leaf_vector":"1"}},{"base_weights":[-0E0,-2.5606152E-1,3.2472992E-1,1.05259575E-1,-4.1913036E-1,-1.4765918E-1,-5.208811E-2,2.5371724E-1,-4.6621468E-2,5.668458E-2,-1.1269375E-2],"categories":[],"categories_nodes":[],"categories_segments":[],"categories_sizes":[],"default_left":[0,0,0,0,0,0,0,0,0,0,0],"id":12,"left_children":[1,3,-1,-1,5,7,-1,9,-1,-1,-1],"loss_changes":[4.6222427E1,1.1335287E1,0E0,0E0,1.1390352E0,1.9710882E0,0E0,8.948798E-1,0E0,0E0,0E0],"parents":[2147483647,0,0,1,1,4,4,5,5,7,7],"right_children":[2,4,-1,-1,6,8,-1,10,-1,-1,-1],"split_conditions":[5.5E1,2E1,3.2472992E-1,1.05259575E-1,4.786325E0,-3.63E-2,-5.208811E-2,3.1E1,-4.6621468E-2,5.668458E-2,-1.1269375E-2],"split_indices":[8,8,0,0,18,10,0,8,0,0,0],"split_type":[0,0,0,0,0,0,0,0,0,0,0],"sum_hessian":[5.3410854E1,5.0346756E1,3.064101E0,4.906116E0,4.544064E1,1.3324589E1,3.211605E1,5.847024E0,7.477565E0,3.0049455E0,2.8420787E0],"tree_param":{"num_deleted":"0","num_feature":"38","num_nodes":"11","size_leaf_vector":"1"}},{"base_weights":[1.4178653E-2,-5.024566E-1,3.969323E-1,-2.5038785E-1,-5.318302E-2,1.5232351E0,-1.2143389E-1,-9.2446787E-4,-3.624902E-2,2.1869307E0,-3.999464E-2,-3.1747094E-1,6.0514766E-1,2.221866E-2,2.6710638E-1,1.0312E-1,-5.158286E-2,1.640457E-1,-3.9476257E-2,3.2161266E-1,-3.419454E-2,-1.14450585E-2,7.247897E-2],"categories":[],"categories_nodes":[],"categories_segments":[],"categories_sizes":[],"default_left":[0,0,0,0,0,0,0,0,0,0,0,0,0,0,0,0,0,0,0,0,0,0,0],"id":13,"left_children":[1,3,5,7,-1,9,11,-1,-1,13,-1,15,17,-1,-1,19,-1,-1,-1,21,-1,-1,-1],"loss_changes":[1.4103364E1,1.2782097E-2,2.4315136E1,1.0558203E-1,0E0,1.7755693E1,4.2946978E0,0E0,0E0,8.55447E0,0E0,2.0638633E0,7.3961096E0,0E0,0E0,9.089371E-1,0E0,0E0,0E0,1.2323954E0,0E0,0E0,0E0],"parents":[2147483647,0,0,1,1,2,2,3,3,5,5,6,6,9,9,11,11,12,12,15,15,19,19],"right_children":[2,4,6,8,-1,10,12,-1,-1,14,-1,16,18,-1,-1,20,-1,-1,-1,22,-1,-1,-1],"split_conditions":[3.5E1,-1.06E-1,4E1,9.8E1,-5.318302E-2,7.1428575E-2,5E1,-9.2446787E-4,-3.624902E-2,1E0,-3.999464E-2,1E0,5.5E1,2.221866E-2,2.6710638E-1,7.046922E0,-5.158286E-2,1.640457E-1,-3.9476257E-2,-4E-1,-3.419454E-2,-1.14450585E-2,7.247897E-2],"split_indices":[8,10,8,17,0,34,8,0,0,17,0,17,8,0,0,16,0,0,0,9,0,0,0],"split_type":[0,0,0,0,0,0,0,0,0,0,0,0,0,0,0,0,0,0,0,0,0,0,0],"sum_hessian":[6.93661E1,2.9275906E1,4.009019E1,4.40481E0,2.4871096E1,1.208543E1,2.8004763E1,2.0244741E0,2.3803358E0,8.921462E0,3.163968E0,2.260615E1,5.3986125E0,2.0929978E0,6.828464E0,7.2370152E0,1.5369134E1,2.3867602E0,3.0118523E0,5.190801E0,2.046214E0,2.7185757E0,2.4722254E0],"tree_param":{"num_deleted":"0","num_feature":"38","num_nodes":"23","size_leaf_vector":"1"}},{"base_weights":[3.428959E-2,-1.06631845E-1,1.5365988E-1,-2.4068016E-1,1.3240542E-1,6.3402617E-1,-3.3422962E-1,-3.511858E-2,1.4908934E-1,-4.0321463E-1,3.3526707E-2,-4.536725E-1,-1.1487792E-1,-4.7603235E-2,-6.7297486E-4,-3.6042135E-2,3.0078439E-3],"categories":[],"categories_nodes":[],"categories_segments":[],"categories_sizes":[],"default_left":[0,0,0,0,0,0,0,0,0,0,0,0,0,0,0,0,0],"id":14,"left_children":[1,3,-1,5,-1,7,9,-1,-1,11,-1,13,15,-1,-1,-1,-1],"loss_changes":[1.3465902E1,1.12762E1,0E0,4.573451E0,0E0,5.2190638E0,2.41616E0,0E0,0E0,5.4907274E-1,0E0,3.2687235E-1,3.418075E-1,0E0,0E0,0E0,0E0],"parents":[2147483647,0,0,1,1,3,3,5,5,6,6,9,9,11,11,12,12],"right_children":[2,4,-1,6,-1,8,10,-1,-1,12,-1,14,16,-1,-1,-1,-1],"split_conditions":[2.73E-1,6.2E-2,1.5365988E-1,-1.826E-1,1.3240542E-1,1.1397436E1,1.091E-1,-3.511858E-2,1.4908934E-1,6.666667E-2,3.3526707E-2,1.59E-1,-3E-1,-4.7603235E-2,-6.7297486E-4,-3.6042135E-2,3.0078439E-3],"split_indices":[25,26,0,10,0,18,10,0,0,32,0,23,9,0,0,0,0],"split_type":[0,0,0,0,0,0,0,0,0,0,0,0,0,0,0,0,0],"sum_hessian":[6.115675E1,5.6700516E1,4.4562335E0,5.2667496E1,4.033019E0,4.427073E0,4.8240425E1,2.279541E0,2.147532E0,4.4230053E1,4.010369E0,3.6859543E1,7.370513E0,3.482831E1,2.0312352E0,2.4403028E0,4.93021E0],"tree_param":{"num_deleted":"0","num_feature":"38","num_nodes":"17","size_leaf_vector":"1"}},{"base_weights":[3.106626E-2,-2.2082211E-1,2.2867902E-1,-5.431207E-2,4.266061E-1,1.4120378E0,-5.0460763E-2,-3.5482902E-2,1.8972912E0,2.1875417E-1,5.677346E-2],"categories":[],"categories_nodes":[],"categories_segments":[],"categories_sizes":[],"default_left":[0,0,0,0,0,0,0,0,0,0,0],"id":15,"left_children":[1,3,-1,-1,5,7,-1,-1,9,-1,-1],"loss_changes":[4.234165E1,1.417804E1,0E0,0E0,2.1589834E1,1.05338955E1,0E0,0E0,1.9879837E0,0E0,0E0],"parents":[2147483647,0,0,1,1,4,4,5,5,8,8],"right_children":[2,4,-1,-1,6,8,-1,-1,10,-1,-1],"split_conditions":[1E0,4.5E1,2.2867902E-1,-5.431207E-2,1.5E1,-5E-1,-5.0460763E-2,-3.5482902E-2,5E-2,2.1875417E-1,5.677346E-2],"split_indices":[4,8,0,0,17,9,0,0,29,0,0],"split_type":[0,0,0,0,0,0,0,0,0,0,0],"sum_hessian":[7.22678E1,6.578015E1,6.4876523E0,4.4128136E1,2.1652016E1,1.0321069E1,1.1330947E1,2.2373395E0,8.08373E0,6.0438004E0,2.0399292E0],"tree_param":{"num_deleted":"0","num_feature":"38","num_nodes":"11","size_leaf_vector":"1"}},{"base_weights":[5.8259E-2,-3.041408E-1,1.2145501E0,-3.604058E-1,3.634324E-2,1.8487339E0,-4.069409E-2,-2.8086826E-1,-4.9772922E-2,2.2909997E0,1.9293137E-2,-4.9125496E-2,-3.3946377E-1,5.8089532E-2,2.7744368E-1,-2.2721739E-1,2.2468923E-2,-2.1204367E-1,-4.784629E-2,-3.3194415E-2,-2.2983113E-3,-3.7200406E-2,8.618525E-3],"categories":[],"categories_nodes":[],"categories_segments":[],"categories_sizes":[],"default_left":[0,0,0,0,0,0,0,0,0,0,0,0,0,0,0,0,0,0,0,0,0,0,0],"id":16,"left_children":[1,3,5,7,-1,9,-1,11,-1,13,-1,15,17,-1,-1,19,-1,21,-1,-1,-1,-1,-1],"loss_changes":[2.4265848E1,1.7828803E0,1.5110346E1,2.3243475E-1,0E0,6.7505035E0,0E0,3.3622956E-1,0E0,4.5669403E0,0E0,4.0905008E-1,2.282536E-1,0E0,0E0,6.7320615E-2,0E0,7.245854E-1,0E0,0E0,0E0,0E0,0E0],"parents":[2147483647,0,0,1,1,2,2,3,3,5,5,7,7,9,9,11,11,12,12,15,15,17,17],"right_children":[2,4,6,8,-1,10,-1,12,-1,14,-1,16,18,-1,-1,20,-1,22,-1,-1,-1,-1,-1],"split_conditions":[8.526351E0,1E0,4E1,5E-3,3.634324E-2,1.039E-1,-4.069409E-2,2.5E1,-4.9772922E-2,-4.84E-2,1.9293137E-2,1.0052084E0,2.12E-2,5.8089532E-2,2.7744368E-1,6.25E-2,2.2468923E-2,-3E-1,-4.784629E-2,-3.3194415E-2,-2.2983113E-3,-3.7200406E-2,8.618525E-3],"split_indices":[16,6,8,23,0,12,0,8,0,12,0,20,12,0,0,28,0,9,0,0,0,0,0],"split_type":[0,0,0,0,0,0,0,0,0,0,0,0,0,0,0,0,0,0,0,0,0,0,0],"sum_hessian":[5.5809452E1,4.2987103E1,1.2822349E1,4.0208164E1,2.7789385E0,9.160931E0,3.661418E0,2.7850626E1,1.2357537E1,6.8794208E0,2.2815099E0,6.336203E0,2.1514423E1,2.0469637E0,4.832457E0,4.163566E0,2.1726372E0,1.2917721E1,8.596703E0,2.0152478E0,2.148318E0,8.465198E0,4.452523E0],"tree_param":{"num_deleted":"0","num_feature":"38","num_nodes":"23","size_leaf_vector":"1"}},{"base_weights":[-4.5963705E-2,-3.676079E-1,2.4726649E-1,-1.4234123E-1,-4.9864795E-2,-4.595908E-2,3.1391466E-1,7.427389E-2,-1.172591E-2],"categories":[],"categories_nodes":[],"categories_segments":[],"categories_sizes":[],"default_left":[0,0,0,0,0,0,0,0,0],"id":17,"left_children":[1,3,-1,5,-1,-1,7,-1,-1],"loss_changes":[3.1900177E1,8.998532E-1,0E0,2.2684147E0,0E0,0E0,1.3408324E0,0E0,0E0],"parents":[2147483647,0,0,1,1,3,3,6,6],"right_children":[2,4,-1,6,-1,-1,8,-1,-1],"split_conditions":[8.3333336E-2,3.1E1,2.4726649E-1,2.5E1,-4.9864795E-2,-4.595908E-2,1E0,7.427389E-2,-1.172591E-2],"split_indices":[35,8,0,8,0,0,2,0,0],"split_type":[0,0,0,0,0,0,0,0,0],"sum_hessian":[3.7515774E1,3.4059868E1,3.455904E0,1.3574225E1,2.0485641E1,8.131792E0,5.442434E0,2.4826446E0,2.959789E0],"tree_param":{"num_deleted":"0","num_feature":"38","num_nodes":"9","size_leaf_vector":"1"}},{"base_weights":[-4.5081902E-2,-4.3210348E-1,4.5931047E-1,-4.8803443E-1,1.1808468E-2,2.4341439E-1,-5.0517738E-2,-5.1913273E-2,-6.36935E-3],"categories":[],"categories_nodes":[],"categories_segments":[],"categories_sizes":[],"default_left":[0,0,0,0,0,0,0,0,0],"id":18,"left_children":[1,3,5,7,-1,-1,-1,-1,-1],"loss_changes":[1.1382089E1,1.1117167E0,4.9520065E1,3.093152E-1,0E0,0E0,0E0,0E0,0E0],"parents":[2147483647,0,0,1,1,2,2,3,3],"right_children":[2,4,6,8,-1,-1,-1,-1,-1],"split_conditions":[4E1,1E-1,4.5E1,9.1E-2,1.1808468E-2,2.4341439E-1,-5.0517738E-2,-5.1913273E-2,-6.36935E-3],"split_indices":[8,29,8,24,0,0,0,0,0],"split_type":[0,0,0,0,0,0,0,0,0],"sum_hessian":[5.630392E1,3.2051952E1,2.4251968E1,2.9361816E1,2.6901348E0,7.491891E0,1.6760078E1,2.6929232E1,2.4325862E0],"tree_param":{"num_deleted":"0","num_feature":"38","num_nodes":"9","size_leaf_vector":"1"}},{"base_weights":[-0E0,-4.9078766E-1,3.730303E-1,2.3179071E-2,-5.297574E-2],"categories":[],"categories_nodes":[],"categories_segments":[],"categories_sizes":[],"default_left":[0,0,0,0,0],"id":19,"left_children":[1,3,-1,-1,-1],"loss_changes":[1.04416306E2,1.5728769E0,0E0,0E0,0E0],"parents":[2147483647,0,0,1,1],"right_children":[2,4,-1,-1,-1],"split_conditions":[1.5384616E-1,-7E-1,3.730303E-1,2.3179071E-2,-5.297574E-2],"split_indices":[37,9,0,0,0],"split_type":[0,0,0,0,0],"sum_hessian":[5.5069443E1,4.943876E1,5.630682E0,2.1453576E0,4.72934E1],"tree_param":{"num_deleted":"0","num_feature":"38","num_nodes":"5","size_leaf_vector":"1"}},{"base_weights":[5.3583365E-2,-1.9930463E-1,5.6602705E-1,-3.6351365E-1,8.6320055E-1,-3.019097E-1,1.1776925E0,-4.4669792E-1,7.334454E-2,1.2813367E0,-9.524729E-3,-4.2000836E-1,1.12346E-2,1.6345253E0,-4.3802686E-2,1.7026953E-1,-5.38572E-1,3.7931174E-2,1.8028362E-1,-4.770777E-3,-4.9502775E-2,2.1263585E0,-3.942933E-2,-2.6100907E-1,8.994205E-2,-2.2510534E-2,-5.5953294E-2,5.6424823E-2,2.3791812E-1,-4.1591837E-3,-3.6412213E-2],"categories":[],"categories_nodes":[],"categories_segments":[],"categories_sizes":[],"default_left":[0,0,0,0,0,0,0,0,0,0,0,0,0,0,0,0,0,0,0,0,0,0,0,0,0,0,0,0,0,0,0],"id":20,"left_children":[1,3,5,7,9,11,13,15,-1,17,-1,19,-1,21,-1,23,25,-1,-1,-1,-1,27,-1,29,-1,-1,-1,-1,-1,-1,-1],"loss_changes":[1.2049342E1,1.1097393E1,1.6758987E1,5.278135E0,3.6578102E0,7.3515666E-1,1.4342928E1,3.0435572E0,0E0,1.9573212E0,0E0,2.2520924E-1,0E0,1.5505966E1,0E0,2.589237E0,9.21936E-2,0E0,0E0,0E0,0E0,3.058033E0,0E0,6.342369E-2,0E0,0E0,0E0,0E0,0E0,0E0,0E0],"parents":[2147483647,0,0,1,1,2,2,3,3,4,4,5,5,6,6,7,7,9,9,11,11,13,13,15,15,16,16,21,21,23,23],"right_children":[2,4,6,8,10,12,14,16,-1,18,-1,20,-1,22,-1,24,26,-1,-1,-1,-1,28,-1,30,-1,-1,-1,-1,-1,-1,-1],"split_conditions":[4.5E1,6.25E-2,1.9E1,2.735E1,-3E-1,9.1E-2,5E1,2E1,7.334454E-2,1.25E-1,-9.524729E-3,-5E-1,1.12346E-2,1.5384616E-1,-4.3802686E-2,1.1E2,-5E-1,3.7931174E-2,1.8028362E-1,-4.770777E-3,-4.9502775E-2,3.4E1,-3.942933E-2,-3.6E-3,8.994205E-2,-2.2510534E-2,-5.5953294E-2,5.6424823E-2,2.3791812E-1,-4.1591837E-3,-3.6412213E-2],"split_indices":[8,28,17,18,9,24,8,8,0,28,0,9,0,37,0,17,9,0,0,0,0,17,0,10,0,0,0,0,0,0,0],"split_type":[0,0,0,0,0,0,0,0,0,0,0,0,0,0,0,0,0,0,0,0,0,0,0,0,0,0,0,0,0,0,0],"sum_hessian":[9.082637E1,6.109317E1,2.9733198E1,5.3566513E1,7.526658E0,1.2433427E1,1.7299772E1,5.042653E1,3.1399837E0,5.078528E0,2.4481301E0,9.852206E0,2.5812204E0,1.3525724E1,3.7740474E0,6.2841897E0,4.414234E1,2.5635395E0,2.5149884E0,2.150214E0,7.701992E0,1.0887542E1,2.6381826E0,4.2658896E0,2.0182996E0,3.8015177E0,4.034082E1,2.0219412E0,8.865601E0,2.12251E0,2.14338E0],"tree_param":{"num_deleted":"0","num_feature":"38","num_nodes":"31","size_leaf_vector":"1"}},{"base_weights":[-5.4376036E-2,1.5084437E-1,-1.9132233E-1,2.3847955E-1,-5.44073E-1,-3.082654E-1,9.481768E-1,-5.6095935E-2,-5.651704E-3,-0E0,-5.515011E-2,1.5196457E0,-2.3176812E-1,5.0937485E-2,-2.1138646E-2,3.8013536E-2,1.8650997E-1,2.1235246E-2,-4.635936E-2],"categories":[],"categories_nodes":[],"categories_segments":[],"categories_sizes":[],"default_left":[0,0,0,0,0,0,0,0,0,0,0,0,0,0,0,0,0,0,0],"id":21,"left_children":[1,-1,3,5,7,9,11,-1,-1,13,-1,15,17,-1,-1,-1,-1,-1,-1],"loss_changes":[2.2994997E1,0E0,1.5178776E1,1.7902603E1,3.5803413E-1,1.9909527E0,1.3968691E1,0E0,0E0,1.4650759E0,0E0,4.445799E0,8.7899363E-1,0E0,0E0,0E0,0E0,0E0,0E0],"parents":[2147483647,0,0,2,2,3,3,4,4,5,5,6,6,9,9,11,11,12,12],"right_children":[2,-1,4,6,8,10,12,-1,-1,14,-1,16,18,-1,-1,-1,-1,-1,-1],"split_conditions":[0E0,1.5084437E-1,3.1E1,2.5E1,8.2E1,6E0,5E-2,-5.6095935E-2,-5.651704E-3,1.1E1,-5.515011E-2,8.897637E0,1E0,5.0937485E-2,-2.1138646E-2,3.8013536E-2,1.8650997E-1,2.1235246E-2,-4.635936E-2],"split_indices":[21,0,8,8,22,17,29,0,0,8,0,18,0,0,0,0,0,0,0],"split_type":[0,0,0,0,0,0,0,0,0,0,0,0,0,0,0,0,0,0,0],"sum_hessian":[1.05708984E2,7.651028E0,9.805796E1,4.4219753E1,5.3838203E1,2.521729E1,1.9002462E1,5.1692204E1,2.146002E0,1.1480264E1,1.3737028E1,1.2665287E1,6.3371754E0,3.0167923E0,8.463471E0,3.5023487E0,9.162938E0,2.0542939E0,4.2828817E0],"tree_param":{"num_deleted":"0","num_feature":"38","num_nodes":"19","size_leaf_vector":"1"}},{"base_weights":[-8.0304265E-2,-3.4367326E-1,2.3827778E-1,-5.2293E-2,3.8101593E-1,1.1237947E-1,-2.7534297E-1,-3.8569886E-2,-2.559302E-4],"categories":[],"categories_nodes":[],"categories_segments":[],"categories_sizes":[],"default_left":[0,0,0,0,0,0,0,0,0],"id":22,"left_children":[1,3,-1,-1,5,-1,7,-1,-1],"loss_changes":[3.5113853E1,6.572954E0,0E0,0E0,5.355314E0,0E0,1.4483863E-1,0E0,0E0],"parents":[2147483647,0,0,1,1,4,4,6,6],"right_children":[2,4,-1,-1,6,-1,8,-1,-1],"split_conditions":[5.5E1,6.666667E-2,2.3827778E-1,-5.2293E-2,-3E-1,1.1237947E-1,1.1878453E0,-3.8569886E-2,-2.559302E-4],"split_indices":[8,30,0,0,9,0,20,0,0],"split_type":[0,0,0,0,0,0,0,0,0],"sum_hessian":[5.2181595E1,4.7954998E1,4.226596E0,3.877912E1,9.175877E0,4.041941E0,5.133935E0,3.0994933E0,2.0344417E0],"tree_param":{"num_deleted":"0","num_feature":"38","num_nodes":"9","size_leaf_vector":"1"}},{"base_weights":[-3.646363E-2,-5.017167E-2,3.0314803E-1,1.2550257E0,-1.6399667E-1,1.8326913E0,-4.094911E-2,-3.5501957E-1,4.4687846E-1,2.3622762E-1,1.0012761E-2,8.594354E-4,-5.126239E-2,1.3072863E-1,-4.0675614E-2,3.673705E-2,-2.4200866E-1,-3.416289E-2,-3.8776775E-3],"categories":[],"categories_nodes":[],"categories_segments":[],"categories_sizes":[],"default_left":[0,0,0,0,0,0,0,0,0,0,0,0,0,0,0,0,0,0,0],"id":23,"left_children":[1,-1,3,5,7,9,-1,11,13,-1,-1,15,-1,-1,-1,-1,17,-1,-1],"loss_changes":[1.17795925E1,0E0,1.9419865E1,1.4671709E1,3.6075706E0,9.486679E0,0E0,1.3560743E0,6.0403094E0,0E0,0E0,8.0838907E-1,0E0,0E0,0E0,0E0,5.430442E-2,0E0,0E0],"parents":[2147483647,0,0,2,2,3,3,4,4,5,5,7,7,8,8,11,11,16,16],"right_children":[2,-1,4,6,8,10,-1,12,14,-1,-1,16,-1,-1,-1,-1,18,-1,-1],"split_conditions":[3.5E1,-5.017167E-2,4E1,7.1428575E-2,5E1,5E-2,-4.094911E-2,1E0,5.5E1,2.3622762E-1,1.0012761E-2,-3E-1,-5.126239E-2,1.3072863E-1,-4.0675614E-2,3.673705E-2,-4.83E-2,-3.416289E-2,-3.8776775E-3],"split_indices":[8,0,8,34,8,29,0,17,8,0,0,9,0,0,0,0,10,0,0],"split_type":[0,0,0,0,0,0,0,0,0,0,0,0,0,0,0,0,0,0,0],"sum_hessian":[7.24636E1,3.0498762E1,4.1964836E1,1.3330141E1,2.8634695E1,9.865419E0,3.464722E0,2.2257292E1,6.3774033E0,7.2332807E0,2.6321385E0,6.9419794E0,1.5315311E1,2.9697752E0,3.407628E0,2.7265177E0,4.2154617E0,2.041654E0,2.1738076E0],"tree_param":{"num_deleted":"0","num_feature":"38","num_nodes":"19","size_leaf_vector":"1"}},{"base_weights":[-1.4899205E-2,1.5802193E0,-5.372417E-2,-3.8617533E-2,2.0421307E0,1.0081831E0,2.5196105E-1,1.2949228E-1,2.5793588E-2],"categories":[],"categories_nodes":[],"categories_segments":[],"categories_sizes":[],"default_left":[0,0,0,0,0,0,0,0,0],"id":24,"left_children":[1,3,-1,-1,5,7,-1,-1,-1],"loss_changes":[5.5958538E1,1.5989822E1,0E0,0E0,3.8236084E0,8.081708E-1,0E0,0E0,0E0],"parents":[2147483647,0,0,1,1,4,4,5,5],"right_children":[2,4,-1,-1,6,8,-1,-1,-1],"split_conditions":[2.5E1,-5E-1,-5.372417E-2,-3.8617533E-2,1.4E1,3E0,2.5196105E-1,1.2949228E-1,2.5793588E-2],"split_indices":[8,9,0,0,17,17,0,0,0],"split_type":[0,0,0,0,0,0,0,0,0],"sum_hessian":[6.52674E1,1.5553563E1,4.971384E1,2.9486008E0,1.2604962E1,5.0311894E0,7.573773E0,3.018322E0,2.0128675E0],"tree_param":{"num_deleted":"0","num_feature":"38","num_nodes":"9","size_leaf_vector":"1"}},{"base_weights":[1.750329E-3,-2.519292E-1,1.3501865E0,-5.4006733E-2,3.8919201E-1,-3.4764405E-2,1.7513713E0,1.2887837E0,-4.1106585E-1,2.1018246E-2,2.1311998E-1,1.8664575E-1,-3.7160035E-2,-4.8588067E-2,-7.394486E-4],"categories":[],"categories_nodes":[],"categories_segments":[],"categories_sizes":[],"default_left":[0,0,0,0,0,0,0,0,0,0,0,0,0,0,0],"id":25,"left_children":[1,3,5,-1,7,-1,9,11,13,-1,-1,-1,-1,-1,-1],"loss_changes":[2.6087326E1,1.2022347E1,8.98213E0,0E0,1.5213644E1,0E0,5.1659317E0,1.0286726E1,2.9225016E-1,0E0,0E0,0E0,0E0,0E0,0E0],"parents":[2147483647,0,0,1,1,2,2,4,4,6,6,7,7,8,8],"right_children":[2,4,6,-1,8,-1,10,12,14,-1,-1,-1,-1,-1,-1],"split_conditions":[7.1428575E-2,4.5E1,3.1E1,-5.4006733E-2,2E1,-3.4764405E-2,-3E-1,5E1,2.1333334E1,2.1018246E-2,2.1311998E-1,1.8664575E-1,-3.7160035E-2,-4.8588067E-2,-7.394486E-4],"split_indices":[33,8,8,0,19,0,9,8,18,0,0,0,0,0,0],"split_type":[0,0,0,0,0,0,0,0,0,0,0,0,0,0,0],"sum_hessian":[7.394753E1,6.286065E1,1.1086882E1,4.3585625E1,1.9275024E1,2.0969017E0,8.989981E0,8.845761E0,1.0429262E1,2.1367128E0,6.853267E0,6.5151525E0,2.3306093E0,8.417767E0,2.0114954E0],"tree_param":{"num_deleted":"0","num_feature":"38","num_nodes":"15","size_leaf_vector":"1"}},{"base_weights":[-0E0,-3.1884345E-1,7.668473E-1,-3.9995188E-1,4.2646457E-2,1.2275006E0,-4.285287E-2,-4.1884843E-2,-1.0506226E-3,1.4919839E0,-3.8629302E-3,5.1262733E-2,1.8101346E0,7.852995E-2,2.5641713E-1],"categories":[],"categories_nodes":[],"categories_segments":[],"categories_sizes":[],"default_left":[0,0,0,0,0,0,0,0,0,0,0,0,0,0,0],"id":26,"left_children":[1,3,5,7,-1,9,-1,-1,-1,11,-1,-1,13,-1,-1],"loss_changes":[1.4707581E1,2.7479558E0,1.0315133E1,2.4061584E-1,0E0,4.5718975E0,0E0,0E0,0E0,2.2306938E0,0E0,0E0,3.634266E0,0E0,0E0],"parents":[2147483647,0,0,1,1,2,2,3,3,5,5,9,9,12,12],"right_children":[2,4,6,8,-1,10,-1,-1,-1,12,-1,-1,14,-1,-1],"split_conditions":[8.282483E0,1E0,4E1,1E0,4.2646457E-2,1.0573187E1,-4.285287E-2,-4.1884843E-2,-1.0506226E-3,2E1,-3.8629302E-3,5.1262733E-2,3.1E1,7.852995E-2,2.5641713E-1],"split_indices":[16,6,8,7,0,16,0,0,0,19,0,0,8,0,0],"split_type":[0,0,0,0,0,0,0,0,0,0,0,0,0,0,0],"sum_hessian":[5.8312214E1,4.168005E1,1.6632162E1,3.8128273E1,3.5517764E0,1.2046626E1,4.585537E0,3.604694E1,2.0813327E0,9.882796E0,2.1638293E0,3.140636E0,6.742161E0,3.7794578E0,2.9627028E0],"tree_param":{"num_deleted":"0","num_feature":"38","num_nodes":"15","size_leaf_vector":"1"}},{"base_weights":[-6.983344E-2,-3.298846E-1,3.1354192E-1,5.9455343E-2,-4.01115E-1,-4.5169443E-1,2.4990862E-2,6.0663195E-3,-5.0849754E-2],"categories":[],"categories_nodes":[],"categories_segments":[],"categories_sizes":[],"default_left":[0,0,0,0,0,0,0,0,0],"id":27,"left_children":[1,3,-1,-1,5,7,-1,-1,-1],"loss_changes":[3.4462406E1,2.743733E0,0E0,0E0,1.3281784E0,1.0702896E0,0E0,0E0,0E0],"parents":[2147483647,0,0,1,1,4,4,5,5],"right_children":[2,4,-1,-1,6,8,-1,-1,-1],"split_conditions":[1.6666667E-1,-3E0,3.1354192E-1,5.9455343E-2,1.0146473E1,-8.01E-2,2.4990862E-2,6.0663195E-3,-5.0849754E-2],"split_indices":[35,21,0,0,16,12,0,0,0],"split_type":[0,0,0,0,0,0,0,0,0],"sum_hessian":[3.944084E1,3.733965E1,2.1011918E0,2.0452547E0,3.5294395E1,3.3176613E1,2.1177812E0,3.1285985E0,3.0048016E1],"tree_param":{"num_deleted":"0","num_feature":"38","num_nodes":"9","size_leaf_vector":"1"}},{"base_weights":[5.0239574E-2,-3.809838E-1,5.0384694E-1,-8.859769E-2,-5.07916E-2,1.9508715E0,-5.018294E-2,-4.1023668E-2,1.5812843E-1,2.6807967E-1,-3.909403E-2,-1.2317064E-2,4.6410765E-2],"categories":[],"categories_nodes":[],"categories_segments":[],"categories_sizes":[],"default_left":[0,0,0,0,0,0,0,0,0,0,0,0,0],"id":28,"left_children":[1,3,5,7,-1,9,-1,-1,11,-1,-1,-1,-1],"loss_changes":[1.1129191E1,9.74926E-1,4.1525723E1,9.0390444E-1,0E0,2.115501E1,0E0,0E0,6.3775384E-1,0E0,0E0,0E0,0E0],"parents":[2147483647,0,0,1,1,2,2,3,3,5,5,8,8],"right_children":[2,4,6,8,-1,10,-1,-1,12,-1,-1,-1,-1],"split_conditions":[4E1,1E0,4.5E1,2.5E1,-5.07916E-2,7.692308E-2,-5.018294E-2,-4.1023668E-2,-1.13E-2,2.6807967E-1,-3.909403E-2,-1.2317064E-2,4.6410765E-2],"split_indices":[8,17,8,8,0,37,0,0,10,0,0,0,0],"split_type":[0,0,0,0,0,0,0,0,0,0,0,0,0],"sum_hessian":[5.485178E1,2.8088758E1,2.6763023E1,9.255255E0,1.8833502E1,1.0628995E1,1.613403E1,3.9059443E0,5.3493104E0,8.025466E0,2.6035287E0,2.9280605E0,2.4212499E0],"tree_param":{"num_deleted":"0","num_feature":"38","num_nodes":"13","size_leaf_vector":"1"}},{"base_weights":[-0E0,-5.276987E-2,2.7235007E-1],"categories":[],"categories_nodes":[],"categories_segments":[],"categories_sizes":[],"default_left":[0,0,0],"id":29,"left_children":[1,-1,-1],"loss_changes":[8.4193344E1,0E0,0E0],"parents":[2147483647,0,0],"right_children":[2,-1,-1],"split_conditions":[7.692308E-2,-5.276987E-2,2.7235007E-1],"split_indices":[37,0,0],"split_type":[0,0,0],"sum_hessian":[5.6535942E1,4.802576E1,8.51018E0],"tree_param":{"num_deleted":"0","num_feature":"38","num_nodes":"3","size_leaf_vector":"1"}},{"base_weights":[-7.107376E-3,-1.7077771E-1,7.110109E-1,-3.336194E-1,7.959629E-1,8.876374E-1,-3.5432868E-2,-4.1316202E-1,5.847253E-1,1.116004E0,1.3269073E-2,2.2848576E-1,1.2495513E0,5.6769975E-2,-4.83812E-1,-9.367642E-3,1.18707255E-1,4.1546814E-2,1.612211E-1,6.727513E-2,-3.760558E-2,1.6988857E-1,5.9167576E-1,-1.452622E-1,4.3765184E-2,-5.186829E-1,1.5163474E-2,1.085268E-1,-5.978285E-3,-4.1027065E-2,2.2297226E-2,-5.3574234E-2,-1.7822279E-2],"categories":[],"categories_nodes":[],"categories_segments":[],"categories_sizes":[],"default_left":[0,0,0,0,0,0,0,0,0,0,0,0,0,0,0,0,0,0,0,0,0,0,0,0,0,0,0,0,0,0,0,0,0],"id":30,"left_children":[1,3,5,7,9,11,-1,13,15,17,-1,19,21,23,25,-1,-1,-1,-1,-1,-1,-1,27,29,-1,31,-1,-1,-1,-1,-1,-1,-1],"loss_changes":[1.076604E1,1.2034069E1,3.562107E0,4.9742513E0,2.0675964E0,3.1276817E0,0E0,2.0797005E0,2.4667697E0,1.6304665E0,0E0,2.0586646E0,1.5192156E0,7.561555E-1,1.2876854E0,0E0,0E0,0E0,0E0,0E0,0E0,0E0,1.9053748E0,7.163981E-1,0E0,1.2659931E-1,0E0,0E0,0E0,0E0,0E0,0E0,0E0],"parents":[2147483647,0,0,1,1,2,2,3,3,4,4,5,5,7,7,8,8,9,9,11,11,12,12,13,13,14,14,22,22,23,23,25,25],"right_children":[2,4,6,8,10,12,-1,14,16,18,-1,20,22,24,26,-1,-1,-1,-1,-1,-1,-1,28,30,-1,32,-1,-1,-1,-1,-1,-1,-1],"split_conditions":[1.59E2,6.25E-2,1.5384616E-1,2.735E1,-3E-1,1.0588236E0,-3.5432868E-2,-1.53E-1,4.3E-2,1.25E-1,1.3269073E-2,1.025974E0,1.2608696E1,1.03E2,1.209E-1,-9.367642E-3,1.18707255E-1,4.1546814E-2,1.612211E-1,6.727513E-2,-3.760558E-2,1.6988857E-1,1.89E2,-1.936E-1,4.3765184E-2,5.5E1,1.5163474E-2,1.085268E-1,-5.978285E-3,-4.1027065E-2,2.2297226E-2,-5.3574234E-2,-1.7822279E-2],"split_indices":[17,28,37,18,9,20,0,11,11,28,0,20,18,17,11,0,0,0,0,0,0,0,17,11,0,19,0,0,0,0,0,0,0],"split_type":[0,0,0,0,0,0,0,0,0,0,0,0,0,0,0,0,0,0,0,0,0,0,0,0,0,0,0,0,0,0,0,0,0],"sum_hessian":[9.002539E1,7.404974E1,1.5975651E1,6.402368E1,1.0026061E1,1.3927268E1,2.048382E0,5.9526752E1,4.496931E0,6.200747E0,3.8253145E0,5.6126394E0,8.31463E0,7.620388E0,5.1906364E1,2.4340327E0,2.0628984E0,3.416381E0,2.7843661E0,3.265485E0,2.3471544E0,3.9098108E0,4.4048185E0,5.211896E0,2.408492E0,4.9529495E1,2.3768668E0,2.2145283E0,2.19029E0,3.1222827E0,2.089613E0,4.6340218E1,3.18928E0],"tree_param":{"num_deleted":"0","num_feature":"38","num_nodes":"33","size_leaf_vector":"1"}},{"base_weights":[4.9257153E-3,4.1261896E-1,-3.6950377E-1,-3.120178E-1,1.1280901E0,1.1293336E-1,-5.171678E-1,-0E0,-5.470386E-2,1.3789285E0,-4.346704E-2,-9.411553E-3,-5.334596E-1,2.6848397E-1,-4.6541046E-2,2.6200378E-2,1.5945361E0,-5.5101335E-1,-1.1237179E-2,5.715742E-1,-1.822179E-2,1.7339954E-1,6.703546E-2,-5.7089E-2,-2.445027E-2,8.045591E-2,1.4656486E-2],"categories":[],"categories_nodes":[],"categories_segments":[],"categories_sizes":[],"default_left":[0,0,0,0,0,0,0,0,0,0,0,0,0,0,0,0,0,0,0,0,0,0,0,0,0,0,0],"id":31,"left_children":[1,3,5,7,9,-1,11,13,-1,15,-1,-1,17,19,-1,-1,21,23,-1,25,-1,-1,-1,-1,-1,-1,-1],"loss_changes":[1.6681568E1,2.761311E1,1.3100096E1,1.9407494E0,1.1146442E1,0E0,2.4872398E-1,1.7031586E0,0E0,5.0007973E0,0E0,0E0,2.4199009E-1,1.3111682E0,0E0,0E0,1.0762367E0,6.888008E-2,0E0,3.303032E-1,0E0,0E0,0E0,0E0,0E0,0E0,0E0],"parents":[2147483647,0,0,1,1,2,2,3,3,4,4,6,6,7,7,9,9,12,12,13,13,16,16,17,17,19,19],"right_children":[2,4,6,8,10,-1,12,14,-1,16,-1,-1,18,20,-1,-1,22,24,-1,26,-1,-1,-1,-1,-1,-1,-1],"split_conditions":[3.1E1,2.5E1,-2.5E0,5E0,2.5E-1,1.1293336E-1,-6E-1,6.666667E-2,-5.470386E-2,-5E-1,-4.346704E-2,-9.411553E-3,1E-1,6.25E-2,-4.6541046E-2,2.6200378E-2,5E-2,1E0,-1.1237179E-2,1E0,-1.822179E-2,1.7339954E-1,6.703546E-2,-5.7089E-2,-2.445027E-2,8.045591E-2,1.4656486E-2],"split_indices":[8,8,21,17,35,0,9,30,0,9,0,0,29,28,0,0,29,6,0,17,0,0,0,0,0,0,0],"split_type":[0,0,0,0,0,0,0,0,0,0,0,0,0,0,0,0,0,0,0,0,0,0,0,0,0,0,0],"sum_hessian":[1.0725114E2,5.1423893E1,5.582724E1,2.575902E1,2.5664875E1,4.349834E0,5.1477406E1,1.1568186E1,1.4190833E1,2.2271675E1,3.3931994E0,2.3877995E0,4.9089607E1,7.5509005E0,4.0172853E0,4.037091E0,1.8234585E1,4.660094E1,2.4886649E0,4.487089E0,3.063811E0,1.4988381E1,3.2462034E0,4.264659E1,3.954352E0,2.16948E0,2.3176093E0],"tree_param":{"num_deleted":"0","num_feature":"38","num_nodes":"27","size_leaf_vector":"1"}},{"base_weights":[-4.1727196E-2,-2.3886377E-1,1.7623083E-1,1.6447358E-1,-3.7382326E-1,3.6418322E-1,-4.736857E-1,-4.71681E-3,6.610628E-2,-4.9581197E-1,-2.4010807E-3,-1.3099851E-2,-5.193636E-2],"categories":[],"categories_nodes":[],"categories_segments":[],"categories_sizes":[],"default_left":[0,0,0,0,0,0,0,0,0,0,0,0,0],"id":32,"left_children":[1,3,-1,-1,5,7,9,-1,-1,11,-1,-1,-1],"loss_changes":[1.9091263E1,1.2853212E1,0E0,0E0,3.5924053E0,8.2028764E-1,3.4699154E-1,0E0,0E0,2.0284367E-1,0E0,0E0,0E0],"parents":[2147483647,0,0,1,1,4,4,5,5,6,6,9,9],"right_children":[2,4,-1,-1,6,8,10,-1,-1,12,-1,-1,-1],"split_conditions":[5.5E1,-7E-1,1.7623083E-1,1.6447358E-1,2E1,-4E-1,1.82E-1,-4.71681E-3,6.610628E-2,-5E-1,-2.4010807E-3,-1.3099851E-2,-5.193636E-2],"split_indices":[8,9,0,0,8,9,24,0,0,9,0,0,0],"split_type":[0,0,0,0,0,0,0,0,0,0,0,0,0],"sum_hessian":[5.192594E1,4.7642784E1,4.283155E0,2.3878765E0,4.525491E1,4.9589443E0,4.0295963E1,2.2901018E0,2.6688426E0,3.8096443E1,2.199521E0,2.9657197E0,3.5130722E1],"tree_param":{"num_deleted":"0","num_feature":"38","num_nodes":"13","size_leaf_vector":"1"}},{"base_weights":[4.6974346E-2,4.52331E-1,-1.0219488E-1,6.7367387E-1,-2.4979798E-1,-3.9289305E-1,2.2369233E-1,8.284802E-1,-7.474737E-3,-1.5134029E-3,-3.5628248E-2,-4.1748008E-1,-1.7298578E-3,3.6371523E-1,-4.197362E-2,4.539574E-3,1.0583522E-1,-2.859034E-1,-5.0536603E-2,4.993782E-1,-3.820912E-2,-4.369141E-2,-1.4721733E-1,3.3866447E-1,1.17266715E-1,2.2297742E-2,-3.1250723E-2,5.511203E-2,-3.984919E-2],"categories":[],"categories_nodes":[],"categories_segments":[],"categories_sizes":[],"default_left":[0,0,0,0,0,0,0,0,0,0,0,0,0,0,0,0,0,0,0,0,0,0,0,0,0,0,0,0,0],"id":33,"left_children":[1,3,5,7,9,11,13,15,-1,-1,-1,17,-1,19,-1,-1,-1,21,-1,23,-1,-1,25,27,-1,-1,-1,-1,-1],"loss_changes":[4.436773E0,3.2787108E0,5.153269E0,1.9202156E0,9.122628E-2,2.1425343E-1,2.4534504E0,2.1717072E0,0E0,0E0,0E0,8.43873E-2,0E0,2.3968596E0,0E0,0E0,0E0,1.5841901E-1,0E0,1.4964819E0,0E0,0E0,6.202384E-1,2.8630493E0,0E0,0E0,0E0,0E0,0E0],"parents":[2147483647,0,0,1,1,2,2,3,3,4,4,5,5,6,6,7,7,11,11,13,13,17,17,19,19,22,22,23,23],"right_children":[2,4,6,8,10,12,14,16,-1,-1,-1,18,-1,20,-1,-1,-1,22,-1,24,-1,-1,26,28,-1,-1,-1,-1,-1],"split_conditions":[-7.87E-2,1.1279069E0,3.97E-2,1.56E2,1.1935484E0,9.868844E0,1.272E0,5E0,-7.474737E-3,-1.5134029E-3,-3.5628248E-2,1E0,-1.7298578E-3,1.56E-1,-4.197362E-2,4.539574E-3,1.0583522E-1,-3.63E-2,-5.0536603E-2,6.7565954E-1,-3.820912E-2,-4.369141E-2,-1.45E-2,7.046922E0,1.17266715E-1,2.2297742E-2,-3.1250723E-2,5.511203E-2,-3.984919E-2],"split_indices":[10,20,10,17,20,16,20,17,0,0,0,17,0,12,0,0,0,10,0,14,0,0,10,16,0,0,0,0,0],"split_type":[0,0,0,0,0,0,0,0,0,0,0,0,0,0,0,0,0,0,0,0,0,0,0,0,0,0,0,0,0],"sum_hessian":[7.10319E1,1.8741436E1,5.229046E1,1.4388484E1,4.352951E0,2.769087E1,2.4599588E1,1.1944485E1,2.4439993E0,2.0083346E0,2.3446162E0,2.5634998E1,2.0558717E0,2.0687677E1,3.9119117E0,3.0810513E0,8.863434E0,1.2424648E1,1.3210351E1,1.7896742E1,2.7909346E0,4.5733943E0,7.851254E0,1.5781283E1,2.1154594E0,2.1289976E0,5.7222567E0,1.2551765E1,3.2295175E0],"tree_param":{"num_deleted":"0","num_feature":"38","num_nodes":"29","size_leaf_vector":"1"}},{"base_weights":[-9.299205E-3,1.2087595E0,-5.3163756E-2,3.6601442E-1,1.8094494E0,-4.3450482E-2,1.2443411E-1,2.03611E-1,5.5488985E-2],"categories":[],"categories_nodes":[],"categories_segments":[],"categories_sizes":[],"default_left":[0,0,0,0,0,0,0,0,0],"id":34,"left_children":[1,3,-1,5,7,-1,-1,-1,-1],"loss_changes":[3.9813774E1,8.615868E0,0E0,7.0403705E0,1.6334763E0,0E0,0E0,0E0,0E0],"parents":[2147483647,0,0,1,1,3,3,4,4],"right_children":[2,4,-1,6,8,-1,-1,-1,-1],"split_conditions":[2.5E1,1.0052084E0,-5.3163756E-2,2E1,8.8872385E0,-4.3450482E-2,1.2443411E-1,2.03611E-1,5.5488985E-2],"split_indices":[8,20,0,8,16,0,0,0,0],"split_type":[0,0,0,0,0,0,0,0,0],"sum_hessian":[6.0673172E1,1.775773E1,4.291544E1,8.128938E0,9.628793E0,4.4576364E0,3.671301E0,7.5602164E0,2.068576E0],"tree_param":{"num_deleted":"0","num_feature":"38","num_nodes":"9","size_leaf_vector":"1"}},{"base_weights":[-9.200355E-3,-2.1807912E-1,1.4452496E0,-5.3638637E-2,3.8465428E-1,4.562598E-2,1.6839738E-1,1.0468249E0,-4.9166325E-2,-8.505045E-3,1.3084997E0,1.4924674E-1,4.307906E-2],"categories":[],"categories_nodes":[],"categories_segments":[],"categories_sizes":[],"default_left":[0,0,0,0,0,0,0,0,0,0,0,0,0],"id":35,"left_children":[1,3,5,-1,7,-1,-1,9,-1,-1,11,-1,-1],"loss_changes":[2.2816874E1,1.2893017E1,1.2423534E0,0E0,1.409026E1,0E0,0E0,4.278283E0,0E0,0E0,9.7714806E-1,0E0,0E0],"parents":[2147483647,0,0,1,1,2,2,4,4,7,7,10,10],"right_children":[2,4,6,-1,8,-1,-1,10,-1,-1,12,-1,-1],"split_conditions":[1E0,4.5E1,7.819124E0,-5.3638637E-2,1E0,4.562598E-2,1.6839738E-1,-4E-1,-4.9166325E-2,-8.505045E-3,5E-2,1.4924674E-1,4.307906E-2],"split_indices":[4,8,16,0,2,0,0,9,0,0,29,0,0],"split_type":[0,0,0,0,0,0,0,0,0,0,0,0,0],"sum_hessian":[7.347049E1,6.504759E1,8.422902E0,4.274806E1,2.2299528E1,2.285333E0,6.1375694E0,1.2655905E1,9.643623E0,2.431456E0,1.0224449E1,7.7795177E0,2.4449313E0],"tree_param":{"num_deleted":"0","num_feature":"38","num_nodes":"13","size_leaf_vector":"1"}},{"base_weights":[2.167151E-2,-3.2073656E-1,8.686294E-1,-4.0202343E-1,5.243159E-2,1.2382742E0,-4.037507E-2,-2.5259205E-5,-4.2072618E-1,1.5411477E0,-3.399413E-2,-4.4123814E-1,-1.290664E-3,1.8185874E0,1.9653447E-2,-4.6099078E-2,-1.7728226E-2,5.126206E-2,2.117017E-1],"categories":[],"categories_nodes":[],"categories_segments":[],"categories_sizes":[],"default_left":[0,0,0,0,0,0,0,0,0,0,0,0,0,0,0,0,0,0,0],"id":36,"left_children":[1,3,5,7,-1,9,-1,-1,11,13,-1,15,-1,17,-1,-1,-1,-1,-1],"loss_changes":[1.7733147E1,3.177813E0,8.873734E0,2.601633E-1,0E0,7.3194866E0,0E0,0E0,2.6853418E-1,3.8992844E0,0E0,4.275894E-2,0E0,2.4415665E0,0E0,0E0,0E0,0E0,0E0],"parents":[2147483647,0,0,1,1,2,2,3,3,5,5,8,8,9,9,11,11,13,13],"right_children":[2,4,6,8,-1,10,-1,-1,12,14,-1,16,-1,18,-1,-1,-1,-1,-1],"split_conditions":[8.319449E0,1E0,4E1,-2.626E-1,5.243159E-2,5E-2,-4.037507E-2,-2.5259205E-5,1.443E-1,9.83E-2,-3.399413E-2,1.92E2,-1.290664E-3,2E1,1.9653447E-2,-4.6099078E-2,-1.7728226E-2,5.126206E-2,2.117017E-1],"split_indices":[16,6,8,10,0,29,0,0,12,12,0,17,0,19,0,0,0,0,0],"split_type":[0,0,0,0,0,0,0,0,0,0,0,0,0,0,0,0,0,0,0],"sum_hessian":[5.8998077E1,4.2371407E1,1.662667E1,3.92395E1,3.1319091E0,1.29654255E1,3.6612453E0,2.0282874E0,3.7211212E1,1.0950733E1,2.0146928E0,3.5117756E1,2.0934563E0,8.723838E0,2.2268953E0,3.1625782E1,3.4919736E0,2.1905441E0,6.5332932E0],"tree_param":{"num_deleted":"0","num_feature":"38","num_nodes":"19","size_leaf_vector":"1"}},{"base_weights":[1.1372638E-2,-3.4162182E-1,2.6713055E-1,-3.8985404E-1,2.612413E-2,7.3314466E-2,-4.714195E-1,-7.2009624E-3,2.4795977E-2,-5.0467957E-2,-0E0],"categories":[],"categories_nodes":[],"categories_segments":[],"categories_sizes":[],"default_left":[0,0,0,0,0,0,0,0,0,0,0],"id":37,"left_children":[1,3,-1,5,-1,7,9,-1,-1,-1,-1],"loss_changes":[3.8072533E1,1.1491089E0,0E0,1.3397117E0,0E0,1.8004088E-1,4.1884947E-1,0E0,0E0,0E0,0E0],"parents":[2147483647,0,0,1,1,3,3,5,5,6,6],"right_children":[2,4,-1,6,-1,8,10,-1,-1,-1,-1],"split_conditions":[2.5E-1,1.6417799E-3,2.6713055E-1,-5E-1,2.612413E-2,-2E-3,2.27E2,-7.2009624E-3,2.4795977E-2,-5.0467957E-2,-0E0],"split_indices":[35,15,0,9,0,10,17,0,0,0,0],"split_type":[0,0,0,0,0,0,0,0,0,0,0],"sum_hessian":[3.832832E1,3.457404E1,3.7542803E0,3.2493584E1,2.0804539E0,4.696982E0,2.7796602E1,2.5719383E0,2.1250436E0,2.5770561E1,2.0260408E0],"tree_param":{"num_deleted":"0","num_feature":"38","num_nodes":"11","size_leaf_vector":"1"}},{"base_weights":[-8.775259E-3,-4.220058E-1,4.7834817E-1,-4.8102877E-1,1.4295647E-2,1.6005864E0,-4.9368426E-2,-5.139484E-2,-4.3825298E-3,2.1484566E-1,-3.8269963E-2],"categories":[],"categories_nodes":[],"categories_segments":[],"categories_sizes":[],"default_left":[0,0,0,0,0,0,0,0,0,0,0],"id":38,"left_children":[1,3,5,7,-1,9,-1,-1,-1,-1,-1],"loss_changes":[1.1538107E1,1.140523E0,2.9500704E1,3.3292246E-1,0E0,1.4529161E1,0E0,0E0,0E0,0E0,0E0],"parents":[2147483647,0,0,1,1,2,2,3,3,5,5],"right_children":[2,4,6,8,-1,10,-1,-1,-1,-1,-1],"split_conditions":[4E1,1E-1,4.5E1,9.1E-2,1.4295647E-2,7.692308E-2,-4.9368426E-2,-5.139484E-2,-4.3825298E-3,2.1484566E-1,-3.8269963E-2],"split_indices":[8,29,8,24,0,37,0,0,0,0,0],"split_type":[0,0,0,0,0,0,0,0,0,0,0],"sum_hessian":[5.534475E1,3.0126865E1,2.5217886E1,2.7571926E1,2.554938E0,1.1452221E1,1.3765665E1,2.5265291E1,2.3066351E0,8.947634E0,2.504587E0],"tree_param":{"num_deleted":"0","num_feature":"38","num_nodes":"11","size_leaf_vector":"1"}},{"base_weights":[1.07753575E-2,-3.5087955E-1,4.393124E-1,5.505808E-2,-5.1315736E-2,-4.7980186E-2,1.0811017E0,1.3429236E0,-3.39738E-2,-1.1458002E-2,1.7681018E0,2.0196207E-1,6.843152E-2],"categories":[],"categories_nodes":[],"categories_segments":[],"categories_sizes":[],"default_left":[0,0,0,0,0,0,0,0,0,0,0,0,0],"id":39,"left_children":[1,3,5,-1,-1,-1,7,9,-1,-1,11,-1,-1],"loss_changes":[8.529393E0,4.624308E0,1.5489464E1,0E0,0E0,0E0,6.2317886E0,8.5128E0,0E0,0E0,1.152256E0,0E0,0E0],"parents":[2147483647,0,0,1,1,2,2,6,6,7,7,10,10],"right_children":[2,4,6,-1,-1,-1,8,10,-1,-1,12,-1,-1],"split_conditions":[4E1,-6E-1,1E0,5.505808E-2,-5.1315736E-2,-4.7980186E-2,7.046922E0,-8.11E-2,-3.39738E-2,-1.1458002E-2,7.49E-2,2.0196207E-1,6.843152E-2],"split_indices":[8,9,2,0,0,0,16,10,0,0,12,0,0],"split_type":[0,0,0,0,0,0,0,0,0,0,0,0,0],"sum_hessian":[5.2982887E1,2.8705414E1,2.4277472E1,3.9200897E0,2.4785324E1,1.0021765E1,1.4255706E1,1.2143255E1,2.1124513E0,2.8542497E0,9.289005E0,6.7635956E0,2.5254095E0],"tree_param":{"num_deleted":"0","num_feature":"38","num_nodes":"13","size_leaf_vector":"1"}},{"base_weights":[4.0245126E-4,-1.2051339E-1,8.200914E-1,-3.75614E-1,4.5262125E-1,1.1511484E0,-0E0,-4.8444387E-1,8.397633E-2,-4.8149683E-2,9.248984E-1,1.5646079E-1,-3.415009E-3,-3.2976822E-3,-5.0407887E-1,-3.39018E-1,6.9783695E-2,5.032766E-2,-3.7954006E-1,1.1861279E-2,1.10822216E-1,-5.2504994E-2,-6.591044E-3,-2.4224827E-3,-4.4136655E-2,-2.9635155E-3,-4.6870288E-2],"categories":[],"categories_nodes":[],"categories_segments":[],"categories_sizes":[],"default_left":[0,0,0,0,0,0,0,0,0,0,0,0,0,0,0,0,0,0,0,0,0,0,0,0,0,0,0],"id":40,"left_children":[1,3,5,7,9,11,-1,13,15,17,19,-1,-1,-1,21,23,-1,-1,25,-1,-1,-1,-1,-1,-1,-1,-1],"loss_changes":[8.833444E0,1.1412797E1,3.1136236E0,2.777432E0,5.8161855E0,4.2115183E0,0E0,3.1897068E-1,3.1284637E0,2.465158E0,1.5965939E0,0E0,0E0,0E0,2.9042912E-1,1.7112929E-1,0E0,0E0,2.0143187E-1,0E0,0E0,0E0,0E0,0E0,0E0,0E0,0E0],"parents":[2147483647,0,0,1,1,2,2,3,3,4,4,5,5,7,7,8,8,9,9,10,10,14,14,15,15,18,18],"right_children":[2,4,6,8,10,12,-1,14,16,18,20,-1,-1,-1,22,24,-1,-1,26,-1,-1,-1,-1,-1,-1,-1,-1],"split_conditions":[6.25E-2,1.1100569E0,1E-1,1.23E2,4E1,1E0,-0E0,-1.204E-1,4.5E1,1E0,1.9E-2,1.5646079E-1,-3.415009E-3,-3.2976822E-3,6.2E-2,3.8E-3,6.9783695E-2,5.032766E-2,2E1,1.1861279E-2,1.10822216E-1,-5.2504994E-2,-6.591044E-3,-2.4224827E-3,-4.4136655E-2,-2.9635155E-3,-4.6870288E-2],"split_indices":[28,20,29,17,8,2,0,12,8,2,23,0,0,0,26,12,0,0,8,0,0,0,0,0,0,0,0],"split_type":[0,0,0,0,0,0,0,0,0,0,0,0,0,0,0,0,0,0,0,0,0,0,0,0,0,0,0],"sum_hessian":[8.642163E1,7.5949036E1,1.04725895E1,5.2915577E1,2.3033463E1,7.172338E0,3.300252E0,4.291655E1,9.999028E0,1.1512592E1,1.152087E1,5.1427746E0,2.0295634E0,2.1126559E0,4.0803894E1,6.0884624E0,3.910566E0,4.0136037E0,7.4989886E0,2.5403814E0,8.980489E0,3.8533157E1,2.2707357E0,2.037002E0,4.0514603E0,2.021166E0,5.477823E0],"tree_param":{"num_deleted":"0","num_feature":"38","num_nodes":"27","size_leaf_vector":"1"}},{"base_weights":[3.550004E-2,4.5451272E-1,-3.740905E-1,-2.9159188E-1,1.0841813E0,8.7735884E-2,-4.8923525E-1,1.1805848E-2,-5.3810842E-2,1.2466725E0,-1.988024E-3,-5.251477E-1,1.1696082E-2,2.7333277E-1,-4.4902336E-2,3.6304572E-1,1.4133334E-1,-5.4294324E-1,-2.4340002E-2,7.7715024E-2,-1.5136033E-2,1.06130324E-1,-4.0585645E-2,-5.639879E-2,-2.5217175E-2,3.3998452E-2,-4.0605128E-2],"categories":[],"categories_nodes":[],"categories_segments":[],"categories_sizes":[],"default_left":[0,0,0,0,0,0,0,0,0,0,0,0,0,0,0,0,0,0,0,0,0,0,0,0,0,0,0],"id":41,"left_children":[1,3,5,7,9,-1,11,13,-1,15,-1,17,-1,19,-1,21,-1,23,-1,-1,25,-1,-1,-1,-1,-1,-1],"loss_changes":[1.8497656E1,2.5452888E1,8.2302265E0,1.9382706E0,5.387741E0,0E0,1.2024355E0,1.5586876E0,0E0,3.0729637E0,0E0,3.012371E-2,0E0,1.3166438E0,0E0,3.44721E0,0E0,4.5697212E-2,0E0,0E0,1.0096107E0,0E0,0E0,0E0,0E0,0E0,0E0],"parents":[2147483647,0,0,1,1,2,2,3,3,4,4,6,6,7,7,9,9,11,11,13,13,15,15,17,17,20,20],"right_children":[2,4,6,8,10,-1,12,14,-1,16,-1,18,-1,20,-1,22,-1,24,-1,-1,26,-1,-1,-1,-1,-1,-1],"split_conditions":[3.5E1,2.5E1,-2.5E0,5E0,1E0,8.7735884E-2,1E-1,6.666667E-2,-5.3810842E-2,-5E-1,-1.988024E-3,6.666667E-2,1.1696082E-2,1.5E1,-4.4902336E-2,0E0,1.4133334E-1,1E0,-2.4340002E-2,7.7715024E-2,-4E-1,1.06130324E-1,-4.0585645E-2,-5.639879E-2,-2.5217175E-2,3.3998452E-2,-4.0605128E-2],"split_indices":[8,8,21,17,0,0,29,30,0,9,0,30,0,8,0,21,0,6,0,0,9,0,0,0,0,0,0],"split_type":[0,0,0,0,0,0,0,0,0,0,0,0,0,0,0,0,0,0,0,0,0,0,0,0,0,0,0],"sum_hessian":[1.0574279E2,5.233666E1,5.340613E1,2.412667E1,2.820999E1,3.8689046E0,4.9537228E1,1.1060513E1,1.3066158E1,2.4557173E1,3.6528177E0,4.7048622E1,2.488606E0,7.4540844E0,3.606428E0,4.49632E0,2.0060852E1,4.304769E1,4.0009294E0,2.2234254E0,5.230659E0,2.2252717E0,2.271048E0,3.8945465E1,4.102226E0,2.6750393E0,2.5556197E0],"tree_param":{"num_deleted":"0","num_feature":"38","num_nodes":"27","size_leaf_vector":"1"}},{"base_weights":[8.310296E-2,-1.7183715E-1,1.7285483E-1,-4.9170387E-1,8.8888896E-1,-5.1718812E-2,-5.792144E-3,1.9070004E-1,1.5624788E-1,9.031336E-2,-2.5285378E-1,-9.451885E-4,-3.6182072E-2],"categories":[],"categories_nodes":[],"categories_segments":[],"categories_sizes":[],"default_left":[0,0,0,0,0,0,0,0,0,0,0,0,0],"id":42,"left_children":[1,3,-1,5,7,-1,-1,-1,9,-1,11,-1,-1],"loss_changes":[2.3271133E1,1.6668165E1,0E0,3.2775402E-1,7.9949083E0,0E0,0E0,0E0,2.6683002E0,0E0,1.1107293E-1,0E0,0E0],"parents":[2147483647,0,0,1,1,3,3,4,4,8,8,10,10],"right_children":[2,4,-1,6,8,-1,-1,-1,10,-1,12,-1,-1],"split_conditions":[5.5E1,6.666667E-2,1.7285483E-1,1.82E-1,2E1,-5.1718812E-2,-5.792144E-3,1.9070004E-1,-5E-3,9.031336E-2,2.32E-2,-9.451885E-4,-3.6182072E-2],"split_indices":[8,30,0,24,8,0,0,0,10,0,10,0,0],"split_type":[0,0,0,0,0,0,0,0,0,0,0,0,0],"sum_hessian":[5.3395657E1,4.695534E1,6.440318E0,3.6560944E1,1.0394396E1,3.4132866E1,2.4280772E0,3.621872E0,6.7725234E0,2.055921E0,4.7166023E0,2.078426E0,2.6381764E0],"tree_param":{"num_deleted":"0","num_feature":"38","num_nodes":"13","size_leaf_vector":"1"}},{"base_weights":[2.1025484E-2,-4.9103925E-1,3.4127328E-1,-1.9140022E-2,-5.2337658E-2,1.1900363E0,-2.0999338E-1,1.5522884E0,-3.9403655E-2,-3.9094383E-1,4.586524E-1,1.7522341E-1,2.0675192E-2,-9.699381E-2,-5.0914764E-2,9.810432E-2,-3.428197E-2,-4.2318664E-2,3.050617E-2],"categories":[],"categories_nodes":[],"categories_segments":[],"categories_sizes":[],"default_left":[0,0,0,0,0,0,0,0,0,0,0,0,0,0,0,0,0,0,0],"id":43,"left_children":[1,3,5,-1,-1,7,9,11,-1,13,15,-1,-1,17,-1,-1,-1,-1,-1],"loss_changes":[1.1843072E1,9.693813E-2,2.1201595E1,0E0,0E0,1.0924904E1,3.5359244E0,3.401207E0,0E0,6.730175E-1,3.0223818E0,0E0,0E0,1.1823555E0,0E0,0E0,0E0,0E0,0E0],"parents":[2147483647,0,0,1,1,2,2,5,5,6,6,7,7,9,9,10,10,13,13],"right_children":[2,4,6,-1,-1,8,10,12,-1,14,16,-1,-1,18,-1,-1,-1,-1,-1],"split_conditions":[3.1E1,-1.06E-1,4E1,-1.9140022E-2,-5.2337658E-2,7.1428575E-2,5E1,5E-2,-3.9403655E-2,-3E-1,5.5E1,1.7522341E-1,2.0675192E-2,-1.25E-1,-5.0914764E-2,9.810432E-2,-3.428197E-2,-4.2318664E-2,3.050617E-2],"split_indices":[8,10,8,0,0,34,8,29,0,9,8,0,0,10,0,0,0,0,0],"split_type":[0,0,0,0,0,0,0,0,0,0,0,0,0,0,0,0,0,0,0],"sum_hessian":[7.028874E1,2.671956E1,4.3569183E1,3.5778973E0,2.3141663E1,1.6770693E1,2.679849E1,1.3717024E1,3.0536702E0,2.1535406E1,5.2630844E0,1.1614536E1,2.1024873E0,6.9410133E0,1.4594394E1,3.1261878E0,2.1368964E0,3.9403338E0,3.0006795E0],"tree_param":{"num_deleted":"0","num_feature":"38","num_nodes":"19","size_leaf_vector":"1"}},{"base_weights":[-1.3332527E-2,1.1030576E0,-5.279959E-2,-3.5763692E-2,1.336906E0,1.5662987E0,4.8403835E-1,7.3607564E-1,1.9449785E-1,8.992287E-2,-4.645414E-3,-3.4591116E-3,1.2534045E-1],"categories":[],"categories_nodes":[],"categories_segments":[],"categories_sizes":[],"default_left":[0,0,0,0,0,0,0,0,0,0,0,0,0],"id":44,"left_children":[1,3,-1,-1,5,7,9,11,-1,-1,-1,-1,-1],"loss_changes":[3.4971226E1,7.12747E0,0E0,0E0,2.324171E0,2.2935448E0,1.2506056E0,2.4259343E0,0E0,0E0,0E0,0E0,0E0],"parents":[2147483647,0,0,1,1,4,4,5,5,6,6,7,7],"right_children":[2,4,-1,-1,6,8,10,12,-1,-1,-1,-1,-1],"split_conditions":[2.5E1,-5E-1,-5.279959E-2,-3.5763692E-2,2E-1,2E1,1.2276243E1,1.0052084E0,1.9449785E-1,8.992287E-2,-4.645414E-3,-3.4591116E-3,1.2534045E-1],"split_indices":[8,9,0,0,9,8,18,20,0,0,0,0,0],"split_type":[0,0,0,0,0,0,0,0,0,0,0,0,0],"sum_hessian":[5.8951992E1,1.8179684E1,4.077231E1,2.3767476E0,1.5802937E1,1.1701788E1,4.101148E0,4.6703386E0,7.0314493E0,2.0164182E0,2.08473E0,2.1730187E0,2.49732E0],"tree_param":{"num_deleted":"0","num_feature":"38","num_nodes":"13","size_leaf_vector":"1"}},{"base_weights":[1.0522894E-2,-2.2446556E-1,1.354064E0,-5.3159256E-2,3.1343132E-1,1.6031349E-1,2.0292692E-2,9.4676363E-1,-4.9030744E-2,1.1579049E0,-4.913132E-3,1.3880788E-1,3.303991E-2],"categories":[],"categories_nodes":[],"categories_segments":[],"categories_sizes":[],"default_left":[0,0,0,0,0,0,0,0,0,0,0,0,0],"id":45,"left_children":[1,3,5,-1,7,-1,-1,9,-1,11,-1,-1,-1],"loss_changes":[2.2725443E1,1.0255161E1,2.5689125E0,0E0,1.2043547E1,0E0,0E0,2.9188232E0,0E0,1.4491138E0,0E0,0E0,0E0],"parents":[2147483647,0,0,1,1,2,2,4,4,7,7,9,9],"right_children":[2,4,6,-1,8,-1,-1,10,-1,12,-1,-1,-1],"split_conditions":[1E0,4.5E1,1E-1,-5.3159256E-2,1.4E1,1.6031349E-1,2.0292692E-2,5E1,-4.9030744E-2,5E-2,-4.913132E-3,1.3880788E-1,3.303991E-2],"split_indices":[4,8,29,0,17,0,0,8,0,29,0,0,0],"split_type":[0,0,0,0,0,0,0,0,0,0,0,0,0],"sum_hessian":[6.966001E1,5.993563E1,9.7243805E0,3.8277607E1,2.1658022E1,7.6003695E0,2.1240115E0,1.2083164E1,9.574857E0,9.9181385E0,2.1650257E0,7.1351886E0,2.7829504E0],"tree_param":{"num_deleted":"0","num_feature":"38","num_nodes":"13","size_leaf_vector":"1"}},{"base_weights":[2.3281643E-2,-3.8314724E-1,2.5111017E-1,8.136798E-2,-5.2744653E-2,5.557273E-1,-4.5368396E-2,-2.2538293E-2,1.5846626E-1],"categories":[],"categories_nodes":[],"categories_segments":[],"categories_sizes":[],"default_left":[0,0,0,0,0,0,0,0,0],"id":46,"left_children":[1,3,-1,5,-1,7,-1,-1,-1],"loss_changes":[6.320442E1,3.677977E0,0E0,3.6628382E0,0E0,6.641737E0,0E0,0E0,0E0],"parents":[2147483647,0,0,1,1,3,3,5,5],"right_children":[2,4,-1,6,-1,8,-1,-1,-1],"split_conditions":[1.4285715E-1,2.5E1,2.5111017E-1,9E0,-5.2744653E-2,1E0,-4.5368396E-2,-2.2538293E-2,1.5846626E-1],"split_indices":[34,8,0,17,0,17,0,0,0],"split_type":[0,0,0,0,0,0,0,0,0],"sum_hessian":[6.0347202E1,5.2565502E1,7.781699E0,1.2398019E1,4.0167484E1,6.6503205E0,5.747698E0,4.169123E0,2.4811978E0],"tree_param":{"num_deleted":"0","num_feature":"38","num_nodes":"9","size_leaf_vector":"1"}},{"base_weights":[-2.0861916E-2,-3.676656E-1,2.1621183E-1,-4.1787896E-1,2.706397E-2,4.9644426E-2,-5.0423313E-2,-6.8186126E-3,1.8789781E-2],"categories":[],"categories_nodes":[],"categories_segments":[],"categories_sizes":[],"default_left":[0,0,0,0,0,0,0,0,0],"id":47,"left_children":[1,3,-1,5,-1,7,-1,-1,-1],"loss_changes":[3.0872974E1,1.2618637E0,0E0,1.4165101E0,0E0,1.2134983E-1,0E0,0E0,0E0],"parents":[2147483647,0,0,1,1,3,3,5,5],"right_children":[2,4,-1,6,-1,8,-1,-1,-1],"split_conditions":[2.5E-1,1.0117268E1,2.1621183E-1,-5E-1,2.706397E-2,6.666667E-2,-5.0423313E-2,-6.8186126E-3,1.8789781E-2],"split_indices":[35,16,0,9,0,30,0,0,0],"split_type":[0,0,0,0,0,0,0,0,0],"sum_hessian":[3.8966797E1,3.438201E1,4.584785E0,3.233993E1,2.04208E0,4.9277983E0,2.7412134E1,2.5435102E0,2.3842883E0],"tree_param":{"num_deleted":"0","num_feature":"38","num_nodes":"9","size_leaf_vector":"1"}},{"base_weights":[-3.028509E-2,-4.1293737E-1,3.989807E-1,-7.880502E-4,-4.7217172E-1,1.3889791E0,-4.9063724E-2,-5.086453E-2,-7.2490904E-3,1.7860378E-1,8.8291633E-1,1.6447702E-2,1.4355992E-1],"categories":[],"categories_nodes":[],"categories_segments":[],"categories_sizes":[],"default_left":[0,0,0,0,0,0,0,0,0,0,0,0,0],"id":48,"left_children":[1,3,5,-1,7,9,-1,-1,-1,-1,11,-1,-1],"loss_changes":[9.079208E0,6.513543E-1,2.3633778E1,0E0,2.743044E-1,6.8807983E-1,0E0,0E0,0E0,0E0,2.632782E0,0E0,0E0],"parents":[2147483647,0,0,1,1,2,2,4,4,5,5,10,10],"right_children":[2,4,6,-1,8,10,-1,-1,-1,-1,12,-1,-1],"split_conditions":[4E1,-5E-1,4.5E1,-7.880502E-4,1E0,-4E-1,-4.9063724E-2,-5.086453E-2,-7.2490904E-3,1.7860378E-1,3.7E-2,1.6447702E-2,1.4355992E-1],"split_indices":[8,9,8,0,6,9,0,0,0,0,10,0,0],"split_type":[0,0,0,0,0,0,0,0,0,0,0,0,0],"sum_hessian":[5.326205E1,2.8303232E1,2.495882E1,3.970867E0,2.4332365E1,1.1600481E1,1.3358339E1,2.1818457E1,2.5139084E0,4.972305E0,6.628176E0,3.5247903E0,3.103386E0],"tree_param":{"num_deleted":"0","num_feature":"38","num_nodes":"13","size_leaf_vector":"1"}},{"base_weights":[-1.9091126E-2,-5.23125E-2,1.752108E0,1.9282784E-1,8.136117E-2],"categories":[],"categories_nodes":[],"categories_segments":[],"categories_sizes":[],"default_left":[0,0,0,0,0],"id":49,"left_children":[1,-1,3,-1,-1],"loss_changes":[5.1453484E1,0E0,2.661171E-1,0E0,0E0],"parents":[2147483647,0,0,2,2],"right_children":[2,-1,4,-1,-1],"split_conditions":[7.692308E-2,-5.23125E-2,1.1090909E0,1.9282784E-1,8.136117E-2],"split_indices":[37,0,20,0,0],"split_type":[0,0,0,0,0],"sum_hessian":[5.5746155E1,4.398917E1,1.1756983E1,8.921146E0,2.835837E0],"tree_param":{"num_deleted":"0","num_feature":"38","num_nodes":"5","size_leaf_vector":"1"}},{"base_weights":[5.5780727E-2,-1.9182329E-1,4.9845618E-1,-3.691627E-1,6.114863E-1,-2.7103597E-1,9.257495E-1,-4.6390438E-1,7.968583E-2,9.082571E-1,-1.4472797E-2,-4.8026823E-2,6.1806504E-2,1.2837319E0,-2.869316E-1,-6.624269E-2,-5.220463E-1,2.0196395E-2,1.3295612E-1,2.025191E-2,-6.24789E-3,1.4294897E-1,1.6260434E-2,-3.9193686E-2,-3.4615938E-3,-4.0941093E-2,2.7377853E-2,-2.1117851E-2,-5.4564603E-2],"categories":[],"categories_nodes":[],"categories_segments":[],"categories_sizes":[],"default_left":[0,0,0,0,0,0,0,0,0,0,0,0,0,0,0,0,0,0,0,0,0,0,0,0,0,0,0,0,0],"id":50,"left_children":[1,3,5,7,9,11,13,15,-1,17,-1,-1,19,21,23,25,27,-1,-1,-1,-1,-1,-1,-1,-1,-1,-1,-1,-1],"loss_changes":[9.935636E0,8.459835E0,1.1010436E1,5.6624317E0,2.622075E0,9.282837E-1,9.680992E0,9.5398045E-1,0E0,1.9463987E0,0E0,0E0,1.2197007E-1,2.3261814E0,9.189692E-2,9.5915794E-1,9.636307E-2,0E0,0E0,0E0,0E0,0E0,0E0,0E0,0E0,0E0,0E0,0E0,0E0],"parents":[2147483647,0,0,1,1,2,2,3,3,4,4,5,5,6,6,7,7,9,9,12,12,13,13,14,14,15,15,16,16],"right_children":[2,4,6,8,10,12,14,16,-1,18,-1,-1,20,22,24,26,28,-1,-1,-1,-1,-1,-1,-1,-1,-1,-1,-1,-1],"split_conditions":[4.5E1,6.25E-2,1.9E1,2.735E1,-3E-1,2.5E-3,7.692308E-2,2E1,7.968583E-2,1.25E-1,-1.4472797E-2,-4.8026823E-2,4.46E-2,7.2563834E-2,5.5E1,-3E-1,-5E-1,2.0196395E-2,1.3295612E-1,2.025191E-2,-6.24789E-3,1.4294897E-1,1.6260434E-2,-3.9193686E-2,-3.4615938E-3,-4.0941093E-2,2.7377853E-2,-2.1117851E-2,-5.4564603E-2],"split_indices":[8,28,17,18,9,10,37,8,0,28,0,0,10,13,19,9,9,0,0,0,0,0,0,0,0,0,0,0,0],"split_type":[0,0,0,0,0,0,0,0,0,0,0,0,0,0,0,0,0,0,0,0,0,0,0,0,0,0,0,0,0],"sum_hessian":[8.849471E1,5.6970097E1,3.1524614E1,4.721238E1,9.757717E0,1.1302371E1,2.0222242E1,4.430076E1,2.911622E0,6.9582014E0,2.7995157E0,6.8523464E0,4.450025E0,1.5631661E1,4.590581E0,6.143254E0,3.8157505E1,3.241216E0,3.7169852E0,2.1692219E0,2.2808032E0,1.3510871E1,2.1207905E0,2.5709503E0,2.019631E0,3.1022828E0,3.0409708E0,3.6932805E0,3.4464222E1],"tree_param":{"num_deleted":"0","num_feature":"38","num_nodes":"29","size_leaf_vector":"1"}},{"base_weights":[-6.2722266E-3,3.6740527E-1,-4.0211594E-1,-2.1577819E-1,8.458762E-1,7.0971414E-2,-5.216547E-1,5.5799387E-2,-4.5989862E-1,1.0094815E0,-4.1793346E-2,-5.393445E-2,-2.5009736E-1,-1.3527647E-1,5.7609487E-2,-5.2243363E-2,-5.899647E-3,1.0968242E0,3.2136515E-2,-3.5693746E-2,-2.7980607E-3,-4.1167952E-2,1.1257772E-2,1.1504245E-1,4.0154707E-2,2.7277607E-2,-3.794996E-2],"categories":[],"categories_nodes":[],"categories_segments":[],"categories_sizes":[],"default_left":[0,0,0,0,0,0,0,0,0,0,0,0,0,0,0,0,0,0,0,0,0,0,0,0,0,0,0],"id":51,"left_children":[1,3,5,7,9,-1,11,13,15,17,-1,-1,19,21,-1,-1,-1,23,-1,-1,-1,-1,25,-1,-1,-1,-1],"loss_changes":[1.5868596E1,1.5606969E1,7.289921E0,1.7575576E0,6.7953167E0,0E0,1.5766144E-2,1.3920957E0,2.5545454E-1,1.1525478E0,0E0,0E0,7.334253E-2,4.502361E-1,0E0,0E0,0E0,2.687397E-1,0E0,0E0,0E0,0E0,8.3688086E-1,0E0,0E0,0E0,0E0],"parents":[2147483647,0,0,1,1,2,2,3,3,4,4,6,6,7,7,8,8,9,9,12,12,13,13,17,17,22,22],"right_children":[2,4,6,8,10,-1,12,14,16,18,-1,-1,20,22,-1,-1,-1,24,-1,-1,-1,-1,26,-1,-1,-1,-1],"split_conditions":[3.5E1,2.5E1,-2.5E0,2E1,1.6666667E-1,7.0971414E-2,6.666667E-2,5E-3,9.182866E0,1.3333334E-1,-4.1793346E-2,-5.393445E-2,5E1,-4.2E-2,5.7609487E-2,-5.2243363E-2,-5.899647E-3,6.25E-2,3.2136515E-2,-3.5693746E-2,-2.7980607E-3,-4.1167952E-2,6.666667E-2,1.1504245E-1,4.0154707E-2,2.7277607E-2,-3.794996E-2],"split_indices":[8,8,21,19,35,0,30,23,16,30,0,0,8,10,0,0,0,28,0,0,0,0,30,0,0,0,0],"split_type":[0,0,0,0,0,0,0,0,0,0,0,0,0,0,0,0,0,0,0,0,0,0,0,0,0,0,0],"sum_hessian":[1.0525751E2,5.4051743E1,5.1205765E1,2.4513514E1,2.9538227E1,4.4104567E0,4.6795307E1,1.1775439E1,1.2738075E1,2.6400888E1,3.1373382E0,4.2661865E1,4.133445E0,9.013192E0,2.7622466E0,1.0541213E1,2.1968625E0,2.2771257E1,3.6296303E0,2.0771315E0,2.0563133E0,2.7323108E0,6.280882E0,2.0400116E1,2.3711414E0,4.09686E0,2.1840217E0],"tree_param":{"num_deleted":"0","num_feature":"38","num_nodes":"27","size_leaf_vector":"1"}},{"base_weights":[4.5325875E-2,-1.968477E-1,1.4604872E-1,-4.8610162E-2,6.441221E-1,1.1661352E0,-4.061221E-2,1.5647464E0,1.4557307E-2,2.0273268E-1,6.794848E-2],"categories":[],"categories_nodes":[],"categories_segments":[],"categories_sizes":[],"default_left":[0,0,0,0,0,0,0,0,0,0,0],"id":52,"left_children":[1,3,-1,-1,5,7,-1,9,-1,-1,-1],"loss_changes":[1.8350622E1,1.1367922E1,0E0,0E0,7.1224365E0,2.9900322E0,0E0,7.340822E-1,0E0,0E0,0E0],"parents":[2147483647,0,0,1,1,4,4,5,5,7,7],"right_children":[2,4,-1,-1,6,8,-1,10,-1,-1,-1],"split_conditions":[5.5E1,6.666667E-2,1.4604872E-1,-4.8610162E-2,5E-2,1.9E-3,-4.061221E-2,-1.9E-2,1.4557307E-2,2.0273268E-1,6.794848E-2],"split_indices":[8,30,0,0,29,12,0,10,0,0,0],"split_type":[0,0,0,0,0,0,0,0,0,0,0],"sum_hessian":[5.1337307E1,4.451055E1,6.826759E0,3.352159E1,1.0988959E1,7.3303523E0,3.658607E0,4.8175197E0,2.5128324E0,2.242622E0,2.574898E0],"tree_param":{"num_deleted":"0","num_feature":"38","num_nodes":"11","size_leaf_vector":"1"}},{"base_weights":[3.224213E-2,-4.525623E-1,3.3134294E-1,-2.9985815E-1,-5.1190395E-2,1.059169E0,-1.7156358E-1,-8.774232E-2,-4.384454E-2,1.3325655E0,-3.769554E-2,-3.4079617E-1,4.1282332E-1,1.2178342E-2,-3.3740602E-2,1.5433781E-1,-3.934819E-3,-3.8633248E-4,-5.033E-2,9.526064E-2,-3.537234E-2,2.280922E-2,-2.220859E-2],"categories":[],"categories_nodes":[],"categories_segments":[],"categories_sizes":[],"default_left":[0,0,0,0,0,0,0,0,0,0,0,0,0,0,0,0,0,0,0,0,0,0,0],"id":53,"left_children":[1,3,5,7,-1,9,11,13,-1,15,-1,17,19,-1,-1,-1,-1,21,-1,-1,-1,-1,-1],"loss_changes":[1.0602626E1,1.7522335E-2,1.6865189E1,2.2269934E-1,0E0,7.958351E0,2.862132E0,3.6362395E-1,0E0,4.8465424E0,0E0,1.170603E0,3.092668E0,0E0,0E0,0E0,0E0,4.721378E-1,0E0,0E0,0E0,0E0,0E0],"parents":[2147483647,0,0,1,1,2,2,3,3,5,5,6,6,7,7,9,9,11,11,12,12,17,17],"right_children":[2,4,6,8,-1,10,12,14,-1,16,-1,18,20,-1,-1,-1,-1,22,-1,-1,-1,-1,-1],"split_conditions":[3.5E1,4.786325E0,4E1,2.5E1,-5.1190395E-2,7.1428575E-2,5E1,6.25E-2,-4.384454E-2,5E-2,-3.769554E-2,4.786325E0,5.5E1,1.2178342E-2,-3.3740602E-2,1.5433781E-1,-3.934819E-3,-3E-1,-5.033E-2,9.526064E-2,-3.537234E-2,2.280922E-2,-2.220859E-2],"split_indices":[8,18,8,8,0,34,8,28,0,29,0,18,8,0,0,0,0,9,0,0,0,0,0],"split_type":[0,0,0,0,0,0,0,0,0,0,0,0,0,0,0,0,0,0,0,0,0,0,0],"sum_hessian":[7.116831E1,2.6831097E1,4.4337215E1,9.674328E0,1.7156769E1,1.7746513E1,2.6590704E1,4.753502E0,4.920826E0,1.5027461E1,2.7190523E0,2.1075422E1,5.5152807E0,2.64522E0,2.1082819E0,1.2980713E1,2.0467477E0,7.332724E0,1.3742699E1,3.1704555E0,2.3448255E0,3.3748178E0,3.9579062E0],"tree_param":{"num_deleted":"0","num_feature":"38","num_nodes":"23","size_leaf_vector":"1"}},{"base_weights":[-0E0,8.71519E-1,-5.2542597E-2,-3.844506E-2,1.0634629E0,1.299175E0,-4.0268004E-2,4.9894756E-1,1.5370659E0,-8.3323335E-3,9.4097406E-2,9.994553E-1,1.8140745E-1,1.4674181E-1,9.301943E-3],"categories":[],"categories_nodes":[],"categories_segments":[],"categories_sizes":[],"default_left":[0,0,0,0,0,0,0,0,0,0,0,0,0,0,0],"id":54,"left_children":[1,3,-1,-1,5,7,-1,9,11,-1,-1,13,-1,-1,-1],"loss_changes":[3.0053764E1,6.418976E0,0E0,0E0,8.117517E0,2.64711E0,0E0,1.6908687E0,1.1672974E-3,0E0,0E0,2.733848E0,0E0,0E0,0E0],"parents":[2147483647,0,0,1,1,4,4,5,5,7,7,8,8,11,11],"right_children":[2,4,-1,-1,6,8,-1,10,12,-1,-1,14,-1,-1,-1],"split_conditions":[2.5E1,-5E-1,-5.2542597E-2,-3.844506E-2,7.1428575E-2,2E1,-4.0268004E-2,1.1612903E0,4.1E1,-8.3323335E-3,9.4097406E-2,3.33E-2,1.8140745E-1,1.4674181E-1,9.301943E-3],"split_indices":[8,9,0,0,34,8,0,20,17,0,0,10,0,0,0],"split_type":[0,0,0,0,0,0,0,0,0,0,0,0,0,0,0],"sum_hessian":[6.3695564E1,2.3648804E1,4.004676E1,2.933003E0,2.07158E1,1.8003466E1,2.712334E0,4.9317102E0,1.3071756E1,2.3808024E0,2.5509079E0,6.1347103E0,6.9370456E0,3.5650055E0,2.5697045E0],"tree_param":{"num_deleted":"0","num_feature":"38","num_nodes":"15","size_leaf_vector":"1"}},{"base_weights":[2.5511079E-2,-2.0332246E-1,1.0764643E0,6.569551E-2,-5.2238263E-2,1.5396662E-2,1.2569597E0,-1.0348657E-1,1.0239986E-1,1.402912E-1,4.6536226E-2,-3.015549E-1,3.7032017E-1,-5.127682E-2,1.255257E-1,6.873937E-2,-3.4710914E-2,-3.610066E-2,4.382355E-2],"categories":[],"categories_nodes":[],"categories_segments":[],"categories_sizes":[],"default_left":[0,0,0,0,0,0,0,0,0,0,0,0,0,0,0,0,0,0,0],"id":55,"left_children":[1,3,5,7,-1,-1,9,11,-1,-1,-1,13,15,-1,17,-1,-1,-1,-1],"loss_changes":[1.7449871E1,5.1700687E0,1.827178E0,5.530807E0,0E0,0E0,3.8826942E-1,2.80535E0,0E0,0E0,0E0,1.9967798E0,2.270625E0,0E0,1.3212103E0,0E0,0E0,0E0,0E0],"parents":[2147483647,0,0,1,1,2,2,3,3,6,6,7,7,11,11,12,12,14,14],"right_children":[2,4,6,8,-1,-1,10,12,-1,-1,-1,14,16,-1,18,-1,-1,-1,-1],"split_conditions":[7.1428575E-2,1E0,-4E-1,4.566898E-1,-5.2238263E-2,1.5396662E-2,1.0052084E0,9.1E-2,1.0239986E-1,1.402912E-1,4.6536226E-2,5E-3,1.0035714E1,-5.127682E-2,2.12E-2,6.873937E-2,-3.4710914E-2,-3.610066E-2,4.382355E-2],"split_indices":[33,2,9,14,0,0,20,25,0,0,0,23,18,0,12,0,0,0,0],"split_type":[0,0,0,0,0,0,0,0,0,0,0,0,0,0,0,0,0,0,0],"sum_hessian":[7.02855E1,5.8302216E1,1.1983284E1,3.1892496E1,2.6409721E1,2.354855E0,9.628428E0,2.7776413E1,4.1160827E0,7.370836E0,2.257593E0,1.9993156E1,7.7832565E0,1.3399786E1,6.5933714E0,5.5233994E0,2.2598572E0,2.3941622E0,4.199209E0],"tree_param":{"num_deleted":"0","num_feature":"38","num_nodes":"19","size_leaf_vector":"1"}},{"base_weights":[6.0704328E-2,-3.6155728E-1,2.013659E-1,-5.01715E-1,5.466216E-1,-8.404217E-3,-5.242912E-2,1.5248044E-1,-3.9546035E-2],"categories":[],"categories_nodes":[],"categories_segments":[],"categories_sizes":[],"default_left":[0,0,0,0,0,0,0,0,0],"id":56,"left_children":[1,3,-1,5,7,-1,-1,-1,-1],"loss_changes":[4.7758377E1,6.3200684E0,0E0,2.8920364E-1,6.925235E0,0E0,0E0,0E0,0E0],"parents":[2147483647,0,0,1,1,3,3,4,4],"right_children":[2,4,-1,6,8,-1,-1,-1,-1],"split_conditions":[1.4285715E-1,1E0,2.013659E-1,1.5E1,3E1,-8.404217E-3,-5.242912E-2,1.5248044E-1,-3.9546035E-2],"split_indices":[34,6,0,8,8,0,0,0,0],"split_type":[0,0,0,0,0,0,0,0,0],"sum_hessian":[5.5829773E1,4.6532356E1,9.297415E0,4.079431E1,5.7380476E0,2.5612772E0,3.8233032E1,2.5637033E0,3.1743443E0],"tree_param":{"num_deleted":"0","num_feature":"38","num_nodes":"9","size_leaf_vector":"1"}},{"base_weights":[-1.7872792E-2,-3.6053178E-1,1.8245944E-1,-4.1037756E-1,1.4535384E-2,-4.690042E-1,1.1837286E-2,-5.0172556E-2,-4.163893E-3],"categories":[],"categories_nodes":[],"categories_segments":[],"categories_sizes":[],"default_left":[0,0,0,0,0,0,0,0,0],"id":57,"left_children":[1,3,-1,5,-1,7,-1,-1,-1],"loss_changes":[2.5345089E1,9.447026E-1,0E0,1.065033E0,0E0,3.256836E-1,0E0,0E0,0E0],"parents":[2147483647,0,0,1,1,3,3,5,5],"right_children":[2,4,-1,6,-1,8,-1,-1,-1],"split_conditions":[1.6666667E-1,1E0,1.8245944E-1,1E-1,1.4535384E-2,5E1,1.1837286E-2,-5.0172556E-2,-4.163893E-3],"split_indices":[35,6,0,29,0,8,0,0,0],"split_type":[0,0,0,0,0,0,0,0,0],"sum_hessian":[3.8334988E1,3.304747E1,5.287517E0,3.0435112E1,2.612357E0,2.7669321E1,2.765791E0,2.5322506E1,2.3468146E0],"tree_param":{"num_deleted":"0","num_feature":"38","num_nodes":"9","size_leaf_vector":"1"}},{"base_weights":[-7.562371E-2,-2.0047158E-1,7.508031E-1,3.5196346E-1,-3.264258E-1,-5.223111E-3,1.1943438E-1,-3.7545513E-2,7.999936E-1,-1.6826643E-1,-4.5878437E-1,3.6570717E-2,1.000457E-1,-4.3850835E-2,-2.3271885E-2,-1.2931738E-3,-5.029834E-2,2.5882044E-1,-4.3160554E-2,-6.840544E-4,5.0169826E-2],"categories":[],"categories_nodes":[],"categories_segments":[],"categories_sizes":[],"default_left":[0,0,0,0,0,0,0,0,0,0,0,0,0,0,0,0,0,0,0,0,0],"id":58,"left_children":[1,3,5,7,9,-1,-1,-1,11,13,15,-1,-1,-1,17,-1,-1,19,-1,-1,-1],"loss_changes":[5.5157766E0,3.3501976E0,2.6699393E0,3.2673144E0,6.673002E-1,0E0,0E0,0E0,1.6174078E-2,7.073491E-1,3.3738422E-1,0E0,0E0,0E0,1.7395389E0,0E0,0E0,6.1746603E-1,0E0,0E0,0E0],"parents":[2147483647,0,0,1,1,2,2,3,3,4,4,8,8,9,9,10,10,14,14,17,17],"right_children":[2,4,6,8,10,-1,-1,-1,12,14,16,-1,-1,-1,18,-1,-1,20,-1,-1,-1],"split_conditions":[1E0,-1.25E-1,4E1,4E1,2E1,-5.223111E-3,1.1943438E-1,-3.7545513E-2,-1.53E-1,3E1,-7.87E-2,3.6570717E-2,1.000457E-1,-4.3850835E-2,4.5E1,-1.2931738E-3,-5.029834E-2,4E1,-4.3160554E-2,-6.840544E-4,5.0169826E-2],"split_indices":[6,10,8,8,19,0,0,0,10,8,10,0,0,0,8,0,0,8,0,0,0],"split_type":[0,0,0,0,0,0,0,0,0,0,0,0,0,0,0,0,0,0,0,0,0],"sum_hessian":[5.153363E1,4.5533356E1,6.0002737E0,7.973459E0,3.75599E1,2.3686302E0,3.6316435E0,3.0158057E0,4.957653E0,1.8491112E1,1.9068787E1,2.6152015E0,2.3424513E0,5.5091414E0,1.298197E1,2.0405047E0,1.7028282E1,7.7495465E0,5.2324233E0,3.9686847E0,3.7808619E0],"tree_param":{"num_deleted":"0","num_feature":"38","num_nodes":"21","size_leaf_vector":"1"}},{"base_weights":[1.4240234E-2,-5.197766E-2,1.5861201E-1],"categories":[],"categories_nodes":[],"categories_segments":[],"categories_sizes":[],"default_left":[0,0,0],"id":59,"left_children":[1,-1,-1],"loss_changes":[4.7556202E1,0E0,0E0],"parents":[2147483647,0,0],"right_children":[2,-1,-1],"split_conditions":[7.692308E-2,-5.197766E-2,1.5861201E-1],"split_indices":[37,0,0],"split_type":[0,0,0],"sum_hessian":[5.4545113E1,4.1165585E1,1.3379528E1],"tree_param":{"num_deleted":"0","num_feature":"38","num_nodes":"3","size_leaf_vector":"1"}},{"base_weights":[-6.0889544E-4,-1.2523255E-1,6.350678E-1,-4.035573E-1,3.3095777E-1,9.7891456E-1,7.188672E-2,3.444857E-2,-4.6059337E-1,-1.4125934E-1,8.1654966E-1,4.9709484E-2,1.24169566E-1,-2.246242E-2,5.234883E-2,-0E0,-5.214765E-1,-3.6163357E-1,6.861133E-2,1.0171934E0,-1.0154772E-2,4.5268785E-2,-3.85265E-2,-5.4356486E-2,-7.428825E-3,-5.0659742E-2,2.4178313E-2,1.2770064E-2,1.21659316E-1],"categories":[],"categories_nodes":[],"categories_segments":[],"categories_sizes":[],"default_left":[0,0,0,0,0,0,0,0,0,0,0,0,0,0,0,0,0,0,0,0,0,0,0,0,0,0,0,0,0],"id":60,"left_children":[1,3,5,7,9,11,13,-1,15,17,19,-1,-1,-1,-1,21,23,25,-1,27,-1,-1,-1,-1,-1,-1,-1,-1,-1],"loss_changes":[6.984361E0,9.584524E0,2.6179905E0,2.1662183E0,6.740262E0,3.189392E-1,1.039018E0,0E0,1.2614355E0,2.995535E0,2.838395E0,0E0,0E0,0E0,0E0,1.231281E0,2.8285694E-1,1.2677313E0,0E0,1.830967E0,0E0,0E0,0E0,0E0,0E0,0E0,0E0,0E0,0E0],"parents":[2147483647,0,0,1,1,2,2,3,3,4,4,5,5,6,6,8,8,9,9,10,10,15,15,16,16,17,17,19,19],"right_children":[2,4,6,8,10,12,14,-1,16,18,20,-1,-1,-1,-1,22,24,26,-1,28,-1,-1,-1,-1,-1,-1,-1,-1,-1],"split_conditions":[6.25E-2,1.0689656E0,-3E-1,2E1,4E1,1.25E-1,7.819124E0,3.444857E-2,-1.37E-1,2.4705883E1,7.692308E-2,4.9709484E-2,1.24169566E-1,-2.246242E-2,5.234883E-2,9.22449E0,2.2E2,5.5E-2,6.861133E-2,1.9E-2,-1.0154772E-2,4.5268785E-2,-3.85265E-2,-5.4356486E-2,-7.428825E-3,-5.0659742E-2,2.4178313E-2,1.2770064E-2,1.21659316E-1],"split_indices":[28,20,9,8,8,28,16,0,11,18,37,0,0,0,0,18,17,23,0,23,0,0,0,0,0,0,0,0,0],"split_type":[0,0,0,0,0,0,0,0,0,0,0,0,0,0,0,0,0,0,0,0,0,0,0,0,0,0,0,0,0],"sum_hessian":[8.680336E1,7.3378E1,1.3425362E1,4.5781178E1,2.7596819E1,7.7673216E0,5.65804E0,2.7621248E0,4.301905E1,1.4246184E1,1.3350634E1,3.8960226E0,3.871299E0,3.5852325E0,2.0728076E0,5.03986E0,3.7979195E1,1.1789721E1,2.4564645E0,1.0957035E1,2.3935986E0,2.2985868E0,2.7412727E0,3.5773083E1,2.2061107E0,9.769005E0,2.0207148E0,2.398704E0,8.558331E0],"tree_param":{"num_deleted":"0","num_feature":"38","num_nodes":"29","size_leaf_vector":"1"}},{"base_weights":[-4.410282E-2,9.674008E-2,-1.5757607E-1,1.5071283E-1,-4.924799E-1,-2.8727448E-1,5.820473E-1,-5.320224E-1,2.2107293E-3,8.690708E-3,-5.299861E-2,9.195345E-1,-2.6987308E-1,-5.5442136E-2,-3.5276636E-3,2.421803E-1,-4.3525424E-2,2.840649E-1,1.10669546E-1,-4.874904E-2,1.6791873E-2,-3.9611116E-2,5.693239E-2,4.8507314E-2,1.5932858E-3],"categories":[],"categories_nodes":[],"categories_segments":[],"categories_sizes":[],"default_left":[0,0,0,0,0,0,0,0,0,0,0,0,0,0,0,0,0,0,0,0,0,0,0,0,0],"id":61,"left_children":[1,-1,3,5,7,9,11,13,-1,15,-1,17,19,-1,-1,21,-1,23,-1,-1,-1,-1,-1,-1,-1],"loss_changes":[1.195925E1,0E0,9.821205E0,9.56579E0,9.881859E-1,1.8641813E0,7.625098E0,3.9385223E-1,0E0,1.3439931E0,0E0,1.7500267E0,8.6694986E-1,0E0,0E0,2.0684257E0,0E0,2.4841112E-1,0E0,0E0,0E0,0E0,0E0,0E0,0E0],"parents":[2147483647,0,0,2,2,3,3,4,4,5,5,6,6,7,7,9,9,11,11,12,12,15,15,17,17],"right_children":[2,-1,4,6,8,10,12,14,-1,16,-1,18,20,-1,-1,22,-1,24,-1,-1,-1,-1,-1,-1,-1],"split_conditions":[0E0,9.674008E-2,3.1E1,2.5E1,1E-1,6E0,5E-2,8.2E1,2.2107293E-3,6.666667E-2,-5.299861E-2,8.897637E0,1.5E-2,-5.5442136E-2,-3.5276636E-3,-4.2E-2,-4.3525424E-2,-4.92E-2,1.10669546E-1,-4.874904E-2,1.6791873E-2,-3.9611116E-2,5.693239E-2,4.8507314E-2,1.5932858E-3],"split_indices":[21,0,8,8,29,17,29,22,0,30,0,18,23,0,0,10,0,10,0,0,0,0,0,0,0],"split_type":[0,0,0,0,0,0,0,0,0,0,0,0,0,0,0,0,0,0,0,0,0,0,0,0,0],"sum_hessian":[1.0257151E2,9.498146E0,9.3073364E1,4.859324E1,4.4480125E1,2.4161362E1,2.4431877E1,4.1455036E1,3.0250885E0,1.113518E1,1.302618E1,1.7526709E1,6.9051695E0,3.93627E1,2.0923345E0,7.7426987E0,3.3924818E0,4.681981E0,1.2844727E1,4.6891756E0,2.2159941E0,2.448644E0,5.294055E0,2.000357E0,2.6816244E0],"tree_param":{"num_deleted":"0","num_feature":"38","num_nodes":"25","size_leaf_vector":"1"}},{"base_weights":[2.9395644E-2,-2.3255634E-1,1.4256391E-1,-5.1273983E-2,5.515708E-1,1.4520378E-1,-0E0,6.509983E-2,-4.264199E-2],"categories":[],"categories_nodes":[],"categories_segments":[],"categories_sizes":[],"default_left":[0,0,0,0,0,0,0,0,0],"id":62,"left_children":[1,3,-1,-1,5,-1,7,-1,-1],"loss_changes":[1.9320314E1,9.998585E0,0E0,0E0,6.075947E0,0E0,2.5986028E0,0E0,0E0],"parents":[2147483647,0,0,1,1,4,4,6,6],"right_children":[2,4,-1,-1,6,-1,8,-1,-1],"split_conditions":[5.5E1,6.666667E-2,1.4256391E-1,-5.1273983E-2,2E1,1.4520378E-1,-5E-1,6.509983E-2,-4.264199E-2],"split_indices":[8,30,0,0,8,0,9,0,0],"split_type":[0,0,0,0,0,0,0,0,0],"sum_hessian":[5.059133E1,4.3240685E1,7.3506494E0,3.2206367E1,1.1034316E1,3.618235E0,7.416081E0,2.6635072E0,4.752574E0],"tree_param":{"num_deleted":"0","num_feature":"38","num_nodes":"9","size_leaf_vector":"1"}},{"base_weights":[-1.0927385E-2,-4.350275E-1,2.1091545E-1,-2.5924164E-1,-5.037594E-2,9.4927895E-1,-2.2693273E-1,-2.36358E-3,-4.207051E-2,1.1920217E0,-3.5780337E-2,-3.5016146E-1,2.0294775E-1,1.3234513E-1,2.1916209E-2,-3.4483623E-2,-5.0275315E-2,-3.999939E-2,7.514754E-2,2.4475737E-2,-2.5939247E-1,-3.6671467E-2,-1.9330805E-3],"categories":[],"categories_nodes":[],"categories_segments":[],"categories_sizes":[],"default_left":[0,0,0,0,0,0,0,0,0,0,0,0,0,0,0,0,0,0,0,0,0,0,0],"id":63,"left_children":[1,3,5,7,-1,9,11,-1,-1,13,-1,15,17,-1,-1,19,-1,-1,-1,-1,21,-1,-1],"loss_changes":[6.5491767E0,8.273077E-2,1.4973227E1,2.9588687E-1,0E0,5.9633055E0,1.6346077E0,0E0,0E0,1.4468994E0,0E0,1.0499179E0,2.6396692E0,0E0,0E0,6.2205106E-1,0E0,0E0,0E0,0E0,9.8508984E-2,0E0,0E0],"parents":[2147483647,0,0,1,1,2,2,3,3,5,5,6,6,9,9,11,11,12,12,15,15,20,20],"right_children":[2,4,6,8,-1,10,12,-1,-1,14,-1,16,18,-1,-1,20,-1,-1,-1,-1,22,-1,-1],"split_conditions":[3.1E1,1E0,4E1,2.5E1,-5.037594E-2,7.1428575E-2,5E1,-2.36358E-3,-4.207051E-2,5E-2,-3.5780337E-2,1E0,2.06E-2,1.3234513E-1,2.1916209E-2,-3E-1,-5.0275315E-2,-3.999939E-2,7.514754E-2,2.4475737E-2,2.5E-3,-3.6671467E-2,-1.9330805E-3],"split_indices":[8,17,8,8,0,34,8,0,0,29,0,17,12,0,0,9,0,0,0,0,10,0,0],"split_type":[0,0,0,0,0,0,0,0,0,0,0,0,0,0,0,0,0,0,0,0,0,0,0],"sum_hessian":[6.739676E1,2.2971539E1,4.4425224E1,8.207381E0,1.4764157E1,1.6187624E1,2.82376E1,4.055442E0,4.15194E0,1.3790986E1,2.3966374E0,2.227139E1,5.966208E0,1.1741584E1,2.049402E0,7.8704762E0,1.4400915E1,2.8842835E0,3.0819247E0,3.2734141E0,4.597062E0,2.5243697E0,2.0726922E0],"tree_param":{"num_deleted":"0","num_feature":"38","num_nodes":"23","size_leaf_vector":"1"}},{"base_weights":[2.2824816E-2,8.751362E-1,-5.225814E-2,-3.3912558E-2,1.0042763E0,5.7881194E-1,1.27787E-1,-9.8958565E-3,1.1358458E-1,3.32421E-2,-3.94432E-2],"categories":[],"categories_nodes":[],"categories_segments":[],"categories_sizes":[],"default_left":[0,0,0,0,0,0,0,0,0,0,0],"id":64,"left_children":[1,3,-1,-1,5,7,-1,9,-1,-1,-1],"loss_changes":[3.0450693E1,4.42033E0,0E0,0E0,1.8054943E0,3.7810965E0,0E0,9.700576E-1,0E0,0E0,0E0],"parents":[2147483647,0,0,1,1,4,4,5,5,7,7],"right_children":[2,4,-1,-1,6,8,-1,10,-1,-1,-1],"split_conditions":[2.5E1,-5E-1,-5.225814E-2,-3.3912558E-2,3.11E-2,1.0543479E0,1.27787E-1,1E0,1.1358458E-1,3.32421E-2,-3.94432E-2],"split_indices":[8,9,0,0,12,20,0,17,0,0,0],"split_type":[0,0,0,0,0,0,0,0,0,0,0],"sum_hessian":[6.3446003E1,2.4593033E1,3.885297E1,2.1333616E0,2.2459673E1,1.0152562E1,1.230711E1,5.3262086E0,4.8263535E0,2.7519112E0,2.5742974E0],"tree_param":{"num_deleted":"0","num_feature":"38","num_nodes":"11","size_leaf_vector":"1"}},{"base_weights":[3.374436E-2,-1.7240769E-1,1.0231142E0,-5.250423E-2,3.2997844E-1,1.2606075E-1,8.330725E-3,7.8109986E-1,-4.7838952E-2,1.0140369E0,-1.6512068E-2,1.4009602E-1,8.917544E-2,2.2523813E-2,-4.1800225E-3],"categories":[],"categories_nodes":[],"categories_segments":[],"categories_sizes":[],"default_left":[0,0,0,0,0,0,0,0,0,0,0,0,0,0,0],"id":65,"left_children":[1,3,5,-1,7,-1,-1,9,-1,11,-1,-1,13,-1,-1],"loss_changes":[1.472256E1,1.0724411E1,2.5402699E0,0E0,9.5261965E0,0E0,0E0,3.8922606E0,0E0,4.5487614E0,0E0,0E0,1.1899011E-1,0E0,0E0],"parents":[2147483647,0,0,1,1,2,2,4,4,7,7,9,9,12,12],"right_children":[2,4,6,-1,8,-1,-1,10,-1,12,-1,-1,14,-1,-1],"split_conditions":[1E0,4.5E1,1E-1,-5.250423E-2,1E0,1.2606075E-1,8.330725E-3,5E1,-4.7838952E-2,5E-2,-1.6512068E-2,1.4009602E-1,-3E-1,2.2523813E-2,-4.1800225E-3],"split_indices":[4,8,29,0,2,0,0,8,0,29,0,0,9,0,0],"split_type":[0,0,0,0,0,0,0,0,0,0,0,0,0,0,0],"sum_hessian":[6.990141E1,5.844754E1,1.1453874E1,3.4432587E1,2.4014954E1,8.78589E0,2.6679838E0,1.5514372E1,8.500582E0,1.2476874E1,3.0374973E0,8.357531E0,4.1193438E0,2.0419214E0,2.0774224E0],"tree_param":{"num_deleted":"0","num_feature":"38","num_nodes":"15","size_leaf_vector":"1"}},{"base_weights":[4.5252103E-2,-4.2316633E-1,1.7179127E-1,-5.002816E-1,1.5209197E-1,-1.9437112E-2,-5.2161064E-2,8.9981645E-2,-3.9597522E-2],"categories":[],"categories_nodes":[],"categories_segments":[],"categories_sizes":[],"default_left":[0,0,0,0,0,0,0,0,0],"id":66,"left_children":[1,3,-1,5,7,-1,-1,-1,-1],"loss_changes":[4.799409E1,2.2294216E0,0E0,1.0430145E-1,2.9715183E0,0E0,0E0,0E0,0E0],"parents":[2147483647,0,0,1,1,3,3,4,4],"right_children":[2,4,-1,6,8,-1,-1,-1,-1],"split_conditions":[1.4285715E-1,1E0,1.7179127E-1,1.5E1,3.1E1,-1.9437112E-2,-5.2161064E-2,8.9981645E-2,-3.9597522E-2],"split_indices":[34,6,0,8,8,0,0,0,0],"split_type":[0,0,0,0,0,0,0,0,0],"sum_hessian":[5.916254E1,4.6756023E1,1.2406516E1,4.149734E1,5.2586837E0,3.6694777E0,3.782786E1,2.0299268E0,3.2287567E0],"tree_param":{"num_deleted":"0","num_feature":"38","num_nodes":"9","size_leaf_vector":"1"}},{"base_weights":[4.8147578E-2,-2.9226974E-1,1.5797509E-1,6.0731955E-2,-3.740732E-1,8.451829E-3,-4.2992464E-1,-4.9922843E-2,7.7750706E-3],"categories":[],"categories_nodes":[],"categories_segments":[],"categories_sizes":[],"default_left":[0,0,0,0,0,0,0,0,0],"id":67,"left_children":[1,3,-1,-1,5,-1,7,-1,-1],"loss_changes":[2.0977182E1,2.6162148E0,0E0,0E0,8.5897636E-1,0E0,1.058639E0,0E0,0E0],"parents":[2147483647,0,0,1,1,4,4,6,6],"right_children":[2,4,-1,-1,6,-1,8,-1,-1],"split_conditions":[1.6666667E-1,-2.5E0,1.5797509E-1,6.0731955E-2,-8.01E-2,8.451829E-3,2.6806401E-2,-4.9922843E-2,7.7750706E-3],"split_indices":[35,21,0,0,12,0,13,0,0],"split_type":[0,0,0,0,0,0,0,0,0],"sum_hessian":[3.8101143E1,3.1781258E1,6.319885E0,2.011734E0,2.9769524E1,2.9818733E0,2.6787651E1,2.375801E1,3.0296402E0],"tree_param":{"num_deleted":"0","num_feature":"38","num_nodes":"9","size_leaf_vector":"1"}},{"base_weights":[-7.180194E-3,-3.5870782E-1,3.1266057E-1,-2.8063856E-2,-4.9807023E-2,1.0611287E0,-4.8891924E-2,-2.7467284E-1,3.5582267E-2,1.3565114E-1,-3.687984E-2,-3.783625E-2,-2.5184469E-3],"categories":[],"categories_nodes":[],"categories_segments":[],"categories_sizes":[],"default_left":[0,0,0,0,0,0,0,0,0,0,0,0,0],"id":68,"left_children":[1,3,5,7,-1,9,-1,11,-1,-1,-1,-1,-1],"loss_changes":[6.2087173E0,1.1511726E0,1.782811E1,9.5192504E-1,0E0,7.0404263E0,0E0,1.1228722E-1,0E0,0E0,0E0,0E0,0E0],"parents":[2147483647,0,0,1,1,2,2,3,3,5,5,7,7],"right_children":[2,4,6,8,-1,10,-1,12,-1,-1,-1,-1,-1],"split_conditions":[4E1,1E0,4.5E1,3E1,-4.9807023E-2,7.692308E-2,-4.8891924E-2,2.5E1,3.5582267E-2,1.3565114E-1,-3.687984E-2,-3.783625E-2,-2.5184469E-3],"split_indices":[8,17,8,8,0,37,0,8,0,0,0,0,0],"split_type":[0,0,0,0,0,0,0,0,0,0,0,0,0],"sum_hessian":[5.3183075E1,2.5427544E1,2.7755531E1,8.108551E0,1.7318993E1,1.4250349E1,1.3505183E1,5.2688355E0,2.8397155E0,1.1911123E1,2.3392255E0,3.0739143E0,2.1949215E0],"tree_param":{"num_deleted":"0","num_feature":"38","num_nodes":"13","size_leaf_vector":"1"}},{"base_weights":[7.949551E-3,-5.1684827E-2,1.3540819E0,1.4501606E-1,5.9761174E-2],"categories":[],"categories_nodes":[],"categories_segments":[],"categories_sizes":[],"default_left":[0,0,0,0,0],"id":69,"left_children":[1,-1,3,-1,-1],"loss_changes":[3.8362995E1,0E0,3.7036896E-2,0E0,0E0],"parents":[2147483647,0,0,2,2],"right_children":[2,-1,4,-1,-1],"split_conditions":[7.692308E-2,-5.1684827E-2,2.2E2,1.4501606E-1,5.9761174E-2],"split_indices":[37,0,17,0,0],"split_type":[0,0,0,0,0],"sum_hessian":[5.219493E1,3.7943996E1,1.4250934E1,1.171395E1,2.5369835E0],"tree_param":{"num_deleted":"0","num_feature":"38","num_nodes":"5","size_leaf_vector":"1"}},{"base_weights":[1.3724253E-2,-2.2137795E-1,3.9609686E-1,-3.5541788E-1,4.518352E-1,-2.188367E-1,6.5049464E-1,-4.29876E-1,5.6485426E-2,6.3586795E-1,-6.489428E-3,1.8740734E-2,-4.638864E-2,8.38356E-1,-4.1954465E-2,7.885478E-2,-5.12365E-1,1.6522013E-2,9.887208E-2,1.0415274E0,-3.8945045E-2,-2.1362782E-2,5.1565506E-2,-1.9602021E-2,-5.3671785E-2,1.277615E-1,-3.7881717E-2],"categories":[],"categories_nodes":[],"categories_segments":[],"categories_sizes":[],"default_left":[0,0,0,0,0,0,0,0,0,0,0,0,0,0,0,0,0,0,0,0,0,0,0,0,0,0,0],"id":70,"left_children":[1,3,5,7,9,11,13,15,-1,17,-1,-1,-1,19,-1,21,23,-1,-1,25,-1,-1,-1,-1,-1,-1,-1],"loss_changes":[7.9643245E0,5.0794744E0,5.474231E0,3.3972163E0,9.908587E-1,1.1624899E0,5.274493E0,1.9066896E0,0E0,9.0961957E-1,0E0,0E0,0E0,5.7262344E0,0E0,1.0037836E0,1.1181259E-1,0E0,0E0,6.750021E0,0E0,0E0,0E0,0E0,0E0,0E0,0E0],"parents":[2147483647,0,0,1,1,2,2,3,3,4,4,5,5,6,6,7,7,9,9,13,13,15,15,16,16,19,19],"right_children":[2,4,6,8,10,12,14,16,-1,18,-1,-1,-1,20,-1,22,24,-1,-1,26,-1,-1,-1,-1,-1,-1,-1],"split_conditions":[4.5E1,6.25E-2,2E1,2.735E1,-3E-1,-4E-1,5E1,2E1,5.6485426E-2,1.25E-1,-6.489428E-3,1.8740734E-2,-4.638864E-2,1.5384616E-1,-4.1954465E-2,6.27E-2,-5E-1,1.6522013E-2,9.887208E-2,1E0,-3.8945045E-2,-2.1362782E-2,5.1565506E-2,-1.9602021E-2,-5.3671785E-2,1.277615E-1,-3.7881717E-2],"split_indices":[8,28,19,18,9,9,8,8,0,28,0,0,0,37,0,12,9,0,0,4,0,0,0,0,0,0,0],"split_type":[0,0,0,0,0,0,0,0,0,0,0,0,0,0,0,0,0,0,0,0,0,0,0,0,0,0,0],"sum_hessian":[8.642445E1,5.361731E1,3.2807144E1,4.5232002E1,8.385307E0,9.526433E0,2.3280712E1,4.2439796E1,2.792208E0,6.155864E0,2.2294436E0,3.5192907E0,6.007142E0,2.0067532E1,3.2131813E0,5.7583475E0,3.6681446E1,3.3882024E0,2.7676613E0,1.7418386E1,2.6491456E0,3.6178281E0,2.1405191E0,3.5623124E0,3.3119137E1,1.5082319E1,2.336066E0],"tree_param":{"num_deleted":"0","num_feature":"38","num_nodes":"27","size_leaf_vector":"1"}},{"base_weights":[2.6961505E-2,3.4316093E-1,-3.4636465E-1,-1.3817583E-1,6.879082E-1,-4.8209062E-1,7.503039E-1,1.7518565E-1,-4.393668E-1,8.8225144E-1,-3.2682896E-1,-2.5214714E-1,-5.4552313E-2,1.0577166E-1,1.8213091E-2,4.001201E-1,-4.028996E-2,-5.0607264E-2,-5.689015E-3,9.467586E-1,3.248315E-2,-4.2142805E-2,-6.6233086E-3,-4.502824E-2,-5.4297283E-2,9.4620444E-2,4.779147E-2,1.01426914E-1,2.7850801E-2,4.7954198E-2,-4.26698E-2,2.3197133E-2,-1.4583475E-2],"categories":[],"categories_nodes":[],"categories_segments":[],"categories_sizes":[],"default_left":[0,0,0,0,0,0,0,0,0,0,0,0,0,0,0,0,0,0,0,0,0,0,0,0,0,0,0,0,0,0,0,0,0],"id":71,"left_children":[1,3,5,7,9,11,13,15,17,19,21,23,-1,-1,-1,25,-1,-1,-1,27,-1,-1,-1,-1,29,-1,31,-1,-1,-1,-1,-1,-1],"loss_changes":[1.1803418E1,9.150742E0,7.1439157E0,2.3070016E0,6.6334305E0,3.8649654E-1,6.1748266E-1,1.7206526E0,2.300787E-1,5.404606E-1,6.5647006E-2,3.622259E-1,0E0,0E0,0E0,1.6372671E0,0E0,0E0,0E0,6.539993E-1,0E0,0E0,0E0,0E0,1.5848273E0,0E0,2.8472492E-1,0E0,0E0,0E0,0E0,0E0,0E0],"parents":[2147483647,0,0,1,1,2,2,3,3,4,4,5,5,6,6,7,7,8,8,9,9,10,10,11,11,15,15,19,19,24,24,26,26],"right_children":[2,4,6,8,10,12,14,16,18,20,22,24,-1,-1,-1,26,-1,-1,-1,28,-1,-1,-1,-1,30,-1,32,-1,-1,-1,-1,-1,-1],"split_conditions":[3.5E1,2.5E1,1E-1,6E0,8.3333336E-2,1E0,-6E0,6.666667E-2,1.264E-1,1.3333334E-1,9E0,-2.1E-2,-5.4552313E-2,1.0577166E-1,1.8213091E-2,1.1E1,-4.028996E-2,-5.0607264E-2,-5.689015E-3,1E-1,3.248315E-2,-4.2142805E-2,-6.6233086E-3,-4.502824E-2,7.4E-3,9.4620444E-2,-2E-3,1.01426914E-1,2.7850801E-2,4.7954198E-2,-4.26698E-2,2.3197133E-2,-1.4583475E-2],"split_indices":[8,8,29,17,35,17,21,30,12,30,17,10,0,0,0,8,0,0,0,29,0,0,0,0,10,0,10,0,0,0,0,0,0],"split_type":[0,0,0,0,0,0,0,0,0,0,0,0,0,0,0,0,0,0,0,0,0,0,0,0,0,0,0,0,0,0,0,0,0],"sum_hessian":[9.798624E1,5.324094E1,4.4745296E1,2.2347895E1,3.0893044E1,4.039724E1,4.3480563E0,1.0994975E1,1.135292E1,2.611969E1,4.7733545E0,1.0151059E1,3.024618E1,2.1481674E0,2.199889E0,8.261313E0,2.733661E0,9.169168E0,2.1837506E0,2.2623707E1,3.4959836E0,2.7677312E0,2.005623E0,4.181857E0,5.9692025E0,2.4674864E0,5.7938275E0,1.9941647E1,2.6820588E0,2.2243488E0,3.7448535E0,3.1325376E0,2.6612897E0],"tree_param":{"num_deleted":"0","num_feature":"38","num_nodes":"33","size_leaf_vector":"1"}},{"base_weights":[-0E0,-2.608647E-1,6.2825334E-1,-3.3864006E-1,2.2658563E-1,1.0566332E0,-4.182029E-2,-4.1043848E-1,7.754337E-2,-2.992704E-3,4.2631287E-2,1.2355059E0,1.8970532E-2,-1.6478135E-1,-5.067808E-2,2.3347994E-2,-5.698763E-3,6.146384E-1,1.6689764E-1,-3.1898576E-1,2.3518277E-2,8.329764E-2,1.8085836E-2,-4.1307688E-2,-1.5135014E-3],"categories":[],"categories_nodes":[],"categories_segments":[],"categories_sizes":[],"default_left":[0,0,0,0,0,0,0,0,0,0,0,0,0,0,0,0,0,0,0,0,0,0,0,0,0],"id":72,"left_children":[1,3,5,7,9,11,-1,13,15,-1,-1,17,-1,19,-1,-1,-1,21,-1,23,-1,-1,-1,-1,-1],"loss_changes":[8.423813E0,1.4682944E0,7.258983E0,1.0206506E0,3.3070356E-1,1.3351364E0,0E0,5.034137E-1,1.4300293E-1,0E0,0E0,1.1343489E0,0E0,6.7299485E-1,0E0,0E0,0E0,2.5245404E-1,0E0,1.6547203E-1,0E0,0E0,0E0,0E0,0E0],"parents":[2147483647,0,0,1,1,2,2,3,3,4,4,5,5,7,7,8,8,11,11,13,13,17,17,19,19],"right_children":[2,4,6,8,10,12,-1,14,16,-1,-1,18,-1,20,-1,-1,-1,22,-1,24,-1,-1,-1,-1,-1],"split_conditions":[6.666667E-2,1E0,5E-2,1.3568282E0,1E1,8.221963E0,-4.182029E-2,-6.66E-2,4.56E-2,-2.992704E-3,4.2631287E-2,1E0,1.8970532E-2,-8.86E-2,-5.067808E-2,2.3347994E-2,-5.698763E-3,1.1E-2,1.6689764E-1,1.9E1,2.3518277E-2,8.329764E-2,1.8085836E-2,-4.1307688E-2,-1.5135014E-3],"split_indices":[30,5,29,20,19,16,0,10,12,0,0,2,0,10,0,0,0,10,0,22,0,0,0,0,0],"split_type":[0,0,0,0,0,0,0,0,0,0,0,0,0,0,0,0,0,0,0,0,0,0,0,0,0],"sum_hessian":[4.947467E1,3.5409885E1,1.4064785E1,3.0977661E1,4.4322224E0,1.00404415E1,4.0243435E0,2.6636515E1,4.3411484E0,2.0932753E0,2.338947E0,7.8750777E0,2.165364E0,8.559509E0,1.8077005E1,2.0142353E0,2.3269129E0,4.3266225E0,3.5484552E0,6.5042934E0,2.0552156E0,2.1125102E0,2.214112E0,4.4406195E0,2.063674E0],"tree_param":{"num_deleted":"0","num_feature":"38","num_nodes":"25","size_leaf_vector":"1"}},{"base_weights":[1.7658704E-3,1.0390607E-1,-4.8924316E-2,2.1859908E-1,-3.4060627E-1,2.8002882E-1,-4.0894523E-2,-3.951761E-1,-7.056495E-4,3.519397E-1,-4.0461805E-2,