{"learner":{"attributes":{"scikit_learn":"{\"_estimator_type\": \"regressor\"}"},"feature_names":[],"feature_types":[],"gradient_booster":{"model":{"cats":{"enc":[],"feature_segments":[],"sorted_idx":[]},"gbtree_model_param":{"num_parallel_tree":"1","num_trees":"150"},"iteration_indptr":[0,1,2,3,4,5,6,7,8,9,10,11,12,13,14,15,16,17,18,19,20,21,22,23,24,25,26,27,28,29,30,31,32,33,34,35,36,37,38,39,40,41,42,43,44,45,46,47,48,49,50,51,52,53,54,55,56,57,58,59,60,61,62,63,64,65,66,67,68,69,70,71,72,73,74,75,76,77,78,79,80,81,82,83,84,85,86,87,88,89,90,91,92,93,94,95,96,97,98,99,100,101,102,103,104,105,106,107,108,109,110,111,112,113,114,115,116,117,118,119,120,121,122,123,124,125,126,127,128,129,130,131,132,133,134,135,136,137,138,139,140,141,142,143,144,145,146,147,148,149,150],"tree_info":[0,0,0,0,0,0,0,0,0,0,0,0,0,0,0,0,0,0,0,0,0,0,0,0,0,0,0,0,0,0,0,0,0,0,0,0,0,0,0,0,0,0,0,0,0,0,0,0,0,0,0,0,0,0,0,0,0,0,0,0,0,0,0,0,0,0,0,0,0,0,0,0,0,0,0,0,0,0,0,0,0,0,0,0,0,0,0,0,0,0,0,0,0,0,0,0,0,0,0,0,0,0,0,0,0,0,0,0,0,0,0,0,0,0,0,0,0,0,0,0,0,0,0,0,0,0,0,0,0,0,0,0,0,0,0,0,0,0,0,0,0,0,0,0,0,0,0,0,0,0],"trees":[{"base_weights":[-7.350212E-3,-1.9237284E-1,2.4053413E-1,-2.086975E-1,4.164934E-2,2.742763E-1,-4.4640806E-2,-2.8909487E-1,-1.2401545E-1,1.808074E-1,3.8039222E-1,1.09812886E-1,-2.1129593E-1,-2.4465005E-1,-4.844075E-2,4.424809E-2,-1.5702373E-1,1.9716325E-1,-1.7515594E-1,3.8767405E-2,-5.010396E-3,1.998218E-1,-7.515593E-3,-3.0016635E-2,-8.016633E-3,-8.352969E-3,-2.81027E-2,-1.3351815E-2,1.998129E-2,1.9989606E-2,-1.6342392E-2,2.716736E-2,1.3979672E-2,-2.0013861E-2,-5.010396E-3,2.4844073E-3,3.248441E-2],"categories":[],"categories_nodes":[],"categories_segments":[],"categories_sizes":[],"default_left":[0,0,0,0,0,0,0,0,0,0,0,0,0,0,0,0,0,0,0,0,0,0,0,0,0,0,0,0,0,0,0,0,0,0,0,0,0],"id":0,"left_children":[1,3,5,7,-1,9,11,13,15,17,19,21,23,25,-1,27,29,31,33,-1,-1,35,-1,-1,-1,-1,-1,-1,-1,-1,-1,-1,-1,-1,-1,-1,-1],"loss_changes":[1.7382944E1,2.2437983E0,1.5710754E0,1.4074898E0,0E0,1.3694115E0,4.8653197E-1,8.1899834E-1,5.9012735E-1,4.9447918E-1,2.2945595E-1,1.8150622E-1,8.081862E-2,5.040221E-1,0E0,5.2445364E-1,2.3369098E-1,2.868755E-1,2.468802E-3,0E0,0E0,1.4506236E-1,0E0,0E0,0E0,0E0,0E0,0E0,0E0,0E0,0E0,0E0,0E0,0E0,0E0,0E0,0E0],"parents":[2147483647,0,0,1,1,2,2,3,3,5,5,6,6,7,7,8,8,9,9,10,10,11,11,12,12,13,13,15,15,16,16,17,17,18,18,21,21],"right_children":[2,4,6,8,-1,10,12,14,16,18,20,22,24,26,-1,28,30,32,34,-1,-1,36,-1,-1,-1,-1,-1,-1,-1,-1,-1,-1,-1,-1,-1,-1,-1],"split_conditions":[1.08E-2,6E0,1E0,1E0,4.164934E-2,9.69E-2,5E0,1E0,8E0,3.48E2,7E2,7.475356E-2,-3E0,-8.7E-3,-4.844075E-2,-5.82E-2,-3.6115326E-2,1E0,8.47E-2,3.8767405E-2,-5.010396E-3,7.2107543E-3,-7.515593E-3,-3.0016635E-2,-8.016633E-3,-8.352969E-3,-2.81027E-2,-1.3351815E-2,1.998129E-2,1.9989606E-2,-1.6342392E-2,2.716736E-2,1.3979672E-2,-2.0013861E-2,-5.010396E-3,2.4844073E-3,3.248441E-2],"split_indices":[12,21,4,17,0,12,17,2,17,17,17,13,21,12,0,12,13,2,12,0,0,13,0,0,0,0,0,0,0,0,0,0,0,0,0,0,0],"split_type":[0,0,0,0,0,0,0,0,0,0,0,0,0,0,0,0,0,0,0,0,0,0,0,0,0,0,0,0,0,0,0,0,0,0,0,0,0],"sum_hessian":[3.77E2,2.16E2,1.61E2,2.11E2,5E0,1.44E2,1.7E1,1.07E2,1.04E2,7.8E1,6.6E1,9E0,8E0,8.9E1,1.8E1,1.7E1,8.7E1,7.5E1,3E0,6.5E1,1E0,6E0,3E0,4E0,4E0,1.7E1,7.2E1,8E0,9E0,1E0,8.6E1,3.1E1,4.4E1,2E0,1E0,3E0,3E0],"tree_param":{"num_deleted":"0","num_feature":"22","num_nodes":"37","size_leaf_vector":"1"}},{"base_weights":[9.090431E-3,-1.9289246E-1,2.9155326E-1,-3.9065447E-2,-1.7235714E-1,6.827601E-2,3.5222384E-1,-2.655745E-1,-1.3014555E-1,3.2882106E-2,-4.9094856E-2,3.0371247E-2,4.335238E-2,-2.7416006E-1,1.2907139E-2,-1.976623E-1,-6.980016E-2,-1.3189998E-1,4.1860707E-2,-2.874471E-2,-1.3059616E-2,-2.3122635E-2,1.1826704E-2,-9.49992E-3,2.400218E-2,-1.9547528E-2,3.359019E-2],"categories":[],"categories_nodes":[],"categories_segments":[],"categories_sizes":[],"default_left":[0,0,0,0,0,0,0,0,0,0,0,0,0,0,0,0,0,0,0,0,0,0,0,0,0,0,0],"id":1,"left_children":[1,3,5,-1,7,9,11,13,15,-1,17,-1,-1,19,-1,21,23,25,-1,-1,-1,-1,-1,-1,-1,-1,-1],"loss_changes":[2.1622143E1,8.301716E-1,2.1162767E0,0E0,7.602773E-1,1.0864575E0,3.5738564E-1,2.4545765E-1,5.60683E-1,0E0,1.0234172E0,0E0,0E0,7.882023E-2,0E0,7.2720146E-1,6.161502E-1,7.1995443E-1,0E0,0E0,0E0,0E0,0E0,0E0,0E0,0E0,0E0],"parents":[2147483647,0,0,1,1,2,2,4,4,5,5,6,6,7,7,8,8,10,10,13,13,15,15,16,16,17,17],"right_children":[2,4,6,-1,8,10,12,14,16,-1,18,-1,-1,20,-1,22,24,26,-1,-1,-1,-1,-1,-1,-1,-1,-1],"split_conditions":[1.1E-2,0E0,1.9E-3,-3.9065447E-2,-9.89E-2,-1E-3,7.8E-2,6E0,4.786325E0,3.2882106E-2,6E0,3.0371247E-2,4.335238E-2,1E0,1.2907139E-2,1E0,0E0,1E0,4.1860707E-2,-2.874471E-2,-1.3059616E-2,-2.3122635E-2,1.1826704E-2,-9.49992E-3,2.400218E-2,-1.9547528E-2,3.359019E-2],"split_indices":[11,21,12,0,11,12,11,21,18,0,21,0,0,0,0,6,11,5,0,0,0,0,0,0,0,0,0],"split_type":[0,0,0,0,0,0,0,0,0,0,0,0,0,0,0,0,0,0,0,0,0,0,0,0,0,0,0],"sum_hessian":[3.77E2,2.2E2,1.57E2,1.9E1,2.01E2,3.4E1,1.23E2,6.1E1,1.4E2,1E1,2.4E1,8E1,4.3E1,6E1,1E0,6.5E1,7.5E1,2.1E1,3E0,5.4E1,6E0,5.9E1,6E0,7E1,5E0,1.9E1,2E0],"tree_param":{"num_deleted":"0","num_feature":"22","num_nodes":"27","size_leaf_vector":"1"}},{"base_weights":[1.5512342E-3,-2.2063063E-1,3.2896695E-1,-3.5700333E-1,-8.826867E-2,2.4511082E-2,4.033516E-1,-4.9503278E-2,-2.7727902E-1,-1.4525058E-2,-7.893206E-2,3.8491886E-2,5.991721E-2,-3.3037603E-2,-2.5486037E-2,-8.01958E-2,2.3721159E-3,-6.663388E-3,-8.5056145E-3],"categories":[],"categories_nodes":[],"categories_segments":[],"categories_sizes":[],"default_left":[0,0,0,0,0,0,0,0,0,0,0,0,0,0,0,0,0,0,0],"id":2,"left_children":[1,3,5,7,9,-1,11,-1,13,-1,15,-1,-1,-1,-1,17,-1,-1,-1],"loss_changes":[2.7352268E1,4.011812E0,8.492508E-1,1.0732117E0,4.971707E-2,0E0,5.4519653E-2,0E0,1.5063286E-3,0E0,1.5004814E-2,0E0,0E0,0E0,0E0,9.239316E-4,0E0,0E0,0E0],"parents":[2147483647,0,0,1,1,2,2,3,3,4,4,6,6,8,8,10,10,15,15],"right_children":[2,4,6,8,10,-1,12,-1,14,-1,16,-1,-1,-1,-1,18,-1,-1,-1],"split_conditions":[1E-1,-4E-1,2E-1,-6E-1,-3E-1,2.4511082E-2,4E-1,-4.9503278E-2,-5E-1,-1.4525058E-2,-2E-1,3.8491886E-2,5.991721E-2,-3.3037603E-2,-2.5486037E-2,7.6E0,2.3721159E-3,-6.663388E-3,-8.5056145E-3],"split_indices":[9,9,9,9,9,0,9,0,9,0,9,0,0,0,0,18,0,0,0],"split_type":[0,0,0,0,0,0,0,0,0,0,0,0,0,0,0,0,0,0,0],"sum_hessian":[3.74E2,2.23E2,1.51E2,1.09E2,1.14E2,7.3E1,7.8E1,3.8E1,7.1E1,1.4E1,1E2,7.4E1,4E0,1.7E1,5.4E1,9.9E1,1E0,3E1,6.9E1],"tree_param":{"num_deleted":"0","num_feature":"22","num_nodes":"19","size_leaf_vector":"1"}},{"base_weights":[-9.983897E-3,-1.9695793E-1,3.0213818E-1,-3.1629786E-1,-7.8927465E-2,2.474797E-1,4.0417355E-2,-4.3806296E-2,-2.475582E-2,-1.2995042E-2,-7.06377E-2,2.209512E-2,2.9936174E-2,-7.171908E-2,2.25351E-3,-6.250559E-3,-8.746068E-3],"categories":[],"categories_nodes":[],"categories_segments":[],"categories_sizes":[],"default_left":[0,0,0,0,0,0,0,0,0,0,0,0,0,0,0,0,0],"id":3,"left_children":[1,3,5,7,9,11,-1,-1,-1,-1,13,-1,-1,15,-1,-1,-1],"loss_changes":[2.2585976E1,3.3837872E0,7.0865536E-1,8.9596367E-1,4.2845666E-2,6.736183E-2,0E0,0E0,0E0,0E0,1.2497783E-2,0E0,0E0,1.0051966E-2,0E0,0E0,0E0],"parents":[2147483647,0,0,1,1,2,2,3,3,4,4,5,5,10,10,13,13],"right_children":[2,4,6,8,10,12,-1,-1,-1,-1,14,-1,-1,16,-1,-1,-1],"split_conditions":[1E-1,-4E-1,3E-1,-6E-1,-3E-1,2E-1,4.0417355E-2,-4.3806296E-2,-2.475582E-2,-1.2995042E-2,-2E-1,2.209512E-2,2.9936174E-2,7.4E-3,2.25351E-3,-6.250559E-3,-8.746068E-3],"split_indices":[9,9,9,9,9,9,0,0,0,0,9,0,0,12,0,0,0],"split_type":[0,0,0,0,0,0,0,0,0,0,0,0,0,0,0,0,0],"sum_hessian":[3.85E2,2.41E2,1.44E2,1.19E2,1.22E2,9.6E1,4.8E1,4.1E1,7.8E1,1.5E1,1.07E2,6.7E1,2.9E1,1.06E2,1E0,7E1,3.6E1],"tree_param":{"num_deleted":"0","num_feature":"22","num_nodes":"17","size_leaf_vector":"1"}},{"base_weights":[-8.076137E-3,-1.7939284E-1,2.6341316E-1,-2.884366E-1,-6.977713E-2,2.183801E-1,3.7103266E-1,-3.9630752E-2,-2.2250547E-1,-1.1620741E-2,-6.371073E-2,1.963345E-1,2.6666973E-2,3.396922E-2,5.129067E-2,-2.7486531E-2,-2.056759E-2,-6.465116E-2,-3.6477942E-3,2.1408342E-3,1.9827776E-2,-4.3475647E-3,-6.61677E-3],"categories":[],"categories_nodes":[],"categories_segments":[],"categories_sizes":[],"default_left":[0,0,0,0,0,0,0,0,0,0,0,0,0,0,0,0,0,0,0,0,0,0,0],"id":4,"left_children":[1,3,5,7,9,11,13,-1,15,-1,17,19,-1,-1,-1,-1,-1,21,-1,-1,-1,-1,-1],"loss_changes":[1.8511982E1,2.8963842E0,6.6532516E-1,7.794895E-1,2.724111E-2,6.581116E-2,2.1411419E-2,0E0,1.2200117E-2,0E0,4.8446655E-4,2.2949457E-2,0E0,0E0,0E0,0E0,0E0,5.273521E-4,0E0,0E0,0E0,0E0,0E0],"parents":[2147483647,0,0,1,1,2,2,3,3,4,4,5,5,6,6,8,8,10,10,11,11,17,17],"right_children":[2,4,6,8,10,12,14,-1,16,-1,18,20,-1,-1,-1,-1,-1,22,-1,-1,-1,-1,-1],"split_conditions":[-2E-1,-4E-1,3E-1,-6E-1,-3E-1,2E-1,4E-1,-3.9630752E-2,-5E-1,-1.1620741E-2,0E0,1E-1,2.6666973E-2,3.396922E-2,5.129067E-2,-2.7486531E-2,-2.056759E-2,-1.06E-1,-3.6477942E-3,2.1408342E-3,1.9827776E-2,-4.3475647E-3,-6.61677E-3],"split_indices":[9,9,9,9,9,9,9,0,9,0,10,9,0,0,0,0,0,10,0,0,0,0,0],"split_type":[0,0,0,0,0,0,0,0,0,0,0,0,0,0,0,0,0,0,0,0,0,0,0],"sum_hessian":[3.96E2,2.43E2,1.53E2,1.21E2,1.22E2,1.1E2,4.3E1,4.4E1,7.7E1,1.2E1,1.1E2,7.9E1,3.1E1,3.8E1,5E0,1.5E1,6.2E1,1.05E2,5E0,1E0,7.8E1,9E0,9.6E1],"tree_param":{"num_deleted":"0","num_feature":"22","num_nodes":"23","size_leaf_vector":"1"}},{"base_weights":[-4.023461E-3,-1.5716708E-1,2.4223375E-1,-2.528874E-1,-6.2486697E-2,1.9972393E-1,3.2838266E-2,-3.4958385E-2,-2.014552E-1,-1.0088863E-2,-5.7515796E-2,1.795909E-2,2.4199018E-2,-2.4934877E-2,-1.8606665E-2,-4.9512584E-2,-7.2008646E-3,-5.0715096E-3,2.0337924E-3],"categories":[],"categories_nodes":[],"categories_segments":[],"categories_sizes":[],"default_left":[0,0,0,0,0,0,0,0,0,0,0,0,0,0,0,0,0,0,0],"id":5,"left_children":[1,3,5,7,9,11,-1,-1,13,-1,15,-1,-1,-1,-1,17,-1,-1,-1],"loss_changes":[1.5047733E1,2.213656E0,4.9472713E-1,5.363188E-1,1.8058836E-2,4.589033E-2,0E0,0E0,1.4039993E-2,0E0,9.541452E-3,0E0,0E0,0E0,0E0,7.4151605E-3,0E0,0E0,0E0],"parents":[2147483647,0,0,1,1,2,2,3,3,4,4,5,5,8,8,10,10,15,15],"right_children":[2,4,6,8,10,12,-1,-1,14,-1,16,-1,-1,-1,-1,18,-1,-1,-1],"split_conditions":[1E-1,-4E-1,3E-1,-6E-1,-3E-1,2E-1,3.2838266E-2,-3.4958385E-2,-5E-1,-1.0088863E-2,7.4E-3,1.795909E-2,2.4199018E-2,-2.4934877E-2,-1.8606665E-2,1E0,-7.2008646E-3,-5.0715096E-3,2.0337924E-3],"split_indices":[9,9,9,9,9,9,0,0,9,0,12,0,0,0,0,7,0,0,0],"split_type":[0,0,0,0,0,0,0,0,0,0,0,0,0,0,0,0,0,0,0],"sum_hessian":[3.97E2,2.45E2,1.52E2,1.21E2,1.24E2,1.04E2,4.8E1,4E1,8.1E1,1.2E1,1.12E2,7.4E1,3E1,1.6E1,6.5E1,7.5E1,3.7E1,7.4E1,1E0],"tree_param":{"num_deleted":"0","num_feature":"22","num_nodes":"19","size_leaf_vector":"1"}},{"base_weights":[-8.222039E-3,-1.4518707E-1,2.1915896E-1,-2.2832604E-1,-5.9430752E-2,1.6010102E-2,2.713576E-1,-3.210515E-1,-1.8030964E-1,-9.906453E-3,-5.3202774E-2,2.5278607E-2,4.4279926E-2,-3.674773E-2,-2.6154831E-2,-2.209588E-2,-1.686913E-2,-4.554512E-2,-6.72168E-2,-4.70695E-3,-3.1539449E-3,-1.7323226E-3,-6.817475E-3],"categories":[],"categories_nodes":[],"categories_segments":[],"categories_sizes":[],"default_left":[0,0,0,0,0,0,0,0,0,0,0,0,0,0,0,0,0,0,0,0,0,0,0],"id":6,"left_children":[1,3,5,7,9,-1,11,13,15,-1,17,-1,-1,-1,-1,-1,-1,19,21,-1,-1,-1,-1],"loss_changes":[1.1928539E1,1.6904263E0,4.0046978E-1,4.8084497E-1,2.4103224E-2,0E0,1.2686157E-1,1.4386654E-2,1.4529228E-3,0E0,8.206636E-3,0E0,0E0,0E0,0E0,0E0,0E0,3.130734E-5,4.918575E-4,0E0,0E0,0E0,0E0],"parents":[2147483647,0,0,1,1,2,2,3,3,4,4,6,6,7,7,8,8,10,10,17,17,18,18],"right_children":[2,4,6,8,10,-1,12,14,16,-1,18,-1,-1,-1,-1,-1,-1,20,22,-1,-1,-1,-1],"split_conditions":[-2E-1,-4E-1,2E-1,-6E-1,-3E-1,1.6010102E-2,4E-1,-7E-1,-5E-1,-9.906453E-3,7.4E-3,2.5278607E-2,4.4279926E-2,-3.674773E-2,-2.6154831E-2,-2.209588E-2,-1.686913E-2,0E0,-1.551E-1,-4.70695E-3,-3.1539449E-3,-1.7323226E-3,-6.817475E-3],"split_indices":[9,9,9,9,9,0,9,9,9,0,12,0,0,0,0,0,0,12,11,0,0,0,0],"split_type":[0,0,0,0,0,0,0,0,0,0,0,0,0,0,0,0,0,0,0,0,0,0,0],"sum_hessian":[3.81E2,2.38E2,1.43E2,1.2E2,1.18E2,6.9E1,7.4E1,3.9E1,8.1E1,1.4E1,1.04E2,6.9E1,5E0,1.9E1,2E1,1.4E1,6.7E1,7E1,3.4E1,6.1E1,9E0,1E0,3.3E1],"tree_param":{"num_deleted":"0","num_feature":"22","num_nodes":"23","size_leaf_vector":"1"}},{"base_weights":[2.6180402E-3,-1.280407E-1,2.0069666E-1,-2.0357017E-1,-5.2704666E-2,1.6294819E-1,2.790312E-1,-2.726752E-1,-1.49764E-2,-8.74804E-3,-4.7614433E-2,1.4554689E-2,1.96029E-2,2.5231613E-2,4.0327635E-2,-3.3692405E-2,-2.3253089E-2,-3.6773037E-2,-5.1034767E-2,-3.805463E-3,-4.4417382E-5,-2.792533E-3,-5.2572703E-3],"categories":[],"categories_nodes":[],"categories_segments":[],"categories_sizes":[],"default_left":[0,0,0,0,0,0,0,0,0,0,0,0,0,0,0,0,0,0,0,0,0,0,0],"id":7,"left_children":[1,3,5,7,9,11,13,15,-1,-1,17,-1,-1,-1,-1,-1,-1,19,21,-1,-1,-1,-1],"loss_changes":[1.0093292E1,1.3264422E0,4.128685E-1,3.9420128E-1,1.6899645E-2,3.3062935E-2,6.088853E-2,5.0616264E-2,0E0,0E0,2.0539016E-3,0E0,0E0,0E0,0E0,0E0,0E0,1.3333075E-3,1.3040751E-3,0E0,0E0,0E0,0E0],"parents":[2147483647,0,0,1,1,2,2,3,3,4,4,5,5,6,6,7,7,10,10,17,17,18,18],"right_children":[2,4,6,8,10,12,14,16,-1,-1,18,-1,-1,-1,-1,-1,-1,20,22,-1,-1,-1,-1],"split_conditions":[-2E-1,-4E-1,3E-1,-5E-1,-3E-1,2E-1,4E-1,-7E-1,-1.49764E-2,-8.74804E-3,4.786325E0,1.4554689E-2,1.96029E-2,2.5231613E-2,4.0327635E-2,-3.3692405E-2,-2.3253089E-2,1E0,-1.277E-1,-3.805463E-3,-4.4417382E-5,-2.792533E-3,-5.2572703E-3],"split_indices":[9,9,9,9,9,9,9,9,0,0,18,0,0,0,0,0,0,2,11,0,0,0,0],"split_type":[0,0,0,0,0,0,0,0,0,0,0,0,0,0,0,0,0,0,0,0,0,0,0],"sum_hessian":[3.88E2,2.34E2,1.54E2,1.16E2,1.18E2,1.06E2,4.8E1,4.9E1,6.7E1,1.3E1,1.05E2,7.3E1,3.3E1,4.2E1,6E0,1.6E1,3.3E1,2.8E1,7.7E1,2.7E1,1E0,6E0,7.1E1],"tree_param":{"num_deleted":"0","num_feature":"22","num_nodes":"23","size_leaf_vector":"1"}},{"base_weights":[-4.374162E-3,-1.16379075E-1,1.7250448E-1,-1.8704495E-1,-4.6496954E-2,1.30766155E-2,2.1588203E-1,-2.595606E-1,-1.4704259E-1,-7.3325946E-3,-4.317763E-2,1.7722854E-2,2.3599468E-2,-3.0036751E-2,-2.1456532E-2,-1.8355696E-2,-1.3561646E-2,-3.6542792E-2,-5.4489575E-2,-3.9153933E-3,-2.000665E-3,-5.5817626E-3,-1.9947083E-3],"categories":[],"categories_nodes":[],"categories_segments":[],"categories_sizes":[],"default_left":[0,0,0,0,0,0,0,0,0,0,0,0,0,0,0,0,0,0,0,0,0,0,0],"id":8,"left_children":[1,3,5,7,9,-1,11,13,15,-1,17,-1,-1,-1,-1,-1,-1,19,21,-1,-1,-1,-1],"loss_changes":[7.766285E0,1.1764908E0,2.4696684E-1,3.0702877E-1,7.698536E-3,0E0,1.492691E-2,1.083231E-2,8.066893E-3,0E0,6.339669E-3,0E0,0E0,0E0,0E0,0E0,0E0,2.3686737E-3,6.756857E-4,0E0,0E0,0E0,0E0],"parents":[2147483647,0,0,1,1,2,2,3,3,4,4,6,6,7,7,8,8,10,10,17,17,18,18],"right_children":[2,4,6,8,10,-1,12,14,16,-1,18,-1,-1,-1,-1,-1,-1,20,22,-1,-1,-1,-1],"split_conditions":[1E-1,-4E-1,2E-1,-6E-1,-3E-1,1.30766155E-2,3E-1,-7E-1,-5E-1,-7.3325946E-3,5.8E-3,1.7722854E-2,2.3599468E-2,-3.0036751E-2,-2.1456532E-2,-1.8355696E-2,-1.3561646E-2,-1E-4,2.939711E-1,-3.9153933E-3,-2.000665E-3,-5.5817626E-3,-1.9947083E-3],"split_indices":[9,9,9,9,9,0,9,9,9,0,12,0,0,0,0,0,0,12,13,0,0,0,0],"split_type":[0,0,0,0,0,0,0,0,0,0,0,0,0,0,0,0,0,0,0,0,0,0,0],"sum_hessian":[3.9E2,2.39E2,1.51E2,1.18E2,1.21E2,7.9E1,7.2E1,4E1,7.8E1,1.1E1,1.1E2,2.8E1,4.4E1,1.8E1,2.2E1,1.5E1,6.3E1,7.2E1,3.8E1,6.1E1,1.1E1,3.6E1,2E0],"tree_param":{"num_deleted":"0","num_feature":"22","num_nodes":"23","size_leaf_vector":"1"}},{"base_weights":[5.6906296E-3,-1.045783E-1,1.6289084E-1,-1.7393276E-1,-4.3329433E-2,1.2989452E-1,2.26478E-1,-2.3734616E-1,-1.33140385E-2,-7.0061237E-3,-3.9290283E-2,1.1593521E-2,1.5853006E-2,2.06749E-2,3.7847254E-2,-2.7869312E-2,-1.9644653E-2,-3.256674E-2,-5.069554E-2,-3.535576E-3,-1.7189224E-3,-5.8094887E-3,-3.3332785E-3],"categories":[],"categories_nodes":[],"categories_segments":[],"categories_sizes":[],"default_left":[0,0,0,0,0,0,0,0,0,0,0,0,0,0,0,0,0,0,0,0,0,0,0],"id":9,"left_children":[1,3,5,7,9,11,13,15,-1,-1,17,-1,-1,-1,-1,-1,-1,19,21,-1,-1,-1,-1],"loss_changes":[6.8120794E0,9.737246E-1,3.1048107E-1,2.4777222E-1,1.0636017E-2,2.5191665E-2,8.3681345E-2,1.4585495E-2,0E0,0E0,6.7842305E-3,0E0,0E0,0E0,0E0,0E0,0E0,2.4802089E-3,3.073983E-3,0E0,0E0,0E0,0E0],"parents":[2147483647,0,0,1,1,2,2,3,3,4,4,5,5,6,6,7,7,10,10,17,17,18,18],"right_children":[2,4,6,8,10,12,14,16,-1,-1,18,-1,-1,-1,-1,-1,-1,20,22,-1,-1,-1,-1],"split_conditions":[1E-1,-4E-1,3E-1,-6E-1,-3E-1,2E-1,5E-1,-7E-1,-1.33140385E-2,-7.0061237E-3,5.8E-3,1.1593521E-2,1.5853006E-2,2.06749E-2,3.7847254E-2,-2.7869312E-2,-1.9644653E-2,0E0,1E0,-3.535576E-3,-1.7189224E-3,-5.8094887E-3,-3.3332785E-3],"split_indices":[9,9,9,9,9,9,9,9,0,0,12,0,0,0,0,0,0,12,4,0,0,0,0],"split_type":[0,0,0,0,0,0,0,0,0,0,0,0,0,0,0,0,0,0,0,0,0,0,0],"sum_hessian":[3.91E2,2.3E2,1.61E2,1.07E2,1.23E2,1.08E2,5.3E1,4E1,6.7E1,1.4E1,1.09E2,7.6E1,3.2E1,4.9E1,4E0,1.7E1,2.3E1,7.1E1,3.8E1,5.9E1,1.2E1,2.5E1,1.3E1],"tree_param":{"num_deleted":"0","num_feature":"22","num_nodes":"23","size_leaf_vector":"1"}},{"base_weights":[-3.7051283E-3,-9.6895516E-2,1.4387007E-1,-2.0286949E-1,-6.4762466E-2,1.1679753E-1,2.0417026E-1,-2.4876328E-2,-1.7337618E-2,-1.1106057E-2,-3.885091E-2,1.0619119E-2,1.4154141E-2,1.8267509E-2,3.4819476E-2,-6.328383E-2,-3.5165958E-2,-2.7098558E-3,-6.676629E-3,-2.8416694E-3,-4.541675E-3],"categories":[],"categories_nodes":[],"categories_segments":[],"categories_sizes":[],"default_left":[0,0,0,0,0,0,0,0,0,0,0,0,0,0,0,0,0,0,0,0,0],"id":10,"left_children":[1,3,5,7,9,11,13,-1,-1,-1,15,-1,-1,-1,-1,17,19,-1,-1,-1,-1],"loss_changes":[5.5424814E0,8.2796264E-1,2.3082018E-1,3.4023523E-2,2.2481948E-1,1.3838172E-2,8.189762E-2,0E0,0E0,0E0,8.938789E-3,0E0,0E0,0E0,0E0,8.093566E-5,6.319791E-3,0E0,0E0,0E0,0E0],"parents":[2147483647,0,0,1,1,2,2,3,3,4,4,5,5,6,6,10,10,15,15,16,16],"right_children":[2,4,6,8,10,12,14,-1,-1,-1,16,-1,-1,-1,-1,18,20,-1,-1,-1,-1],"split_conditions":[1E-1,-5E-1,3E-1,-7E-1,-4E-1,2E-1,5E-1,-2.4876328E-2,-1.7337618E-2,-1.1106057E-2,-3E-1,1.0619119E-2,1.4154141E-2,1.8267509E-2,3.4819476E-2,-2E0,1.9E-3,-2.7098558E-3,-6.676629E-3,-2.8416694E-3,-4.541675E-3],"split_indices":[9,9,9,9,9,9,9,0,0,0,9,0,0,0,0,21,12,0,0,0,0],"split_type":[0,0,0,0,0,0,0,0,0,0,0,0,0,0,0,0,0,0,0,0,0],"sum_hessian":[4.01E2,2.46E2,1.55E2,5.6E1,1.9E2,1.09E2,4.6E1,1.9E1,3.7E1,6.7E1,1.23E2,8E1,2.9E1,4.2E1,4E0,1.4E1,1.09E2,2E0,1.2E1,6.8E1,4.1E1],"tree_param":{"num_deleted":"0","num_feature":"22","num_nodes":"21","size_leaf_vector":"1"}},{"base_weights":[-2.0756556E-3,-7.6936916E-2,9.6977286E-2,-8.226366E-2,-1.1396229E-3,1.3186539E-2,1.2187302E-1,-9.321732E-2,-4.8648775E-2,-6.4409964E-2,1.8895632E-1,-8.310425E-3,1.9798834E-2,-1.3289193E-2,1.2713878E-1,-1.17571875E-1,-7.074188E-2,-5.742564E-2,6.883578E-2,-2.2991137E-3,-7.5661675E-3,-8.968038E-3,3.1172866E-2,-4.3050267E-2,8.284421E-3,1.13140374E-1,1.5022561E-1,-1.2065246E-2,4.7494257E-3,-9.234545E-3,-4.032741E-3,-4.3970738E-3,-1.1084458E-2,1.3460392E-2,-6.423432E-3,-6.089539E-3,1.1406079E-2,1.5113927E-2,1.0489215E-2,1.5219705E-2,3.3712597E-3],"categories":[],"categories_nodes":[],"categories_segments":[],"categories_sizes":[],"default_left":[0,0,0,0,0,0,0,0,0,0,0,0,0,0,0,0,0,0,0,0,0,0,0,0,0,0,0,0,0,0,0,0,0,0,0,0,0,0,0,0,0],"id":11,"left_children":[1,3,5,7,9,11,13,15,17,19,21,23,-1,-1,25,27,29,31,33,-1,-1,-1,-1,35,-1,37,39,-1,-1,-1,-1,-1,-1,-1,-1,-1,-1,-1,-1,-1,-1],"loss_changes":[2.7733412E0,8.590567E-2,3.3424425E-1,6.87381E-2,1.925822E-1,1.5260711E-1,1.832453E-1,7.324231E-2,5.6541376E-2,3.8528442E-3,1.6479148E-1,1.1440088E-1,0E0,0E0,2.2431254E-2,4.132527E-2,4.884085E-2,2.9625922E-2,4.3653272E-2,0E0,0E0,0E0,0E0,7.984109E-2,0E0,9.2206E-3,4.74602E-3,0E0,0E0,0E0,0E0,0E0,0E0,0E0,0E0,0E0,0E0,0E0,0E0,0E0,0E0],"parents":[2147483647,0,0,1,1,2,2,3,3,4,4,5,5,6,6,7,7,8,8,9,9,10,10,11,11,14,14,15,15,16,16,17,17,18,18,23,23,25,25,26,26],"right_children":[2,4,6,8,10,12,14,16,18,20,22,24,-1,-1,26,28,30,32,34,-1,-1,-1,-1,36,-1,38,40,-1,-1,-1,-1,-1,-1,-1,-1,-1,-1,-1,-1,-1,-1],"split_conditions":[2.5E-3,1E0,1E0,7.046922E0,-5E-3,1.503E-1,0E0,8.021978E0,-1E-3,-1.108E-1,1.1E1,1.9E-3,1.9798834E-2,-1.3289193E-2,7.8E-2,6E0,-9.89E-2,1.0573187E1,7.475004E-1,-2.2991137E-3,-7.5661675E-3,-8.968038E-3,3.1172866E-2,6E0,8.284421E-3,1.9E-3,1.875E0,-1.2065246E-2,4.7494257E-3,-9.234545E-3,-4.032741E-3,-4.3970738E-3,-1.1084458E-2,1.3460392E-2,-6.423432E-3,-6.089539E-3,1.1406079E-2,1.5113927E-2,1.0489215E-2,1.5219705E-2,3.3712597E-3],"split_indices":[10,6,17,16,10,10,21,18,10,12,8,12,0,0,10,21,10,16,14,0,0,0,0,21,0,12,20,0,0,0,0,0,0,0,0,0,0,0,0,0,0],"split_type":[0,0,0,0,0,0,0,0,0,0,0,0,0,0,0,0,0,0,0,0,0,0,0,0,0,0,0,0,0,0,0,0,0,0,0,0,0,0,0,0,0],"sum_hessian":[3.72E2,2.12E2,1.6E2,1.98E2,1.4E1,3.7E1,1.23E2,1.48E2,5E1,1.1E1,3E0,3.4E1,3E0,2E0,1.21E2,6.9E1,7.9E1,4.7E1,3E0,3E0,8E0,1E0,2E0,2.5E1,9E0,7.9E1,4.2E1,6.8E1,1E0,4.5E1,3.4E1,3.9E1,8E0,2E0,1E0,2.3E1,2E0,1.1E1,6.8E1,4.1E1,1E0],"tree_param":{"num_deleted":"0","num_feature":"22","num_nodes":"41","size_leaf_vector":"1"}},{"base_weights":[-2.4699767E-3,-7.757712E-2,1.167165E-1,-1.7296313E-1,-5.1288486E-2,9.536711E-2,1.6441245E-1,-2.1268297E-2,-1.4485284E-2,-9.04761E-2,-2.9347023E-2,8.474058E-2,1.1834291E-2,2.213764E-2,1.4402213E-2,-8.193142E-3,-1.1078806E-2,-4.6153497E-2,-2.6559634E-2,1.0364027E-3,8.559408E-2,-1.7248491E-3,-4.905075E-3,-2.0421795E-3,-3.632997E-3,1.123306E-2,8.024622E-3],"categories":[],"categories_nodes":[],"categories_segments":[],"categories_sizes":[],"default_left":[0,0,0,0,0,0,0,0,0,0,0,0,0,0,0,0,0,0,0,0,0,0,0,0,0,0,0],"id":12,"left_children":[1,3,5,7,9,11,13,-1,-1,15,17,19,-1,-1,-1,-1,-1,21,23,-1,25,-1,-1,-1,-1,-1,-1],"loss_changes":[3.4733841E0,5.879301E-1,1.3706231E-1,2.6135564E-2,1.5899348E-1,1.5851796E-2,2.0385027E-2,0E0,0E0,2.551496E-3,4.4894144E-3,3.937423E-3,0E0,0E0,0E0,0E0,0E0,4.938692E-4,5.6747347E-3,0E0,1.70964E-3,0E0,0E0,0E0,0E0,0E0,0E0],"parents":[2147483647,0,0,1,1,2,2,3,3,4,4,5,5,6,6,9,9,10,10,11,11,17,17,18,18,20,20],"right_children":[2,4,6,8,10,12,14,-1,-1,16,18,20,-1,-1,-1,-1,-1,22,24,-1,26,-1,-1,-1,-1,-1,-1],"split_conditions":[-2E-1,-5E-1,3E-1,-7E-1,-4E-1,2E-1,1.9E-3,-2.1268297E-2,-1.4485284E-2,9.1E-3,-3E-1,1E-1,1.1834291E-2,2.213764E-2,1.4402213E-2,-8.193142E-3,-1.1078806E-2,-2E0,7.4E-3,1.0364027E-3,1.9E-3,-1.7248491E-3,-4.905075E-3,-2.0421795E-3,-3.632997E-3,1.123306E-2,8.024622E-3],"split_indices":[9,9,9,9,9,9,12,0,0,12,9,9,0,0,0,0,0,21,12,0,12,0,0,0,0,0,0],"split_type":[0,0,0,0,0,0,0,0,0,0,0,0,0,0,0,0,0,0,0,0,0,0,0,0,0,0,0],"sum_hessian":[3.86E2,2.37E2,1.49E2,5E1,1.87E2,1.05E2,4.4E1,1.8E1,3.2E1,6.6E1,1.21E2,7.5E1,3E1,9E0,3.5E1,5E1,1.6E1,1.5E1,1.06E2,1E0,7.4E1,2E0,1.3E1,6.7E1,3.9E1,9E0,6.5E1],"tree_param":{"num_deleted":"0","num_feature":"22","num_nodes":"27","size_leaf_vector":"1"}},{"base_weights":[1.7639906E-3,-5.997418E-2,8.129314E-2,-1.172699E-2,-5.4965433E-2,8.757746E-3,9.894486E-2,-8.253189E-2,-4.180061E-2,-4.8323527E-2,4.3676738E-2,-1.1551109E-2,1.03165194E-1,-8.854764E-2,-2.2615662E-2,-4.326359E-2,7.638806E-3,-6.1536252E-2,5.511461E-3,2.9319882E-2,1.20044565E-2,9.014503E-2,1.2469842E-2,-8.993538E-3,-6.1109517E-4,-9.38341E-5,-2.607216E-3,-4.109156E-3,-1.2368796E-2,-8.340753E-3,3.1880045E-3,5.1004565E-3,-4.1598147E-3,1.047513E-2,7.9625305E-3],"categories":[],"categories_nodes":[],"categories_segments":[],"categories_sizes":[],"default_left":[0,0,0,0,0,0,0,0,0,0,0,0,0,0,0,0,0,0,0,0,0,0,0,0,0,0,0,0,0,0,0,0,0,0,0],"id":13,"left_children":[1,3,5,-1,7,9,11,13,15,17,19,-1,21,23,25,27,-1,29,-1,31,-1,33,-1,-1,-1,-1,-1,-1,-1,-1,-1,-1,-1,-1,-1],"loss_changes":[1.8313897E0,5.3819954E-2,2.0783448E-1,0E0,6.731707E-2,6.788689E-2,1.304816E-1,2.0344764E-2,2.6474506E-2,2.1158645E-2,1.9504748E-2,0E0,2.4926305E-2,5.856842E-3,5.0002895E-4,1.8150523E-2,0E0,2.7176626E-2,0E0,3.1340558E-2,0E0,4.5660734E-3,0E0,0E0,0E0,0E0,0E0,0E0,0E0,0E0,0E0,0E0,0E0,0E0,0E0],"parents":[2147483647,0,0,1,1,2,2,4,4,5,5,6,6,7,7,8,8,9,9,10,10,12,12,13,13,14,14,15,15,17,17,19,19,21,21],"right_children":[2,4,6,-1,8,10,12,14,16,18,20,-1,22,24,26,28,-1,30,-1,32,-1,34,-1,-1,-1,-1,-1,-1,-1,-1,-1,-1,-1,-1,-1],"split_conditions":[2.5E-3,-3E0,1E0,-1.172699E-2,-9.89E-2,3.33E-2,0E0,2E1,6E0,1E0,6E0,-1.1551109E-2,7.8E-2,1E0,-2.5E-1,8.129607E-1,7.638806E-3,8.193511E-2,5.511461E-3,8.26E-2,1.20044565E-2,4.1E-2,1.2469842E-2,-8.993538E-3,-6.1109517E-4,-9.38341E-5,-2.607216E-3,-4.109156E-3,-1.2368796E-2,-8.340753E-3,3.1880045E-3,5.1004565E-3,-4.1598147E-3,1.047513E-2,7.9625305E-3],"split_indices":[10,21,17,0,10,10,21,18,21,0,21,0,10,4,10,14,0,14,0,10,0,10,0,0,0,0,0,0,0,0,0,0,0,0,0],"split_type":[0,0,0,0,0,0,0,0,0,0,0,0,0,0,0,0,0,0,0,0,0,0,0,0,0,0,0,0,0,0,0,0,0,0,0],"sum_hessian":[3.71E2,2.09E2,1.62E2,1.5E1,1.94E2,3.2E1,1.3E2,6.1E1,1.33E2,1.2E1,2E1,2E0,1.28E2,5.5E1,6E0,1.32E2,1E0,1.1E1,1E0,1.8E1,2E0,8.3E1,4.5E1,5.4E1,1E0,1E0,5E0,1.3E2,2E0,9E0,2E0,1.4E1,4E0,3.1E1,5.2E1],"tree_param":{"num_deleted":"0","num_feature":"22","num_nodes":"35","size_leaf_vector":"1"}},{"base_weights":[4.7715143E-3,-6.2087465E-2,1.0279954E-1,-1.5149969E-1,-3.8873617E-2,9.662507E-2,3.040116E-2,-1.9272387E-2,-1.2446347E-2,-6.684096E-2,-1.9325787E-2,7.142358E-2,1.1741339E-2,-4.989389E-2,-7.533509E-3,-8.552183E-3,-2.332424E-2,8.86848E-3,6.4986493E-3,-5.1621143E-3,-2.4926662E-4,-9.672392E-4,1.1966929E-3,-1.8400921E-3,-2.8565817E-3],"categories":[],"categories_nodes":[],"categories_segments":[],"categories_sizes":[],"default_left":[0,0,0,0,0,0,0,0,0,0,0,0,0,0,0,0,0,0,0,0,0,0,0,0,0],"id":14,"left_children":[1,3,5,7,9,11,-1,-1,-1,13,15,17,-1,19,-1,21,23,-1,-1,-1,-1,-1,-1,-1,-1],"loss_changes":[2.4248285E0,4.5074308E-1,1.569817E-1,2.6167393E-2,9.492761E-2,6.862676E-2,0E0,0E0,0E0,6.6056848E-3,4.3236874E-3,1.9034147E-3,0E0,2.0819232E-3,0E0,8.0531905E-4,1.4356188E-3,0E0,0E0,0E0,0E0,0E0,0E0,0E0,0E0],"parents":[2147483647,0,0,1,1,2,2,3,3,4,4,5,5,9,9,10,10,11,11,13,13,15,15,16,16],"right_children":[2,4,6,8,10,12,-1,-1,-1,14,16,18,-1,20,-1,22,24,-1,-1,-1,-1,-1,-1,-1,-1],"split_conditions":[1E-1,-5E-1,5E-1,-7E-1,-3E-1,2E-1,3.040116E-2,-1.9272387E-2,-1.2446347E-2,1E0,1E0,1.8E-2,1.1741339E-2,1E0,-7.533509E-3,1E0,4.5E1,8.86848E-3,6.4986493E-3,-5.1621143E-3,-2.4926662E-4,-9.672392E-4,1.1966929E-3,-1.8400921E-3,-2.8565817E-3],"split_indices":[9,9,9,9,9,9,0,0,0,17,17,11,0,2,0,2,8,0,0,0,0,0,0,0,0],"split_type":[0,0,0,0,0,0,0,0,0,0,0,0,0,0,0,0,0,0,0,0,0,0,0,0,0],"sum_hessian":[3.68E2,2.19E2,1.49E2,4.4E1,1.75E2,1.46E2,3E0,1.5E1,2.9E1,7.1E1,1.04E2,6.8E1,7.8E1,2.6E1,4.5E1,2.9E1,7.5E1,1.5E1,5.3E1,2.5E1,1E0,2.8E1,1E0,4.1E1,3.4E1],"tree_param":{"num_deleted":"0","num_feature":"22","num_nodes":"25","size_leaf_vector":"1"}},{"base_weights":[-6.708527E-4,-5.9943236E-2,8.921061E-2,-1.3731796E-1,-3.569856E-2,8.198828E-2,2.52493E-2,-1.7224096E-2,-1.15673235E-2,-6.735295E-2,-1.9032316E-2,6.075682E-2,1.0296914E-1,-5.9993047E-2,-8.592378E-2,-3.819922E-2,-1.6295468E-2,6.77182E-2,4.906873E-2,8.590955E-3,1.1111478E-2,-2.4432621E-3,-6.1030565E-3,-1.8573031E-3,-8.940792E-3,-8.713916E-4,-3.9797015E-3,-1.1818972E-3,-2.4203113E-3,7.779211E-4,6.890365E-3,4.983829E-3,1.2606189E-3],"categories":[],"categories_nodes":[],"categories_segments":[],"categories_sizes":[],"default_left":[0,0,0,0,0,0,0,0,0,0,0,0,0,0,0,0,0,0,0,0,0,0,0,0,0,0,0,0,0,0,0,0,0],"id":15,"left_children":[1,3,5,7,9,11,-1,-1,-1,13,15,17,19,21,23,25,27,29,31,-1,-1,-1,-1,-1,-1,-1,-1,-1,-1,-1,-1,-1,-1],"loss_changes":[2.051103E0,4.3031257E-1,1.5972829E-1,2.1650672E-2,9.262374E-2,5.9671164E-2,0E0,0E0,0E0,3.1826496E-3,5.567439E-3,2.8609037E-3,5.9843063E-4,2.4288893E-4,1.8592998E-3,3.1277537E-4,3.4307912E-3,2.6614368E-3,2.6965886E-4,0E0,0E0,0E0,0E0,0E0,0E0,0E0,0E0,0E0,0E0,0E0,0E0,0E0,0E0],"parents":[2147483647,0,0,1,1,2,2,3,3,4,4,5,5,9,9,10,10,11,11,12,12,13,13,14,14,15,15,16,16,17,17,18,18],"right_children":[2,4,6,8,10,12,-1,-1,-1,14,16,18,20,22,24,26,28,30,32,-1,-1,-1,-1,-1,-1,-1,-1,-1,-1,-1,-1,-1,-1],"split_conditions":[-2E-1,-5E-1,4E-1,-7E-1,-4E-1,2E-1,2.52493E-2,-1.7224096E-2,-1.15673235E-2,9.1E-3,-3E-1,8.79E-2,3E-1,-7E0,1E0,-7E0,7.4E-3,1E-1,2.412E-1,8.590955E-3,1.1111478E-2,-2.4432621E-3,-6.1030565E-3,-1.8573031E-3,-8.940792E-3,-8.713916E-4,-3.9797015E-3,-1.1818972E-3,-2.4203113E-3,7.779211E-4,6.890365E-3,4.983829E-3,1.2606189E-3],"split_indices":[9,9,9,9,9,9,0,0,0,12,9,12,9,21,2,21,12,9,12,0,0,0,0,0,0,0,0,0,0,0,0,0,0],"split_type":[0,0,0,0,0,0,0,0,0,0,0,0,0,0,0,0,0,0,0,0,0,0,0,0,0,0,0,0,0,0,0,0,0],"sum_hessian":[3.83E2,2.31E2,1.52E2,5.4E1,1.77E2,1.47E2,5E0,1.8E1,3.6E1,6E1,1.17E2,7.5E1,7.2E1,4.6E1,1.4E1,1.3E1,1.04E2,4.4E1,3.1E1,2.7E1,4.5E1,2E0,4.4E1,1E0,1.3E1,1E0,1.2E1,6.8E1,3.6E1,1E0,4.3E1,3E1,1E0],"tree_param":{"num_deleted":"0","num_feature":"22","num_nodes":"33","size_leaf_vector":"1"}},{"base_weights":[-3.5216345E-3,-5.490777E-2,8.127244E-2,-1.2281589E-1,-3.1815585E-2,7.4338086E-2,2.494716E-2,-1.5642028E-2,-1.0042379E-2,-5.423012E-2,-1.5965754E-2,5.6096558E-2,9.494946E-2,-5.783344E-2,-3.568588E-2,-7.4591567E-3,-1.912638E-2,8.125815E-3,5.081284E-2,1.3571234E-2,8.623596E-3,-2.5654256E-3,-5.9146094E-3,-3.9438982E-3,-1.6443379E-3,-1.5051317E-3,6.3028136E-5,-1.343195E-3,-2.4017775E-3,5.1246085E-3,1.197588E-3],"categories":[],"categories_nodes":[],"categories_segments":[],"categories_sizes":[],"default_left":[0,0,0,0,0,0,0,0,0,0,0,0,0,0,0,0,0,0,0,0,0,0,0,0,0,0,0,0,0,0,0],"id":16,"left_children":[1,3,5,7,9,11,-1,-1,-1,13,15,17,19,21,23,25,27,-1,29,-1,-1,-1,-1,-1,-1,-1,-1,-1,-1,-1,-1],"loss_changes":[1.581783E0,3.5049373E-1,1.4124495E-1,2.7182639E-2,5.9529483E-2,4.4679344E-2,0E0,0E0,0E0,2.613619E-3,2.5728364E-3,5.5761635E-3,9.963155E-3,8.903444E-4,3.6255643E-4,1.7905597E-3,1.7107148E-3,0E0,4.4630468E-4,0E0,0E0,0E0,0E0,0E0,0E0,0E0,0E0,0E0,0E0,0E0,0E0],"parents":[2147483647,0,0,1,1,2,2,3,3,4,4,5,5,9,9,10,10,11,11,12,12,13,13,14,14,15,15,16,16,18,18],"right_children":[2,4,6,8,10,12,-1,-1,-1,14,16,18,20,22,24,26,28,-1,30,-1,-1,-1,-1,-1,-1,-1,-1,-1,-1,-1,-1],"split_conditions":[-2E-1,-5E-1,4E-1,-7E-1,-3E-1,2E-1,2.494716E-2,-1.5642028E-2,-1.0042379E-2,-4E-1,1E0,1.9E-3,1.9E-3,-7E0,3.1E1,-2.55E-2,-8.7E-3,8.125815E-3,2.412E-1,1.3571234E-2,8.623596E-3,-2.5654256E-3,-5.9146094E-3,-3.9438982E-3,-1.6443379E-3,-1.5051317E-3,6.3028136E-5,-1.343195E-3,-2.4017775E-3,5.1246085E-3,1.197588E-3],"split_indices":[9,9,9,9,9,9,0,0,0,9,17,12,12,21,8,12,12,0,12,0,0,0,0,0,0,0,0,0,0,0,0],"split_type":[0,0,0,0,0,0,0,0,0,0,0,0,0,0,0,0,0,0,0,0,0,0,0,0,0,0,0,0,0,0,0],"sum_hessian":[3.61E2,2.25E2,1.36E2,5.6E1,1.69E2,1.32E2,4E0,2E1,3.6E1,6.9E1,1E2,7.2E1,6E1,5.6E1,1.3E1,2.8E1,7.2E1,1E1,6.2E1,8E0,5.2E1,3E0,5.3E1,1E1,3E0,1.4E1,1.4E1,3.5E1,3.7E1,6.1E1,1E0],"tree_param":{"num_deleted":"0","num_feature":"22","num_nodes":"31","size_leaf_vector":"1"}},{"base_weights":[2.866234E-3,-3.6488574E-2,5.4747473E-2,-4.936331E-2,-2.5722863E-2,-8.29218E-3,5.7906263E-2,-5.144136E-2,-1.670134E-3,-3.0615767E-2,3.639373E-2,1.9792581E-2,6.78898E-2,-5.6288145E-2,-2.5204048E-2,-3.5597087E-4,2.944082E-4,-4.972884E-2,-2.0903787E-2,1.1091736E-1,-8.449015E-3,3.2679704E-3,1.1498173E-2,6.0098898E-2,8.166969E-2,-5.918301E-3,-2.428388E-3,-4.15875E-3,-1.3976342E-3,-5.298152E-3,3.2057452E-3,-1.904789E-3,-7.819218E-3,-5.426073E-3,1.5480513E-2,-4.353238E-3,1.4369335E-3,6.0661267E-3,2.488192E-3,8.300426E-3,1.3476193E-3],"categories":[],"categories_nodes":[],"categories_segments":[],"categories_sizes":[],"default_left":[0,0,0,0,0,0,0,0,0,0,0,0,0,0,0,0,0,0,0,0,0,0,0,0,0,0,0,0,0,0,0,0,0,0,0,0,0,0,0,0,0],"id":17,"left_children":[1,3,5,7,9,-1,11,13,15,17,19,21,23,25,27,-1,-1,29,31,33,-1,35,-1,37,39,-1,-1,-1,-1,-1,-1,-1,-1,-1,-1,-1,-1,-1,-1,-1,-1],"loss_changes":[7.5745493E-1,2.7976006E-2,7.438055E-2,9.329438E-3,3.667409E-2,0E0,5.839628E-2,1.0153487E-2,5.4074604E-5,1.9193694E-2,9.044977E-2,5.3105004E-2,8.404076E-3,5.6040436E-3,2.3619374E-3,0E0,0E0,1.1275336E-2,6.37839E-3,5.1895626E-2,0E0,1.6211962E-2,0E0,1.3446808E-4,2.703786E-3,0E0,0E0,0E0,0E0,0E0,0E0,0E0,0E0,0E0,0E0,0E0,0E0,0E0,0E0,0E0,0E0],"parents":[2147483647,0,0,1,1,2,2,3,3,4,4,6,6,7,7,8,8,9,9,10,10,11,11,12,12,13,13,14,14,17,17,18,18,19,19,21,21,23,23,24,24],"right_children":[2,4,6,8,10,-1,12,14,16,18,20,22,24,26,28,-1,-1,30,32,34,-1,36,-1,38,40,-1,-1,-1,-1,-1,-1,-1,-1,-1,-1,-1,-1,-1,-1,-1,-1],"split_conditions":[2.5E-3,3.1E1,0E0,1E0,-2E-3,-8.29218E-3,1E0,1.45E2,3E1,-9.89E-2,5E1,1.281E-1,7.8E-2,1E0,-1.842E-1,-3.5597087E-4,2.944082E-4,6E0,8.129607E-1,4E1,-8.449015E-3,2E1,1.1498173E-2,1.0632846E1,1.75E0,-5.918301E-3,-2.428388E-3,-4.15875E-3,-1.3976342E-3,-5.298152E-3,3.2057452E-3,-1.904789E-3,-7.819218E-3,-5.426073E-3,1.5480513E-2,-4.353238E-3,1.4369335E-3,6.0661267E-3,2.488192E-3,8.300426E-3,1.3476193E-3],"split_indices":[10,8,21,4,10,0,17,17,8,10,8,10,10,5,10,0,0,21,14,8,0,8,0,16,20,0,0,0,0,0,0,0,0,0,0,0,0,0,0,0,0],"split_type":[0,0,0,0,0,0,0,0,0,0,0,0,0,0,0,0,0,0,0,0,0,0,0,0,0,0,0,0,0,0,0,0,0,0,0,0,0,0,0,0,0],"sum_hessian":[3.69E2,2.1E2,1.59E2,9.4E1,1.16E2,3E0,1.56E2,9E1,4E0,1.08E2,8E0,3.3E1,1.23E2,7.5E1,1.5E1,3E0,1E0,3.5E1,7.3E1,5E0,3E0,2.9E1,4E0,8.2E1,4.1E1,6.8E1,7E0,5E0,1E1,3.4E1,1E0,7.2E1,1E0,1E0,4E0,5E0,2.4E1,8E1,2E0,4E1,1E0],"tree_param":{"num_deleted":"0","num_feature":"22","num_nodes":"41","size_leaf_vector":"1"}},{"base_weights":[-6.140748E-4,-4.5661457E-2,7.0221044E-2,-1.0558165E-1,-2.6315125E-2,6.505056E-2,2.0922333E-1,-1.7439833E-2,-9.579898E-2,-4.9911607E-2,-1.2779375E-2,4.674532E-2,8.1322335E-2,5.245401E-3,2.3530215E-2,-9.8008424E-2,-4.4231163E-3,-4.3584432E-2,-6.5584965E-2,-9.675085E-3,-2.0722799E-2,5.8850974E-2,3.8623624E-2,1.1877482E-1,7.2580725E-2,-9.888172E-3,-2.7608394E-3,-1.7147979E-3,-4.43287E-3,-7.037709E-3,-1.9762674E-3,-2.4329277E-3,-6.969955E-4,-2.5822648E-3,-2.1954179E-4,7.4798116E-3,4.952957E-3,4.3588113E-3,3.1226538E-3,1.2366082E-2,3.0071363E-3,6.103024E-3,7.9181595E-3],"categories":[],"categories_nodes":[],"categories_segments":[],"categories_sizes":[],"default_left":[0,0,0,0,0,0,0,0,0,0,0,0,0,0,0,0,0,0,0,0,0,0,0,0,0,0,0,0,0,0,0,0,0,0,0,0,0,0,0,0,0,0,0],"id":18,"left_children":[1,3,5,7,9,11,13,-1,15,17,19,21,23,-1,-1,25,-1,27,29,31,33,35,37,39,41,-1,-1,-1,-1,-1,-1,-1,-1,-1,-1,-1,-1,-1,-1,-1,-1,-1,-1],"loss_changes":[1.2476717E0,2.74279E-1,9.5633864E-2,2.2339046E-2,5.7492226E-2,4.0281653E-2,8.099258E-3,0E0,1.7035902E-3,3.6866218E-3,2.6845708E-3,4.8058927E-3,1.6588628E-2,0E0,0E0,3.440678E-4,0E0,2.2363663E-4,2.3421273E-3,3.2395935E-3,2.9668882E-3,3.0882657E-4,3.2814592E-4,1.9156337E-3,1.2335181E-4,0E0,0E0,0E0,0E0,0E0,0E0,0E0,0E0,0E0,0E0,0E0,0E0,0E0,0E0,0E0,0E0,0E0,0E0],"parents":[2147483647,0,0,1,1,2,2,3,3,4,4,5,5,6,6,8,8,9,9,10,10,11,11,12,12,15,15,17,17,18,18,19,19,20,20,21,21,22,22,23,23,24,24],"right_children":[2,4,6,8,10,12,14,-1,16,18,20,22,24,-1,-1,26,-1,28,30,32,34,36,38,40,42,-1,-1,-1,-1,-1,-1,-1,-1,-1,-1,-1,-1,-1,-1,-1,-1,-1,-1],"split_conditions":[1E-1,-5E-1,5E-1,-8E-1,-4E-1,2E-1,1.1E1,-1.7439833E-2,1E0,9.1E-3,1.05E-2,4.2E-2,1.82E-2,5.245401E-3,2.3530215E-2,4.669058E-1,-4.4231163E-3,-1E1,6.5E1,-3E-1,1E0,1.9E-3,9.18E-2,1.75E1,3E-1,-9.888172E-3,-2.7608394E-3,-1.7147979E-3,-4.43287E-3,-7.037709E-3,-1.9762674E-3,-2.4329277E-3,-6.969955E-4,-2.5822648E-3,-2.1954179E-4,7.4798116E-3,4.952957E-3,4.3588113E-3,3.1226538E-3,1.2366082E-2,3.0071363E-3,6.103024E-3,7.9181595E-3],"split_indices":[9,9,9,9,9,9,8,0,4,12,12,10,12,0,0,14,0,21,19,9,4,12,12,18,9,0,0,0,0,0,0,0,0,0,0,0,0,0,0,0,0,0,0],"split_type":[0,0,0,0,0,0,0,0,0,0,0,0,0,0,0,0,0,0,0,0,0,0,0,0,0,0,0,0,0,0,0,0,0,0,0,0,0,0,0,0,0,0,0],"sum_hessian":[3.89E2,2.38E2,1.51E2,5.7E1,1.81E2,1.47E2,4E0,5E0,5.2E1,6.5E1,1.16E2,7.1E1,7.6E1,1E0,3E0,4.9E1,3E0,4.9E1,1.6E1,8.5E1,3.1E1,2.6E1,4.5E1,1.2E1,6.4E1,4.8E1,1E0,2E0,4.7E1,1.4E1,2E0,1.2E1,7.3E1,2.4E1,7E0,7E0,1.9E1,2.4E1,2.1E1,1.1E1,1E0,2.7E1,3.7E1],"tree_param":{"num_deleted":"0","num_feature":"22","num_nodes":"43","size_leaf_vector":"1"}},{"base_weights":[2.2438064E-3,-4.2184614E-2,6.2387608E-2,-9.560419E-2,-2.4012288E-2,5.779697E-2,1.9405612E-1,-1.2621388E-2,-7.858898E-3,-4.614213E-2,-1.2110315E-2,4.7038503E-2,8.054954E-2,4.983132E-3,2.176545E-2,-4.0156897E-2,-6.1656993E-2,-9.042901E-3,-2.0977633E-2,6.905507E-2,4.250818E-2,1.0208114E-2,6.9020293E-3,-1.8329241E-3,-4.1306987E-3,-6.681566E-3,-2.0470014E-3,-7.3023175E-4,-2.4230515E-3,-2.7638958E-3,-4.5839912E-4,7.1468996E-3,1.521615E-3,3.62321E-3,5.5109463E-3],"categories":[],"categories_nodes":[],"categories_segments":[],"categories_sizes":[],"default_left":[0,0,0,0,0,0,0,0,0,0,0,0,0,0,0,0,0,0,0,0,0,0,0,0,0,0,0,0,0,0,0,0,0,0,0],"id":19,"left_children":[1,3,5,7,9,11,13,-1,-1,15,17,19,21,-1,-1,23,25,27,29,31,33,-1,-1,-1,-1,-1,-1,-1,-1,-1,-1,-1,-1,-1,-1],"loss_changes":[1.0126834E0,2.0932958E-1,8.609933E-2,1.8726647E-2,4.263697E-2,3.464198E-2,6.1713457E-3,0E0,0E0,2.817072E-3,2.7478728E-3,7.936478E-3,5.118221E-3,0E0,0E0,3.4743547E-4,1.606863E-3,1.990757E-3,2.8217928E-3,1.1218861E-3,5.3583384E-3,0E0,0E0,0E0,0E0,0E0,0E0,0E0,0E0,0E0,0E0,0E0,0E0,0E0,0E0],"parents":[2147483647,0,0,1,1,2,2,3,3,4,4,5,5,6,6,9,9,10,10,11,11,12,12,15,15,16,16,17,17,18,18,19,19,20,20],"right_children":[2,4,6,8,10,12,14,-1,-1,16,18,20,22,-1,-1,24,26,28,30,32,34,-1,-1,-1,-1,-1,-1,-1,-1,-1,-1,-1,-1,-1,-1],"split_conditions":[1E-1,-5E-1,5E-1,-7E-1,-4E-1,3E-1,1.1E1,-1.2621388E-2,-7.858898E-3,4.6E-3,1.05E-2,5.8E-3,6.92E-2,4.983132E-3,2.176545E-2,-7E0,2.27E2,1E0,1E0,1.0013328E1,2E-1,1.0208114E-2,6.9020293E-3,-1.8329241E-3,-4.1306987E-3,-6.681566E-3,-2.0470014E-3,-7.3023175E-4,-2.4230515E-3,-2.7638958E-3,-4.5839912E-4,7.1468996E-3,1.521615E-3,3.62321E-3,5.5109463E-3],"split_indices":[9,9,9,9,9,9,8,0,0,12,12,12,12,0,0,21,17,6,4,16,9,0,0,0,0,0,0,0,0,0,0,0,0,0,0],"split_type":[0,0,0,0,0,0,0,0,0,0,0,0,0,0,0,0,0,0,0,0,0,0,0,0,0,0,0,0,0,0,0,0,0,0,0],"sum_hessian":[3.77E2,2.17E2,1.6E2,5.4E1,1.63E2,1.56E2,4E0,1.7E1,3.7E1,5.6E1,1.07E2,1.08E2,4.8E1,1E0,3E0,4.3E1,1.3E1,8.1E1,2.6E1,1.6E1,9.2E1,1.4E1,3.4E1,3E0,4E1,1.1E1,2E0,7.4E1,7E0,1.8E1,8E0,1.5E1,1E0,6.4E1,2.8E1],"tree_param":{"num_deleted":"0","num_feature":"22","num_nodes":"35","size_leaf_vector":"1"}},{"base_weights":[5.59103E-4,-2.8800277E-2,4.1262545E-2,-3.1337082E-2,6.4538717E-3,-6.726964E-3,4.3717958E-2,-4.154581E-2,-2.2286275E-2,-3.1295322E-2,9.5761165E-2,3.5932906E-2,5.7534255E-2,-4.391053E-2,4.7973855E-3,-2.5963314E-2,3.762892E-2,-1.298673E-2,-4.251764E-3,-3.8870394E-3,1.9847235E-2,1.1050646E-2,4.277731E-2,6.7166366E-2,4.4701006E-2,-5.0237007E-3,-6.398408E-4,-3.6705732E-3,-1.5332749E-3,1.6111479E-3,4.3013603E-3,-1.4304268E-3,-3.1995177E-4,7.520509E-3,-1.6954678E-4,4.799073E-3,3.1008907E-3,8.552349E-3,5.2037328E-3,-5.1419735E-3,5.444746E-3],"categories":[],"categories_nodes":[],"categories_segments":[],"categories_sizes":[],"default_left":[0,0,0,0,0,0,0,0,0,0,0,0,0,0,0,0,0,0,0,0,0,0,0,0,0,0,0,0,0,0,0,0,0,0,0,0,0,0,0,0,0],"id":20,"left_children":[1,3,5,7,9,-1,11,13,15,17,19,21,23,25,-1,27,29,31,-1,-1,-1,33,35,37,39,-1,-1,-1,-1,-1,-1,-1,-1,-1,-1,-1,-1,-1,-1,-1,-1],"loss_changes":[4.6485913E-1,2.04141E-2,4.6379E-2,1.8569916E-2,5.6937326E-2,0E0,1.5142322E-2,2.2852063E-2,2.6092362E-2,1.9134134E-3,7.6855525E-2,1.7409235E-2,3.919825E-3,2.246125E-2,0E0,1.1770591E-2,1.1803955E-4,3.1603384E-5,0E0,0E0,0E0,1.9752782E-2,3.5428554E-3,3.8813502E-3,2.8094247E-2,0E0,0E0,0E0,0E0,0E0,0E0,0E0,0E0,0E0,0E0,0E0,0E0,0E0,0E0,0E0,0E0],"parents":[2147483647,0,0,1,1,2,2,3,3,4,4,6,6,7,7,8,8,9,9,10,10,11,11,12,12,13,13,15,15,16,16,17,17,21,21,22,22,23,23,24,24],"right_children":[2,4,6,8,10,-1,12,14,16,18,20,22,24,26,-1,28,30,32,-1,-1,-1,34,36,38,40,-1,-1,-1,-1,-1,-1,-1,-1,-1,-1,-1,-1,-1,-1,-1,-1],"split_conditions":[1.1E-2,1E0,0E0,9E0,-5E-3,-6.726964E-3,7.16E-2,6E0,0E0,-5.88E-2,1.1E1,1E0,4E1,1E0,4.7973855E-3,-9.89E-2,2E1,-8.08E-2,-4.251764E-3,-3.8870394E-3,1.9847235E-2,2.04E-2,9.69E-2,6.92E-2,1.9E-3,-5.0237007E-3,-6.398408E-4,-3.6705732E-3,-1.5332749E-3,1.6111479E-3,4.3013603E-3,-1.4304268E-3,-3.1995177E-4,7.520509E-3,-1.6954678E-4,4.799073E-3,3.1008907E-3,8.552349E-3,5.2037328E-3,-5.1419735E-3,5.444746E-3],"split_indices":[10,6,21,17,10,0,10,21,10,12,8,17,8,4,0,10,8,12,0,0,0,10,12,12,12,0,0,0,0,0,0,0,0,0,0,0,0,0,0,0,0],"split_type":[0,0,0,0,0,0,0,0,0,0,0,0,0,0,0,0,0,0,0,0,0,0,0,0,0,0,0,0,0,0,0,0,0,0,0,0,0,0,0,0,0],"sum_hessian":[3.87E2,2.25E2,1.62E2,2.1E2,1.5E1,3E0,1.59E2,9.7E1,1.13E2,1.1E1,4E0,1.04E2,5.5E1,9.5E1,2E0,1.07E2,6E0,5E0,6E0,2E0,2E0,2.3E1,8.1E1,2.9E1,2.6E1,8.1E1,1.4E1,5.2E1,5.5E1,2E0,4E0,4E0,1E0,3E0,2E1,5.4E1,2.7E1,1.1E1,1.8E1,2E0,2.4E1],"tree_param":{"num_deleted":"0","num_feature":"22","num_nodes":"41","size_leaf_vector":"1"}},{"base_weights":[-1.095627E-3,-3.4077104E-2,4.978492E-2,-8.300202E-2,-1.8394895E-2,3.4425773E-2,6.2323652E-2,-1.4516084E-2,-7.423366E-2,-3.764584E-2,-7.960958E-3,4.8471652E-2,3.0125527E-2,9.129316E-2,5.662979E-2,-7.619936E-3,-3.159532E-3,-8.5752754E-4,-3.797641E-2,6.1663445E-3,-9.326138E-3,6.794749E-2,3.79404E-2,3.2276206E-2,1.2918101E-3,6.3040103E-3,1.1823944E-2,4.7963965E-3,6.201215E-3,-3.5504978E-3,-5.0220448E-3,1.3089061E-3,-1.7840961E-4,-8.6050475E-4,-3.1695932E-3,7.67683E-3,2.0742533E-3,1.1278033E-3,3.9338977E-3,8.533541E-4,3.2586597E-3],"categories":[],"categories_nodes":[],"categories_segments":[],"categories_sizes":[],"default_left":[0,0,0,0,0,0,0,0,0,0,0,0,0,0,0,0,0,0,0,0,0,0,0,0,0,0,0,0,0,0,0,0,0,0,0,0,0,0,0,0,0],"id":21,"left_children":[1,3,5,7,9,11,13,-1,15,17,19,21,23,25,27,-1,-1,-1,29,31,33,35,37,39,-1,-1,-1,-1,-1,-1,-1,-1,-1,-1,-1,-1,-1,-1,-1,-1,-1],"loss_changes":[6.528053E-1,1.7954433E-1,2.7319849E-2,2.029097E-2,3.585567E-2,2.828218E-3,8.520782E-3,0E0,1.9508302E-3,2.7976185E-4,2.3332923E-3,4.9862266E-4,1.6924851E-3,1.6819462E-3,3.8392842E-4,0E0,0E0,0E0,9.305775E-5,6.287773E-4,1.4693625E-3,7.317588E-5,3.805384E-6,9.0397894E-5,0E0,0E0,0E0,0E0,0E0,0E0,0E0,0E0,0E0,0E0,0E0,0E0,0E0,0E0,0E0,0E0,0E0],"parents":[2147483647,0,0,1,1,2,2,3,3,4,4,5,5,6,6,8,8,9,9,10,10,11,11,12,12,13,13,14,14,18,18,19,19,20,20,21,21,22,22,23,23],"right_children":[2,4,6,8,10,12,14,-1,16,18,20,22,24,26,28,-1,-1,-1,30,32,34,36,38,40,-1,-1,-1,-1,-1,-1,-1,-1,-1,-1,-1,-1,-1,-1,-1,-1,-1],"split_conditions":[-2E-1,-5E-1,2E-1,-8E-1,-4E-1,2.5E-2,1E0,-1.4516084E-2,3.340957E-2,-1.5E1,-1.06E-1,1E0,7.53E-2,5.79E-2,3E-1,-7.619936E-3,-3.159532E-3,-8.5752754E-4,-1.69E-2,1E0,3.33E-2,5E1,1.1E1,2.6E-2,1.2918101E-3,6.3040103E-3,1.1823944E-2,4.7963965E-3,6.201215E-3,-3.5504978E-3,-5.0220448E-3,1.3089061E-3,-1.7840961E-4,-8.6050475E-4,-3.1695932E-3,7.67683E-3,2.0742533E-3,1.1278033E-3,3.9338977E-3,8.533541E-4,3.2586597E-3],"split_indices":[9,9,9,9,9,10,17,0,13,21,10,2,10,10,9,0,0,0,10,0,10,8,8,10,0,0,0,0,0,0,0,0,0,0,0,0,0,0,0,0,0],"split_type":[0,0,0,0,0,0,0,0,0,0,0,0,0,0,0,0,0,0,0,0,0,0,0,0,0,0,0,0,0,0,0,0,0,0,0,0,0,0,0,0,0],"sum_hessian":[3.87E2,2.35E2,1.52E2,5.6E1,1.79E2,7E1,8.2E1,5E0,5.1E1,6.2E1,1.17E2,1.4E1,5.6E1,1.1E1,7.1E1,4.8E1,3E0,1E0,6.1E1,1E1,1.07E2,3E0,1.1E1,4.9E1,7E0,7E0,4E0,3.1E1,4E1,5.4E1,7E0,5E0,5E0,1.05E2,2E0,2E0,1E0,1E0,1E1,1E0,4.8E1],"tree_param":{"num_deleted":"0","num_feature":"22","num_nodes":"41","size_leaf_vector":"1"}},{"base_weights":[-1.9698552E-4,-3.0379394E-2,4.5077924E-2,-7.801656E-2,-1.6212663E-2,7.834284E-2,3.8539663E-2,-1.1015439E-1,-6.067323E-2,-3.012771E-2,-7.0435316E-3,4.831071E-2,1.0003843E-1,2.604986E-2,4.9360665E-3,-4.444947E-3,-1.1595175E-2,-6.495364E-2,-3.7572577E-3,-2.7558036E-2,-5.2944566E-3,-2.8741674E-3,-1.4648303E-2,5.2475784E-4,5.1748488E-2,1.1279031E-2,4.3149143E-3,3.0269507E-2,1.984495E-2,-6.795204E-3,-2.9225678E-3,-2.807099E-3,-7.600039E-4,-5.238109E-4,1.0496251E-3,-1.8736394E-3,-4.2294065E-4,5.4838043E-3,1.0426473E-3,3.1196985E-3,9.977425E-4,2.0535046E-3,6.0616807E-5],"categories":[],"categories_nodes":[],"categories_segments":[],"categories_sizes":[],"default_left":[0,0,0,0,0,0,0,0,0,0,0,0,0,0,0,0,0,0,0,0,0,0,0,0,0,0,0,0,0,0,0,0,0,0,0,0,0,0,0,0,0,0,0],"id":22,"left_children":[1,3,5,7,9,11,13,15,17,19,21,23,25,27,-1,-1,-1,29,-1,31,-1,33,35,-1,37,-1,-1,39,41,-1,-1,-1,-1,-1,-1,-1,-1,-1,-1,-1,-1,-1,-1],"loss_changes":[5.192751E-1,1.526039E-1,3.0039907E-2,2.2300184E-2,2.2371028E-2,1.0804638E-2,1.614879E-2,1.3215691E-3,1.1192113E-3,2.645187E-3,3.3822618E-3,1.5049446E-3,4.5639724E-3,1.022622E-3,0E0,0E0,0E0,1.1207238E-3,0E0,4.520975E-4,0E0,2.2990694E-3,1.5393049E-3,0E0,8.325651E-4,0E0,0E0,3.4744292E-4,3.5929773E-4,0E0,0E0,0E0,0E0,0E0,0E0,0E0,0E0,0E0,0E0,0E0,0E0,0E0,0E0],"parents":[2147483647,0,0,1,1,2,2,3,3,4,4,5,5,6,6,7,7,8,8,9,9,10,10,11,11,12,12,13,13,17,17,19,19,21,21,22,22,24,24,27,27,28,28],"right_children":[2,4,6,8,10,12,14,16,18,20,22,24,26,28,-1,-1,-1,30,-1,32,-1,34,36,-1,38,-1,-1,40,42,-1,-1,-1,-1,-1,-1,-1,-1,-1,-1,-1,-1,-1,-1],"split_conditions":[-2E-1,-5E-1,1.9E-3,-7E-1,-3E-1,2E-1,2E-1,-1.66E-1,1E0,8.47E-2,7.4E-3,1E-1,1.0035714E1,8.79E-2,4.9360665E-3,-4.444947E-3,-1.1595175E-2,3.340957E-2,-3.7572577E-3,1E0,-5.2944566E-3,-1E-3,1E0,5.2475784E-4,4.1019484E-2,1.1279031E-2,4.3149143E-3,7.53E-2,2.412E-1,-6.795204E-3,-2.9225678E-3,-2.807099E-3,-7.600039E-4,-5.238109E-4,1.0496251E-3,-1.8736394E-3,-4.2294065E-4,5.4838043E-3,1.0426473E-3,3.1196985E-3,9.977425E-4,2.0535046E-3,6.0616807E-5],"split_indices":[9,9,12,9,9,9,9,10,2,12,12,9,18,12,0,0,0,13,0,1,0,12,4,0,13,0,0,10,12,0,0,0,0,0,0,0,0,0,0,0,0,0,0],"split_type":[0,0,0,0,0,0,0,0,0,0,0,0,0,0,0,0,0,0,0,0,0,0,0,0,0,0,0,0,0,0,0,0,0,0,0,0,0,0,0,0,0,0,0],"sum_hessian":[3.78E2,2.27E2,1.51E2,5.1E1,1.76E2,2.3E1,1.28E2,1.6E1,3.5E1,6.9E1,1.07E2,1.1E1,1.2E1,6.1E1,6.7E1,2E0,1.4E1,2.8E1,7E0,6.4E1,5E0,7E1,3.7E1,1E0,1E1,9E0,3E0,3.4E1,2.7E1,2.5E1,3E0,6.2E1,2E0,6E1,1E1,2.6E1,1.1E1,9E0,1E0,3.2E1,2E0,2.6E1,1E0],"tree_param":{"num_deleted":"0","num_feature":"22","num_nodes":"43","size_leaf_vector":"1"}},{"base_weights":[-3.9163773E-4,-2.8177094E-2,4.309334E-2,-7.1017765E-2,-1.5721915E-2,3.8668204E-2,1.45802E-1,-9.953377E-2,-5.6391723E-2,-3.0924272E-2,-7.2442126E-3,2.7076093E-2,4.8596956E-2,3.1512098E-3,1.6235757E-1,-3.930948E-3,-1.0494304E-1,-3.6625701E-3,-6.0441803E-2,-2.8007746E-2,-5.5907657E-3,6.7756693E-3,-8.556484E-3,3.0273428E-2,1.740922E-2,8.064495E-2,4.278355E-2,4.891552E-3,1.784892E-2,-3.1026423E-3,-1.0800662E-2,-3.1491497E-3,-6.3684485E-3,-1.2183035E-3,-2.8889054E-3,1.3620987E-3,-1.1989276E-4,-5.690683E-4,-1.4211739E-3,3.1331007E-3,9.7497425E-4,1.8264878E-3,5.7585912E-5,9.759275E-3,4.078904E-3,3.6513198E-3,4.693797E-3],"categories":[],"categories_nodes":[],"categories_segments":[],"categories_sizes":[],"default_left":[0,0,0,0,0,0,0,0,0,0,0,0,0,0,0,0,0,0,0,0,0,0,0,0,0,0,0,0,0,0,0,0,0,0,0,0,0,0,0,0,0,0,0,0,0,0,0],"id":23,"left_children":[1,3,5,7,9,11,13,15,17,19,21,23,25,-1,27,-1,29,-1,31,33,-1,35,37,39,41,43,45,-1,-1,-1,-1,-1,-1,-1,-1,-1,-1,-1,-1,-1,-1,-1,-1,-1,-1,-1,-1],"loss_changes":[4.772647E-1,1.274782E-1,6.4355046E-2,1.6909242E-2,2.4005618E-2,1.5833363E-2,6.236583E-3,1.4128238E-3,8.283332E-4,3.316082E-3,2.30252E-3,1.6674474E-3,1.1268064E-2,0E0,4.1913986E-4,0E0,4.568696E-5,0E0,8.1077963E-4,5.1271915E-4,0E0,6.1680574E-4,1.7342912E-3,8.232072E-4,2.7755415E-4,3.4494475E-3,8.358061E-5,0E0,0E0,0E0,0E0,0E0,0E0,0E0,0E0,0E0,0E0,0E0,0E0,0E0,0E0,0E0,0E0,0E0,0E0,0E0,0E0],"parents":[2147483647,0,0,1,1,2,2,3,3,4,4,5,5,6,6,7,7,8,8,9,9,10,10,11,11,12,12,14,14,16,16,18,18,19,19,21,21,22,22,23,23,24,24,25,25,26,26],"right_children":[2,4,6,8,10,12,14,16,18,20,22,24,26,-1,28,-1,30,-1,32,34,-1,36,38,40,42,44,46,-1,-1,-1,-1,-1,-1,-1,-1,-1,-1,-1,-1,-1,-1,-1,-1,-1,-1,-1,-1],"split_conditions":[-2E-1,-5E-1,4E-1,-7E-1,-4E-1,2E-1,1.1E1,-1.467E-1,-2.5E0,8.07E-2,-1.044E-1,1.124E-1,1.9E-3,3.1512098E-3,5E-1,-3.930948E-3,-9.4E1,-3.6625701E-3,-1.17E-1,-5E0,-5.5907657E-3,1E0,1.05E-2,7.53E-2,2.412E-1,5E0,3E-1,4.891552E-3,1.784892E-2,-3.1026423E-3,-1.0800662E-2,-3.1491497E-3,-6.3684485E-3,-1.2183035E-3,-2.8889054E-3,1.3620987E-3,-1.1989276E-4,-5.690683E-4,-1.4211739E-3,3.1331007E-3,9.7497425E-4,1.8264878E-3,5.7585912E-5,9.759275E-3,4.078904E-3,3.6513198E-3,4.693797E-3],"split_indices":[9,9,9,9,9,9,8,11,21,12,11,12,12,0,9,0,21,0,11,21,0,0,12,11,12,17,9,0,0,0,0,0,0,0,0,0,0,0,0,0,0,0,0,0,0,0,0],"split_type":[0,0,0,0,0,0,0,0,0,0,0,0,0,0,0,0,0,0,0,0,0,0,0,0,0,0,0,0,0,0,0,0,0,0,0,0,0,0,0,0,0,0,0,0,0,0,0],"sum_hessian":[3.93E2,2.4E2,1.53E2,5.3E1,1.87E2,1.48E2,5E0,1.6E1,3.7E1,6.6E1,1.21E2,7E1,7.8E1,1E0,4E0,2E0,1.4E1,8E0,2.9E1,6.1E1,5E0,1E1,1.11E2,5.1E1,1.9E1,1E1,6.8E1,1E0,3E0,1E0,1.3E1,4E0,2.5E1,4E0,5.7E1,5E0,5E0,7.5E1,3.6E1,4.8E1,3E0,1.8E1,1E0,6E0,4E0,3.1E1,3.7E1],"tree_param":{"num_deleted":"0","num_feature":"22","num_nodes":"47","size_leaf_vector":"1"}},{"base_weights":[1.9401174E-4,-2.5336742E-2,3.856921E-2,-6.970747E-2,-1.552315E-2,3.454079E-2,1.3553709E-1,-1.1440093E-2,-6.08162E-2,-2.7889052E-2,-4.8612775E-3,2.3021305E-2,4.57613E-2,8.166919E-3,2.0243827E-2,-3.8986343E-3,-6.624662E-2,-2.3834694E-2,-4.3007575E-2,1.3266864E-3,-7.638703E-3,2.7256405E-2,1.6738927E-2,7.720087E-2,4.046487E-2,-1.7540843E-3,-6.7359656E-3,-2.0733168E-3,-3.9713145E-3,-4.4919294E-3,-5.254179E-4,4.0877375E-4,-2.0403133E-3,5.460077E-4,-9.309162E-4,2.8607275E-3,1.0727992E-3,1.7213011E-3,5.4706634E-5,3.6853775E-3,8.922766E-3,3.3711928E-3,4.4089686E-3],"categories":[],"categories_nodes":[],"categories_segments":[],"categories_sizes":[],"default_left":[0,0,0,0,0,0,0,0,0,0,0,0,0,0,0,0,0,0,0,0,0,0,0,0,0,0,0,0,0,0,0,0,0,0,0,0,0,0,0,0,0,0,0],"id":24,"left_children":[1,3,5,7,9,11,13,-1,15,17,19,21,23,-1,-1,-1,25,27,29,31,33,35,37,39,41,-1,-1,-1,-1,-1,-1,-1,-1,-1,-1,-1,-1,-1,-1,-1,-1,-1,-1],"loss_changes":[3.899371E-1,1.02987185E-1,5.7428166E-2,1.0129973E-2,2.5837623E-2,1.8851697E-2,5.0899833E-3,0E0,1.9220263E-3,4.552856E-3,1.8491012E-3,1.619067E-3,9.697914E-3,0E0,0E0,0E0,3.9057434E-4,2.8209276E-3,1.0631159E-3,2.1233053E-3,1.6700216E-3,6.9784746E-4,2.515791E-4,1.5640818E-3,1.7817318E-4,0E0,0E0,0E0,0E0,0E0,0E0,0E0,0E0,0E0,0E0,0E0,0E0,0E0,0E0,0E0,0E0,0E0,0E0],"parents":[2147483647,0,0,1,1,2,2,3,3,4,4,5,5,6,6,8,8,9,9,10,10,11,11,12,12,16,16,17,17,18,18,19,19,20,20,21,21,22,22,23,23,24,24],"right_children":[2,4,6,8,10,12,14,-1,16,18,20,22,24,-1,-1,-1,26,28,30,32,34,36,38,40,42,-1,-1,-1,-1,-1,-1,-1,-1,-1,-1,-1,-1,-1,-1,-1,-1,-1,-1],"split_conditions":[-2E-1,-6E-1,4E-1,-8E-1,-3E-1,2E-1,8E-1,-1.1440093E-2,-2.5E0,6.2E-3,1E0,8.52E-2,1.9E-3,8.166919E-3,2.0243827E-2,-3.8986343E-3,-4E-1,2.5E-3,2.27E2,1E0,-1.06E-1,6.54E-2,9.26E-2,-4.19E-2,3E-1,-1.7540843E-3,-6.7359656E-3,-2.0733168E-3,-3.9713145E-3,-4.4919294E-3,-5.254179E-4,4.0877375E-4,-2.0403133E-3,5.460077E-4,-9.309162E-4,2.8607275E-3,1.0727992E-3,1.7213011E-3,5.4706634E-5,3.6853775E-3,8.922766E-3,3.3711928E-3,4.4089686E-3],"split_indices":[9,9,9,9,9,9,9,0,21,12,17,12,12,0,0,0,10,10,17,6,10,10,10,12,9,0,0,0,0,0,0,0,0,0,0,0,0,0,0,0,0,0,0],"split_type":[0,0,0,0,0,0,0,0,0,0,0,0,0,0,0,0,0,0,0,0,0,0,0,0,0,0,0,0,0,0,0,0,0,0,0,0,0,0,0,0,0,0,0],"sum_hessian":[3.96E2,2.38E2,1.58E2,4.2E1,1.96E2,1.53E2,5E0,5E0,3.7E1,9E1,1.06E2,7.7E1,7.6E1,4E0,1E0,9E0,2.8E1,7.3E1,1.7E1,3.3E1,7.3E1,4.4E1,3.3E1,9E0,6.7E1,1E0,2.7E1,6.3E1,1E1,1.6E1,1E0,3E1,3E0,8E0,6.5E1,4E1,4E0,3.2E1,1E0,3E0,6E0,2.7E1,4E1],"tree_param":{"num_deleted":"0","num_feature":"22","num_nodes":"43","size_leaf_vector":"1"}},{"base_weights":[-6.287406E-4,-2.2267746E-2,3.231617E-2,-5.843245E-2,-1.2391198E-2,2.33143E-2,4.026527E-2,-1.0486751E-2,-5.1105432E-2,-2.2708481E-2,-4.4429726E-3,4.255177E-2,2.0425308E-2,7.944691E-3,3.77717E-2,-5.215803E-2,-1.8632194E-3,-1.9366566E-2,-3.0439192E-2,4.081023E-4,-7.0822434E-3,2.2846495E-3,5.3746693E-2,2.1750065E-2,9.324127E-4,4.0947157E-3,3.0139447E-3,-4.721021E-3,-7.15665E-3,-2.16343E-3,-9.503661E-4,-2.3909025E-3,-4.9165995E-3,8.402904E-4,-4.4051028E-4,6.055214E-4,-7.760864E-4,6.5521905E-3,2.4055915E-3,2.902511E-3,1.9714553E-3],"categories":[],"categories_nodes":[],"categories_segments":[],"categories_sizes":[],"default_left":[0,0,0,0,0,0,0,0,0,0,0,0,0,0,0,0,0,0,0,0,0,0,0,0,0,0,0,0,0,0,0,0,0,0,0,0,0,0,0,0,0],"id":25,"left_children":[1,3,5,7,9,11,13,-1,15,17,19,21,23,-1,25,27,-1,29,31,33,35,-1,37,39,-1,-1,-1,-1,-1,-1,-1,-1,-1,-1,-1,-1,-1,-1,-1,-1,-1],"loss_changes":[2.8231317E-1,8.464256E-2,1.0295644E-2,1.1992469E-2,1.5397878E-2,3.3547133E-3,5.010709E-3,0E0,6.005168E-4,1.528997E-3,1.3856466E-3,7.57467E-4,7.9723075E-4,0E0,6.805137E-4,8.466318E-4,0E0,1.1363793E-3,1.6371384E-3,1.5377598E-3,6.710682E-4,0E0,1.7188769E-4,3.1628832E-4,0E0,0E0,0E0,0E0,0E0,0E0,0E0,0E0,0E0,0E0,0E0,0E0,0E0,0E0,0E0,0E0,0E0],"parents":[2147483647,0,0,1,1,2,2,3,3,4,4,5,5,6,6,8,8,9,9,10,10,11,11,12,12,14,14,15,15,17,17,18,18,19,19,20,20,22,22,23,23],"right_children":[2,4,6,8,10,12,14,-1,16,18,20,22,24,-1,26,28,-1,30,32,34,36,-1,38,40,-1,-1,-1,-1,-1,-1,-1,-1,-1,-1,-1,-1,-1,-1,-1,-1,-1],"split_conditions":[-2E-1,-5E-1,2E-1,-8E-1,-3E-1,1.34E-2,2.5E-3,-1.0486751E-2,1E0,1.15172415E1,3.1E1,7.4E-3,7.53E-2,7.944691E-3,1.2787611E1,1E0,-1.8632194E-3,-4E-1,-1.044E-1,9.268292E0,-1.277E-1,2.2846495E-3,9E0,1E0,9.324127E-4,4.0947157E-3,3.0139447E-3,-4.721021E-3,-7.15665E-3,-2.16343E-3,-9.503661E-4,-2.3909025E-3,-4.9165995E-3,8.402904E-4,-4.4051028E-4,6.055214E-4,-7.760864E-4,6.5521905E-3,2.4055915E-3,2.902511E-3,1.9714553E-3],"split_indices":[9,9,9,9,9,11,11,0,4,18,8,11,11,0,18,17,0,9,11,18,11,0,17,17,0,0,0,0,0,0,0,0,0,0,0,0,0,0,0,0,0],"split_type":[0,0,0,0,0,0,0,0,0,0,0,0,0,0,0,0,0,0,0,0,0,0,0,0,0,0,0,0,0,0,0,0,0,0,0,0,0,0,0,0,0],"sum_hessian":[3.94E2,2.38E2,1.56E2,5E1,1.88E2,7.5E1,8.1E1,5E0,4.5E1,8.1E1,1.07E2,8E0,6.7E1,3E0,7.8E1,4.3E1,2E0,5.9E1,2.2E1,3.8E1,6.9E1,4E0,4E0,5.9E1,8E0,5.2E1,2.6E1,3.7E1,6E0,4.7E1,1.2E1,1.8E1,4E0,1.4E1,2.4E1,3E0,6.6E1,2E0,2E0,1E1,4.9E1],"tree_param":{"num_deleted":"0","num_feature":"22","num_nodes":"41","size_leaf_vector":"1"}},{"base_weights":[3.6368388E-4,-1.4834112E-2,2.0314386E-2,-4.050665E-2,-1.1978661E-2,3.5592872E-3,2.5379462E-2,-5.889853E-2,-9.439866E-3,-1.443004E-2,7.842575E-3,-2.4898741E-3,5.711192E-3,2.1215446E-2,3.3393167E-2,-4.1138057E-2,-8.857508E-3,3.1709671E-6,-1.6994929E-3,-1.3376269E-2,-5.560778E-3,-9.721492E-3,1.88344E-2,-1.6860759E-2,2.4232517E-3,2.2506723E-2,-1.0559607E-2,3.427122E-2,1.0847397E-2,-4.4183224E-3,-6.86577E-4,2.703796E-4,-2.698511E-4,-2.0309761E-3,-1.0640378E-3,-1.8632252E-3,8.424685E-3,-7.9463207E-4,-4.227969E-3,3.9853533E-3,2.0356309E-3,1.8500859E-3,-4.8870505E-3,3.506684E-3,1.303487E-3,5.3506346E-6,1.6217589E-3],"categories":[],"categories_nodes":[],"categories_segments":[],"categories_sizes":[],"default_left":[0,0,0,0,0,0,0,0,0,0,0,0,0,0,0,0,0,0,0,0,0,0,0,0,0,0,0,0,0,0,0,0,0,0,0,0,0,0,0,0,0,0,0,0,0,0,0],"id":26,"left_children":[1,3,5,7,9,11,13,15,17,19,21,23,-1,25,27,29,-1,31,-1,33,-1,35,-1,37,-1,39,41,43,45,-1,-1,-1,-1,-1,-1,-1,-1,-1,-1,-1,-1,-1,-1,-1,-1,-1,-1],"loss_changes":[1.1430705E-1,1.5202414E-2,1.3742797E-2,1.1442911E-2,9.5395055E-3,1.2776194E-2,3.462702E-3,3.2081008E-3,6.4213853E-4,6.762974E-3,7.157845E-2,1.4233458E-2,0E0,3.7252456E-3,4.3989718E-4,7.4029714E-4,0E0,4.3777367E-5,0E0,3.008673E-3,0E0,1.9153625E-2,0E0,5.102323E-3,0E0,2.2475645E-3,5.357477E-3,2.0185485E-4,1.7302806E-4,0E0,0E0,0E0,0E0,0E0,0E0,0E0,0E0,0E0,0E0,0E0,0E0,0E0,0E0,0E0,0E0,0E0,0E0],"parents":[2147483647,0,0,1,1,2,2,3,3,4,4,5,5,6,6,7,7,8,8,9,9,10,10,11,11,13,13,14,14,15,15,17,17,19,19,21,21,23,23,25,25,26,26,27,27,28,28],"right_children":[2,4,6,8,10,12,14,16,18,20,22,24,-1,26,28,30,-1,32,-1,34,-1,36,-1,38,-1,40,42,44,46,-1,-1,-1,-1,-1,-1,-1,-1,-1,-1,-1,-1,-1,-1,-1,-1,-1,-1],"split_conditions":[2.5E-3,2E1,1E0,1E0,-1E-3,1.503E-1,7.8E-2,1E0,1E0,1.1415908E1,1E0,1.9E-3,5.711192E-3,1.792E-1,2.61E-1,1E0,-8.857508E-3,9E0,-1.6994929E-3,-1.31E-1,-5.560778E-3,8.683046E0,1.88344E-2,8.26E-2,2.4232517E-3,-1.9E-2,1E0,5.1E1,2.5E1,-4.4183224E-3,-6.86577E-4,2.703796E-4,-2.698511E-4,-2.0309761E-3,-1.0640378E-3,-1.8632252E-3,8.424685E-3,-7.9463207E-4,-4.227969E-3,3.9853533E-3,2.0356309E-3,1.8500859E-3,-4.8870505E-3,3.506684E-3,1.303487E-3,5.3506346E-6,1.6217589E-3],"split_indices":[10,8,17,17,10,10,10,2,2,16,6,12,0,12,12,7,0,17,0,10,0,16,0,10,0,12,2,8,8,0,0,0,0,0,0,0,0,0,0,0,0,0,0,0,0,0,0],"split_type":[0,0,0,0,0,0,0,0,0,0,0,0,0,0,0,0,0,0,0,0,0,0,0,0,0,0,0,0,0,0,0,0,0,0,0,0,0,0,0,0,0,0,0,0,0,0,0],"sum_hessian":[3.75E2,2.13E2,1.62E2,2E1,1.93E2,3.8E1,1.24E2,1.2E1,8E0,1.72E2,2.1E1,3.5E1,3E0,8.4E1,4E1,9E0,3E0,4E0,4E0,1.69E2,3E0,2E1,1E0,2.3E1,1.2E1,8.1E1,3E0,3.8E1,2E0,8E0,1E0,2E0,2E0,4.6E1,1.23E2,1.9E1,1E0,1.8E1,5E0,7E0,7.4E1,2E0,1E0,3.6E1,2E0,1E0,1E0],"tree_param":{"num_deleted":"0","num_feature":"22","num_nodes":"47","size_leaf_vector":"1"}},{"base_weights":[-3.0174974E-4,-1.9014742E-2,2.9298551E-2,-4.9153037E-2,-9.887688E-3,2.7137006E-2,1.789268E-2,-6.732991E-2,-3.6323205E-2,-2.0022824E-2,-4.1939546E-3,4.758204E-2,2.3122914E-2,-7.765367E-3,-4.3789633E-3,-3.8930923E-2,-2.2655785E-2,-1.8391097E-2,-4.870265E-3,-1.7745573E-3,-9.431728E-3,2.7027532E-2,5.811291E-2,1.5949547E-2,2.9323293E-2,-4.0250826E-3,-1.4514804E-3,-2.516881E-3,-2.5323033E-4,-1.8752553E-3,2.3710728E-4,-1.0028502E-3,1.651191E-5,-1.3015269E-3,-1.5391296E-4,3.8924292E-4,2.916561E-3,6.0878117E-3,9.7000005E-4,1.8183998E-3,8.965183E-4,3.4705845E-3,2.5994554E-3],"categories":[],"categories_nodes":[],"categories_segments":[],"categories_sizes":[],"default_left":[0,0,0,0,0,0,0,0,0,0,0,0,0,0,0,0,0,0,0,0,0,0,0,0,0,0,0,0,0,0,0,0,0,0,0,0,0,0,0,0,0,0,0],"id":27,"left_children":[1,3,5,7,9,11,-1,13,15,17,19,21,23,-1,-1,25,27,29,-1,31,33,35,37,39,41,-1,-1,-1,-1,-1,-1,-1,-1,-1,-1,-1,-1,-1,-1,-1,-1,-1,-1],"loss_changes":[2.1879774E-1,6.6081874E-2,4.4628993E-2,1.0613903E-2,1.070719E-2,1.1374146E-2,0E0,1.9460991E-3,3.6541373E-4,2.239747E-3,1.5166057E-3,3.6243163E-3,5.269915E-3,0E0,0E0,3.181249E-4,3.4083193E-4,5.322639E-4,0E0,1.3464944E-3,1.0547389E-3,3.8112048E-4,1.4175549E-3,8.045621E-4,3.1619892E-4,0E0,0E0,0E0,0E0,0E0,0E0,0E0,0E0,0E0,0E0,0E0,0E0,0E0,0E0,0E0,0E0,0E0,0E0],"parents":[2147483647,0,0,1,1,2,2,3,3,4,4,5,5,7,7,8,8,9,9,10,10,11,11,12,12,15,15,16,16,17,17,19,19,20,20,21,21,22,22,23,23,24,24],"right_children":[2,4,6,8,10,12,-1,14,16,18,20,22,24,-1,-1,26,28,30,-1,32,34,36,38,40,42,-1,-1,-1,-1,-1,-1,-1,-1,-1,-1,-1,-1,-1,-1,-1,-1,-1,-1],"split_conditions":[-2E-1,-5E-1,8E-1,-7E-1,-4E-1,1.9E-3,1.789268E-2,4E1,1E0,9.69E-2,7.4E-3,2E-1,2E-1,-7.765367E-3,-4.3789633E-3,1.112E-1,-6E-1,1E0,-4.870265E-3,-3E-1,1E0,1E-1,4.5E1,1.124E-1,9.69E-2,-4.0250826E-3,-1.4514804E-3,-2.516881E-3,-2.5323033E-4,-1.8752553E-3,2.3710728E-4,-1.0028502E-3,1.651191E-5,-1.3015269E-3,-1.5391296E-4,3.8924292E-4,2.916561E-3,6.0878117E-3,9.7000005E-4,1.8183998E-3,8.965183E-4,3.4705845E-3,2.5994554E-3],"split_indices":[9,9,9,9,9,12,0,8,2,12,12,9,9,0,0,12,9,4,0,9,4,9,8,12,12,0,0,0,0,0,0,0,0,0,0,0,0,0,0,0,0,0,0],"split_type":[0,0,0,0,0,0,0,0,0,0,0,0,0,0,0,0,0,0,0,0,0,0,0,0,0,0,0,0,0,0,0,0,0,0,0,0,0,0,0,0,0,0,0],"sum_hessian":[3.93E2,2.41E2,1.52E2,5.5E1,1.86E2,1.51E2,1E0,2.1E1,3.4E1,6.6E1,1.2E2,2.3E1,1.28E2,1.3E1,8E0,2.7E1,7E0,6.4E1,2E0,8.3E1,3.7E1,9E0,1.4E1,6.1E1,6.7E1,2.5E1,2E0,6E0,1E0,6.3E1,1E0,1.5E1,6.8E1,2.5E1,1.2E1,1E0,8E0,1.3E1,1E0,4.5E1,1.6E1,2.2E1,4.5E1],"tree_param":{"num_deleted":"0","num_feature":"22","num_nodes":"43","size_leaf_vector":"1"}},{"base_weights":[1.9724933E-4,-1.7751643E-2,2.7478252E-2,-4.4252962E-2,-8.866022E-3,2.4224838E-2,1.1698227E-1,-8.431497E-3,-3.8779404E-2,-1.8429924E-2,-3.5779506E-3,4.325092E-2,2.0861564E-2,1.7906175E-3,1.3727474E-1,-2.5169564E-2,-4.0681884E-2,-1.6743356E-2,-4.54558E-3,9.690911E-3,-4.9738283E-3,6.455663E-2,3.0424858E-2,1.5102155E-2,2.5400465E-2,1.5777765E-2,3.7883015E-3,-3.8490893E-4,-2.735349E-3,-4.155804E-3,-1.4855127E-3,-1.7109708E-3,2.2525192E-4,1.7839719E-3,2.4859182E-4,-2.7324195E-4,-1.0521774E-3,8.077854E-3,1.6001232E-3,3.3182674E-3,8.3327043E-4,1.9975132E-3,1.1329196E-3,2.9563217E-3,2.2822942E-3],"categories":[],"categories_nodes":[],"categories_segments":[],"categories_sizes":[],"default_left":[0,0,0,0,0,0,0,0,0,0,0,0,0,0,0,0,0,0,0,0,0,0,0,0,0,0,0,0,0,0,0,0,0,0,0,0,0,0,0,0,0,0,0,0,0],"id":28,"left_children":[1,3,5,7,9,11,13,-1,15,17,19,21,23,-1,25,27,29,31,-1,33,35,37,39,41,43,-1,-1,-1,-1,-1,-1,-1,-1,-1,-1,-1,-1,-1,-1,-1,-1,-1,-1,-1,-1],"loss_changes":[1.8509105E-1,5.329725E-2,4.0845163E-2,9.229362E-3,8.63289E-3,8.440249E-3,7.5944364E-3,0E0,3.2246858E-4,2.019357E-3,2.122632E-3,3.7745088E-3,2.9102154E-3,0E0,2.1741837E-3,3.1377468E-4,3.7828833E-4,4.4913217E-4,0E0,6.01485E-4,1.239642E-3,4.2210706E-3,6.373897E-4,8.4005855E-4,6.562099E-5,0E0,0E0,0E0,0E0,0E0,0E0,0E0,0E0,0E0,0E0,0E0,0E0,0E0,0E0,0E0,0E0,0E0,0E0,0E0,0E0],"parents":[2147483647,0,0,1,1,2,2,3,3,4,4,5,5,6,6,8,8,9,9,10,10,11,11,12,12,14,14,15,15,16,16,17,17,19,19,20,20,21,21,22,22,23,23,24,24],"right_children":[2,4,6,8,10,12,14,-1,16,18,20,22,24,-1,26,28,30,32,-1,34,36,38,40,42,44,-1,-1,-1,-1,-1,-1,-1,-1,-1,-1,-1,-1,-1,-1,-1,-1,-1,-1,-1,-1],"split_conditions":[-2E-1,-5E-1,5E-1,-8E-1,-4E-1,1.9E-3,1.1E1,-8.431497E-3,-1.17E-1,8.85E-2,-1.044E-1,2.5E1,2E-1,1.7906175E-3,1E0,2E1,4.6E-3,2.3E1,-4.54558E-3,1.625E1,3.39E-2,4.1E-2,7.53E-2,5.08E-2,9.69E-2,1.5777765E-2,3.7883015E-3,-3.8490893E-4,-2.735349E-3,-4.155804E-3,-1.4855127E-3,-1.7109708E-3,2.2525192E-4,1.7839719E-3,2.4859182E-4,-2.7324195E-4,-1.0521774E-3,8.077854E-3,1.6001232E-3,3.3182674E-3,8.3327043E-4,1.9975132E-3,1.1329196E-3,2.9563217E-3,2.2822942E-3],"split_indices":[9,9,9,9,9,12,8,0,10,12,10,8,9,0,2,8,12,18,0,18,12,10,10,10,12,0,0,0,0,0,0,0,0,0,0,0,0,0,0,0,0,0,0,0,0],"split_type":[0,0,0,0,0,0,0,0,0,0,0,0,0,0,0,0,0,0,0,0,0,0,0,0,0,0,0,0,0,0,0,0,0,0,0,0,0,0,0,0,0,0,0,0,0],"sum_hessian":[3.76E2,2.27E2,1.49E2,5.6E1,1.71E2,1.45E2,4E0,5E0,5.1E1,6E1,1.11E2,2E1,1.25E2,1E0,3E0,8E0,4.3E1,5.8E1,2E0,1E1,1.01E2,6E0,1.4E1,5.7E1,6.8E1,2E0,1E0,1E0,7E0,4.1E1,2E0,5.7E1,1E0,4E0,6E0,7.3E1,2.8E1,4E0,2E0,1.2E1,2E0,2.3E1,3.4E1,2.2E1,4.6E1],"tree_param":{"num_deleted":"0","num_feature":"22","num_nodes":"45","size_leaf_vector":"1"}},{"base_weights":[5.250166E-4,-1.5442935E-2,2.568957E-2,-3.8082305E-2,-8.591803E-3,2.3699613E-2,1.6209157E-2,-5.292859E-2,-3.0634383E-2,-1.6135937E-2,-2.7620646E-3,4.5644775E-2,1.9365884E-2,-1.8018148E-3,-5.6382106E-3,-2.7857807E-2,-5.4667355E-3,-1.3927991E-2,-4.1045933E-3,-1.7970906E-3,-1.6014973E-2,2.869426E-2,6.02041E-2,1.3505836E-2,2.4577357E-2,-1.9713498E-3,-3.0545264E-3,5.2238785E-5,-1.5192117E-3,7.238904E-4,-2.7811222E-4,-3.36577E-4,-2.4660432E-3,3.0644394E-3,2.6463493E-4,7.7063562E-3,2.1188145E-3,1.9059677E-3,1.0608565E-3,2.876385E-3,2.1323056E-3],"categories":[],"categories_nodes":[],"categories_segments":[],"categories_sizes":[],"default_left":[0,0,0,0,0,0,0,0,0,0,0,0,0,0,0,0,0,0,0,0,0,0,0,0,0,0,0,0,0,0,0,0,0,0,0,0,0,0,0,0,0],"id":29,"left_children":[1,3,5,7,9,11,-1,13,15,17,19,21,23,-1,-1,25,-1,27,-1,29,31,33,35,37,39,-1,-1,-1,-1,-1,-1,-1,-1,-1,-1,-1,-1,-1,-1,-1,-1],"loss_changes":[1.5630536E-1,3.6587875E-2,3.714504E-2,4.4601336E-3,8.047813E-3,1.3381705E-2,0E0,1.0336861E-3,1.0795295E-3,3.8283058E-3,1.3140342E-3,4.1953996E-3,3.546577E-3,0E0,0E0,2.0768493E-4,0E0,1.37797E-3,0E0,9.004111E-4,6.82506E-4,5.7926215E-4,6.2606223E-3,7.954454E-4,2.8585643E-4,0E0,0E0,0E0,0E0,0E0,0E0,0E0,0E0,0E0,0E0,0E0,0E0,0E0,0E0,0E0,0E0],"parents":[2147483647,0,0,1,1,2,2,3,3,4,4,5,5,7,7,8,8,9,9,10,10,11,11,12,12,15,15,17,17,19,19,20,20,21,21,22,22,23,23,24,24],"right_children":[2,4,6,8,10,12,-1,14,16,18,20,22,24,-1,-1,26,-1,28,-1,30,32,34,36,38,40,-1,-1,-1,-1,-1,-1,-1,-1,-1,-1,-1,-1,-1,-1,-1,-1],"split_conditions":[-2E-1,-5E-1,8E-1,-7E-1,-3E-1,1.9E-3,1.6209157E-2,-4.8E1,1E0,8.47E-2,1.339E-1,-3.8E-3,2E-1,-1.8018148E-3,-5.6382106E-3,-2.5E0,-5.4667355E-3,-2E0,-4.1045933E-3,-1.06E-1,4.5E1,4.1019484E-2,6E0,4.2E-2,9.69E-2,-1.9713498E-3,-3.0545264E-3,5.2238785E-5,-1.5192117E-3,7.238904E-4,-2.7811222E-4,-3.36577E-4,-2.4660432E-3,3.0644394E-3,2.6463493E-4,7.7063562E-3,2.1188145E-3,1.9059677E-3,1.0608565E-3,2.876385E-3,2.1323056E-3],"split_indices":[9,9,9,9,9,12,0,21,5,12,12,12,9,0,0,21,0,21,0,10,19,13,21,10,12,0,0,0,0,0,0,0,0,0,0,0,0,0,0,0,0],"split_type":[0,0,0,0,0,0,0,0,0,0,0,0,0,0,0,0,0,0,0,0,0,0,0,0,0,0,0,0,0,0,0,0,0,0,0,0,0,0,0,0,0],"sum_hessian":[3.87E2,2.37E2,1.5E2,5.4E1,1.83E2,1.49E2,1E0,1.6E1,3.8E1,7.9E1,1.04E2,2.3E1,1.26E2,2E0,1.4E1,3.6E1,2E0,7.4E1,5E0,9.8E1,6E0,1.2E1,1.1E1,6.1E1,6.5E1,1.1E1,2.5E1,6E0,6.8E1,9E0,8.9E1,3E0,3E0,1.1E1,1E0,7E0,4E0,1.9E1,4.2E1,2.5E1,4E1],"tree_param":{"num_deleted":"0","num_feature":"22","num_nodes":"41","size_leaf_vector":"1"}},{"base_weights":[2.58451E-4,-1.3479045E-2,2.1536412E-2,-3.7060164E-2,-6.8140067E-3,1.9651955E-2,1.5398699E-2,-5.1736414E-2,-2.971205E-2,-1.4103577E-2,-1.6493618E-3,3.5161767E-2,1.6756741E-2,-1.7859659E-3,-5.530026E-2,-1.6862506E-2,-3.38466E-2,-1.1064747E-2,-2.698797E-2,4.2802445E-3,-3.8251497E-3,5.0218668E-2,1.7174717E-2,1.1233135E-2,2.2277445E-2,-2.1148503E-3,-5.922985E-3,-9.947628E-4,-2.0966968E-3,-2.129376E-4,-3.4984597E-3,5.49078E-5,-1.2275645E-3,-2.9389167E-3,2.1137894E-4,6.53293E-4,-1.8171569E-3,-2.141125E-3,-3.1089035E-4,6.437658E-3,1.7522281E-3,6.775901E-4,1.9888112E-3,1.0333069E-3,2.69902E-3,2.6188307E-3,1.9605365E-3],"categories":[],"categories_nodes":[],"categories_segments":[],"categories_sizes":[],"default_left":[0,0,0,0,0,0,0,0,0,0,0,0,0,0,0,0,0,0,0,0,0,0,0,0,0,0,0,0,0,0,0,0,0,0,0,0,0,0,0,0,0,0,0,0,0,0,0],"id":30,"left_children":[1,3,5,7,9,11,-1,13,15,17,19,21,23,-1,25,27,29,31,33,35,37,39,41,43,45,-1,-1,-1,-1,-1,-1,-1,-1,-1,-1,-1,-1,-1,-1,-1,-1,-1,-1,-1,-1,-1,-1],"loss_changes":[1.1399728E-1,3.6996543E-2,3.5162278E-2,4.0706247E-3,6.9792736E-3,6.2362365E-3,0E0,9.4405934E-4,1.3949648E-3,2.7162023E-3,1.4355447E-3,5.3665824E-3,3.713999E-3,0E0,6.262101E-4,1.0362896E-4,9.000413E-4,9.067813E-4,1.040428E-3,1.6360199E-3,9.537088E-4,4.4269226E-3,2.0383298E-4,6.713299E-4,1.5537813E-4,0E0,0E0,0E0,0E0,0E0,0E0,0E0,0E0,0E0,0E0,0E0,0E0,0E0,0E0,0E0,0E0,0E0,0E0,0E0,0E0,0E0,0E0],"parents":[2147483647,0,0,1,1,2,2,3,3,4,4,5,5,7,7,8,8,9,9,10,10,11,11,12,12,14,14,15,15,16,16,17,17,18,18,19,19,20,20,21,21,22,22,23,23,24,24],"right_children":[2,4,6,8,10,12,-1,14,16,18,20,22,24,-1,26,28,30,32,34,36,38,40,42,44,46,-1,-1,-1,-1,-1,-1,-1,-1,-1,-1,-1,-1,-1,-1,-1,-1,-1,-1,-1,-1,-1,-1],"split_conditions":[1E-1,-5E-1,8E-1,-7E-1,-3E-1,1.9E-3,1.5398699E-2,-1.467E-1,-2.5E0,9.1E-3,4.786325E0,9.927008E0,2E-1,-1.7859659E-3,-7.1E1,3E1,-1.381E-1,-2E0,7.808444E-2,1E0,-9.375529E-2,6E0,1.0035714E1,4.357143E1,9.69E-2,-2.1148503E-3,-5.922985E-3,-9.947628E-4,-2.0966968E-3,-2.129376E-4,-3.4984597E-3,5.49078E-5,-1.2275645E-3,-2.9389167E-3,2.1137894E-4,6.53293E-4,-1.8171569E-3,-2.141125E-3,-3.1089035E-4,6.437658E-3,1.7522281E-3,6.775901E-4,1.9888112E-3,1.0333069E-3,2.69902E-3,2.6188307E-3,1.9605365E-3],"split_indices":[9,9,9,9,9,12,0,10,21,12,18,18,9,0,21,8,10,21,13,6,13,21,18,18,12,0,0,0,0,0,0,0,0,0,0,0,0,0,0,0,0,0,0,0,0,0,0],"split_type":[0,0,0,0,0,0,0,0,0,0,0,0,0,0,0,0,0,0,0,0,0,0,0,0,0,0,0,0,0,0,0,0,0,0,0,0,0,0,0,0,0,0,0,0,0,0,0],"sum_hessian":[3.88E2,2.36E2,1.52E2,5.1E1,1.85E2,1.51E2,1E0,1.5E1,3.6E1,7.6E1,1.09E2,2.2E1,1.29E2,2E0,1.3E1,1E1,2.6E1,6.3E1,1.3E1,2.9E1,8E1,1.1E1,1.1E1,6.6E1,6.3E1,2E0,1.1E1,5E0,5E0,1E0,2.5E1,6E0,5.7E1,1.2E1,1E0,2.7E1,2E0,2E0,7.8E1,7E0,4E0,3E0,8E0,6.4E1,2E0,2.2E1,4.1E1],"tree_param":{"num_deleted":"0","num_feature":"22","num_nodes":"47","size_leaf_vector":"1"}},{"base_weights":[-6.3336855E-5,-1.2754856E-2,1.8383116E-2,-3.6636315E-2,-7.339973E-3,3.7827555E-2,1.5196253E-2,-6.4888396E-3,-3.207486E-2,-1.4841906E-2,-2.2969665E-3,5.7106655E-2,2.008767E-2,1.1464049E-2,2.2820592E-2,-2.6700396E-2,-4.9563358E-3,-1.1775752E-2,-2.5795633E-2,1.8071348E-4,-8.534183E-3,7.393664E-2,1.3377516E-2,2.9777826E-3,1.4202842E-2,1.8691417E-3,1.0209051E-2,2.9669802E-3,2.028413E-3,-1.8130857E-3,-2.9265396E-3,-8.943377E-4,-1.9359868E-3,-2.7067878E-3,-3.35598E-4,1.6608642E-4,-1.2338416E-3,-4.949954E-4,-1.9116156E-3,8.051885E-3,1.722169E-3,3.376335E-4,1.5585799E-3,1.6352817E-3,3.735294E-4,9.536436E-4,2.5190853E-3],"categories":[],"categories_nodes":[],"categories_segments":[],"categories_sizes":[],"default_left":[0,0,0,0,0,0,0,0,0,0,0,0,0,0,0,0,0,0,0,0,0,0,0,0,0,0,0,0,0,0,0,0,0,0,0,0,0,0,0,0,0,0,0,0,0,0,0],"id":31,"left_children":[1,3,5,7,9,11,13,-1,15,17,19,21,23,25,27,29,-1,31,33,35,37,39,41,-1,43,-1,45,-1,-1,-1,-1,-1,-1,-1,-1,-1,-1,-1,-1,-1,-1,-1,-1,-1,-1,-1,-1],"loss_changes":[9.247519E-2,2.9990867E-2,9.401817E-3,3.4601465E-3,7.229708E-3,6.37706E-3,3.722161E-3,0E0,2.3422986E-3,2.2823457E-3,1.794186E-3,6.370522E-3,3.1839404E-4,6.799307E-4,1.7995015E-4,1.7278269E-4,0E0,1.1586826E-3,3.6594085E-4,1.5770292E-3,1.1570072E-3,1.226496E-3,3.571884E-5,0E0,1.6396726E-4,0E0,6.0623605E-4,0E0,0E0,0E0,0E0,0E0,0E0,0E0,0E0,0E0,0E0,0E0,0E0,0E0,0E0,0E0,0E0,0E0,0E0,0E0,0E0],"parents":[2147483647,0,0,1,1,2,2,3,3,4,4,5,5,6,6,8,8,9,9,10,10,11,11,12,12,13,13,14,14,15,15,17,17,18,18,19,19,20,20,21,21,22,22,24,24,26,26],"right_children":[2,4,6,8,10,12,14,-1,16,18,20,22,24,26,28,30,-1,32,34,36,38,40,42,-1,44,-1,46,-1,-1,-1,-1,-1,-1,-1,-1,-1,-1,-1,-1,-1,-1,-1,-1,-1,-1,-1,-1],"split_conditions":[-2E-1,-6E-1,1.9E-3,-8E-1,-4E-1,9.927008E0,3E-1,-6.4888396E-3,1E0,-5E-3,7.4E-3,6E0,2E1,5E0,9.18E-2,-3E0,-4.9563358E-3,9.1E-3,1E0,1E0,8.756682E0,1E0,2E1,2.9777826E-3,4.1E-2,1.8691417E-3,4.357143E1,2.9669802E-3,2.028413E-3,-1.8130857E-3,-2.9265396E-3,-8.943377E-4,-1.9359868E-3,-2.7067878E-3,-3.35598E-4,1.6608642E-4,-1.2338416E-3,-4.949954E-4,-1.9116156E-3,8.051885E-3,1.722169E-3,3.376335E-4,1.5585799E-3,1.6352817E-3,3.735294E-4,9.536436E-4,2.5190853E-3],"split_indices":[9,9,12,9,9,18,9,0,17,10,12,21,8,18,12,21,0,12,7,6,16,6,21,0,10,0,18,0,0,0,0,0,0,0,0,0,0,0,0,0,0,0,0,0,0,0,0],"split_type":[0,0,0,0,0,0,0,0,0,0,0,0,0,0,0,0,0,0,0,0,0,0,0,0,0,0,0,0,0,0,0,0,0,0,0,0,0,0,0,0,0,0,0,0,0,0,0],"sum_hessian":[3.93E2,2.33E2,1.6E2,4.2E1,1.91E2,2.1E1,1.39E2,4E0,3.8E1,7.6E1,1.15E2,9E0,1.2E1,9.5E1,4.4E1,3.1E1,7E0,6.1E1,1.5E1,8.3E1,3.2E1,6E0,3E0,3E0,9E0,1.2E1,8.3E1,9E0,3.5E1,9E0,2.2E1,4.6E1,1.5E1,1.4E1,1E0,7.5E1,8E0,2.5E1,7E0,5E0,1E0,1E0,2E0,7E0,2E0,8.1E1,2E0],"tree_param":{"num_deleted":"0","num_feature":"22","num_nodes":"47","size_leaf_vector":"1"}},{"base_weights":[1.5035836E-3,-8.81739E-3,1.1657204E-2,-8.1798425E-3,-3.6577776E-3,-1.757411E-2,1.28454035E-2,-9.246236E-3,-1.4785241E-3,-2.0233393E-2,5.2043797E-5,9.799839E-3,2.0774756E-2,-1.0169057E-2,-7.76929E-4,-6.0437736E-4,-1.210317E-3,-2.2386075E-3,-3.6586524E-4,7.6898877E-3,2.9333998E-2,2.5245937E-2,1.6512275E-2,-1.1241914E-3,-4.2469564E-4,-4.7331155E-4,8.044449E-5,-9.935856E-4,5.872399E-5,3.7570035E-3,6.647179E-4,6.7600133E-3,4.8157E-4,3.48753E-3,1.7785256E-3,-1.332432E-3,1.8053735E-3],"categories":[],"categories_nodes":[],"categories_segments":[],"categories_sizes":[],"default_left":[0,0,0,0,0,0,0,0,0,0,0,0,0,0,0,0,0,0,0,0,0,0,0,0,0,0,0,0,0,0,0,0,0,0,0,0,0],"id":32,"left_children":[1,3,5,7,-1,9,11,13,15,17,-1,19,21,23,25,27,-1,-1,-1,29,31,33,35,-1,-1,-1,-1,-1,-1,-1,-1,-1,-1,-1,-1,-1,-1],"loss_changes":[4.034416E-2,3.081224E-3,6.963875E-3,1.3298234E-3,0E0,3.9547845E-4,4.31234E-3,1.2582354E-3,2.4344762E-4,1.6785809E-4,0E0,5.4210313E-3,5.551055E-4,8.7987725E-4,1.10163106E-4,2.9494302E-4,0E0,0E0,0E0,3.6448007E-3,1.1871325E-2,1.0320898E-3,1.5743207E-3,0E0,0E0,0E0,0E0,0E0,0E0,0E0,0E0,0E0,0E0,0E0,0E0,0E0,0E0],"parents":[2147483647,0,0,1,1,2,2,3,3,5,5,6,6,7,7,8,8,9,9,11,11,12,12,13,13,14,14,15,15,19,19,20,20,21,21,22,22],"right_children":[2,4,6,8,-1,10,12,14,16,18,-1,20,22,24,26,28,-1,-1,-1,30,32,34,36,-1,-1,-1,-1,-1,-1,-1,-1,-1,-1,-1,-1,-1,-1],"split_conditions":[-1E-3,1.1415908E1,-2.5E0,7.057335E-2,-3.6577776E-3,1E0,8E-2,1E0,1E0,4.6762478E-1,5.2043797E-5,1E0,1E0,1.89E2,-7.26E-2,-8E0,-1.210317E-3,-2.2386075E-3,-3.6586524E-4,0E0,4.1E-2,1E0,1E0,-1.1241914E-3,-4.2469564E-4,-4.7331155E-4,8.044449E-5,-9.935856E-4,5.872399E-5,3.7570035E-3,6.647179E-4,6.7600133E-3,4.8157E-4,3.48753E-3,1.7785256E-3,-1.332432E-3,1.8053735E-3],"split_indices":[10,16,21,13,0,2,10,5,6,14,0,6,2,17,10,21,0,0,0,10,10,6,17,0,0,0,0,0,0,0,0,0,0,0,0,0,0],"split_type":[0,0,0,0,0,0,0,0,0,0,0,0,0,0,0,0,0,0,0,0,0,0,0,0,0,0,0,0,0,0,0,0,0,0,0,0,0],"sum_hessian":[3.83E2,1.9E2,1.93E2,1.87E2,3E0,7E0,1.86E2,1.61E2,2.6E1,6E0,1E0,1.36E2,5E1,1.45E2,1.6E1,2.5E1,1E0,5E0,1E0,1.24E2,1.2E1,2.2E1,2.8E1,1.22E2,2.3E1,4E0,1.2E1,2E0,2.3E1,3E0,1.21E2,4E0,8E0,8E0,1.4E1,1E0,2.7E1],"tree_param":{"num_deleted":"0","num_feature":"22","num_nodes":"37","size_leaf_vector":"1"}},{"base_weights":[3.931195E-4,-1.0474909E-2,1.7232362E-2,-3.0276725E-2,-5.985571E-3,1.4677863E-2,1.0744077E-1,-5.9418576E-3,-2.6605623E-2,-4.5827185E-3,-2.865226E-2,8.447333E-3,2.0161062E-2,1.2533468E-2,2.687952E-3,-2.257429E-2,-4.568746E-3,-1.0028321E-2,-1.5441851E-3,-3.0466095E-2,-5.2569585E-4,1.0907462E-2,4.921121E-3,3.7723873E-2,1.6714573E-2,-2.6518265E-3,-1.2805149E-3,-1.0486924E-3,-4.1290372E-5,-6.1041224E-5,-1.430726E-3,-3.2119944E-3,-7.790729E-4,1.1498326E-3,2.567379E-4,6.7501364E-4,9.819906E-5,4.5506107E-3,1.0782887E-3,1.1857963E-3,1.8389941E-3],"categories":[],"categories_nodes":[],"categories_segments":[],"categories_sizes":[],"default_left":[0,0,0,0,0,0,0,0,0,0,0,0,0,0,0,0,0,0,0,0,0,0,0,0,0,0,0,0,0,0,0,0,0,0,0,0,0,0,0,0,0],"id":33,"left_children":[1,3,5,7,9,11,13,-1,15,17,19,21,23,-1,-1,25,-1,27,29,31,-1,33,35,37,39,-1,-1,-1,-1,-1,-1,-1,-1,-1,-1,-1,-1,-1,-1,-1,-1],"loss_changes":[7.045611E-2,2.0620685E-2,3.321904E-2,3.0193925E-3,5.9739156E-3,4.885856E-3,2.3972914E-3,0E0,2.0456463E-3,2.996004E-3,3.066277E-4,5.6224316E-4,4.0908046E-3,0E0,0E0,1.008952E-3,0E0,2.8229738E-4,1.3975687E-3,1.247786E-4,0E0,1.7252192E-4,2.16718E-4,2.0252448E-3,3.270842E-4,0E0,0E0,0E0,0E0,0E0,0E0,0E0,0E0,0E0,0E0,0E0,0E0,0E0,0E0,0E0,0E0],"parents":[2147483647,0,0,1,1,2,2,3,3,4,4,5,5,6,6,8,8,9,9,10,10,11,11,12,12,15,15,17,17,18,18,19,19,21,21,22,22,23,23,24,24],"right_children":[2,4,6,8,10,12,14,-1,16,18,20,22,24,-1,-1,26,-1,28,30,32,-1,34,36,38,40,-1,-1,-1,-1,-1,-1,-1,-1,-1,-1,-1,-1,-1,-1,-1,-1],"split_conditions":[1E-1,-6E-1,5E-1,-8E-1,3.33E-2,2E-1,1E0,-5.9418576E-3,1E1,-4E-1,-3E-1,8.79E-2,1.9E-3,1.2533468E-2,2.687952E-3,1E0,-4.568746E-3,4.6053988E-1,1E0,7.2107543E-3,-5.2569585E-4,9.8870535E0,1E0,6E0,5.64E-2,-2.6518265E-3,-1.2805149E-3,-1.0486924E-3,-4.1290372E-5,-6.1041224E-5,-1.430726E-3,-3.2119944E-3,-7.790729E-4,1.1498326E-3,2.567379E-4,6.7501364E-4,9.819906E-5,4.5506107E-3,1.0782887E-3,1.1857963E-3,1.8389941E-3],"split_indices":[9,9,9,9,10,9,2,0,19,9,9,12,12,0,0,2,0,14,6,13,0,16,2,21,10,0,0,0,0,0,0,0,0,0,0,0,0,0,0,0,0],"split_type":[0,0,0,0,0,0,0,0,0,0,0,0,0,0,0,0,0,0,0,0,0,0,0,0,0,0,0,0,0,0,0,0,0,0,0,0,0,0,0,0,0],"sum_hessian":[3.83E2,2.33E2,1.5E2,4.2E1,1.91E2,1.47E2,3E0,3E0,3.9E1,1.81E2,1E1,7E1,7.7E1,2E0,1E0,3.4E1,5E0,6.4E1,1.17E2,9E0,1E0,4E1,3E1,1.1E1,6.6E1,2.3E1,1.1E1,6.1E1,3E0,1.1E2,7E0,8E0,1E0,3.7E1,3E0,2E1,1E1,8E0,3E0,1.9E1,4.7E1],"tree_param":{"num_deleted":"0","num_feature":"22","num_nodes":"41","size_leaf_vector":"1"}},{"base_weights":[2.7264789E-4,-1.942267E-2,8.0754245E-3,-4.0379282E-2,-1.491538E-2,7.077378E-3,1.3577983E-2,-9.05022E-4,-4.1689802E-2,-1.0783342E-2,-2.6124038E-2,-1.1122366E-3,1.3704E-2,-1.5641054E-3,-4.4120234E-3,-1.8485397E-2,-8.906832E-3,-1.1851001E-2,-2.8505152E-2,-3.5291383E-4,-1.3210987E-2,2.8393019E-2,1.0581628E-2,-2.1513926E-3,-7.0498587E-4,-5.7303556E-4,-1.6995411E-3,-4.3793322E-4,-1.5372336E-3,-2.194158E-3,-3.4787364E-3,3.419297E-4,-3.0909927E-4,-1.8320055E-3,-4.7991725E-4,4.225101E-3,1.448667E-3,6.7648495E-4,1.4287507E-3],"categories":[],"categories_nodes":[],"categories_segments":[],"categories_sizes":[],"default_left":[0,0,0,0,0,0,0,0,0,0,0,0,0,0,0,0,0,0,0,0,0,0,0,0,0,0,0,0,0,0,0,0,0,0,0,0,0,0,0],"id":34,"left_children":[1,3,5,7,9,11,-1,-1,13,15,17,19,21,-1,-1,23,25,27,29,31,33,35,37,-1,-1,-1,-1,-1,-1,-1,-1,-1,-1,-1,-1,-1,-1,-1,-1],"loss_changes":[5.6864098E-2,9.31577E-3,3.2814585E-2,3.617294E-4,3.793979E-3,1.4342388E-2,0E0,0E0,3.8617477E-4,7.8925025E-4,4.4385716E-4,1.0885736E-3,6.3957833E-3,0E0,0E0,2.6392424E-4,1.3157357E-3,6.423076E-5,2.0151027E-5,1.1777019E-3,2.1291466E-4,4.2057727E-3,1.6289782E-3,0E0,0E0,0E0,0E0,0E0,0E0,0E0,0E0,0E0,0E0,0E0,0E0,0E0,0E0,0E0,0E0],"parents":[2147483647,0,0,1,1,2,2,3,3,4,4,5,5,8,8,9,9,10,10,11,11,12,12,15,15,16,16,17,17,18,18,19,19,20,20,21,21,22,22],"right_children":[2,4,6,8,10,12,-1,-1,14,16,18,20,22,-1,-1,24,26,28,30,32,34,36,38,-1,-1,-1,-1,-1,-1,-1,-1,-1,-1,-1,-1,-1,-1,-1,-1],"split_conditions":[-4E-1,-7E-1,8E-1,-1.467E-1,-1.2E-2,1E-1,1.3577983E-2,-9.05022E-4,-7.1E1,-6E-1,-2.5E0,1E-2,5E0,-1.5641054E-3,-4.4120234E-3,1E0,6.2E-3,2.5E-3,1E-2,9.84375E0,-3E-1,1.9E-3,2E-1,-2.1513926E-3,-7.0498587E-4,-5.7303556E-4,-1.6995411E-3,-4.3793322E-4,-1.5372336E-3,-2.194158E-3,-3.4787364E-3,3.419297E-4,-3.0909927E-4,-1.8320055E-3,-4.7991725E-4,4.225101E-3,1.448667E-3,6.7648495E-4,1.4287507E-3],"split_indices":[9,9,9,10,10,9,0,0,21,9,21,10,18,0,0,2,12,10,10,18,9,12,9,0,0,0,0,0,0,0,0,0,0,0,0,0,0,0,0],"split_type":[0,0,0,0,0,0,0,0,0,0,0,0,0,0,0,0,0,0,0,0,0,0,0,0,0,0,0,0,0,0,0,0,0,0,0,0,0,0,0],"sum_hessian":[3.68E2,1.04E2,2.64E2,1.7E1,8.7E1,2.63E2,1E0,1E0,1.6E1,6.5E1,2.2E1,1.18E2,1.45E2,2E0,1.4E1,1.1E1,5.4E1,4E0,1.8E1,1.12E2,6E0,2.4E1,1.21E2,8E0,3E0,4E1,1.4E1,2E0,2E0,1.1E1,7E0,4.7E1,6.5E1,3E0,3E0,1.1E1,1.3E1,6.1E1,6E1],"tree_param":{"num_deleted":"0","num_feature":"22","num_nodes":"39","size_leaf_vector":"1"}},{"base_weights":[-3.408836E-4,-8.610431E-3,1.3369983E-2,-2.3964861E-2,-3.7716911E-3,2.8638288E-2,1.064129E-2,-5.3278296E-3,-2.026402E-2,-7.917085E-3,-7.873869E-4,4.3010443E-2,1.5379839E-2,6.9757174E-3,1.3979013E-2,-8.9891795E-3,-2.3985485E-2,4.0284544E-3,-9.134407E-3,3.5089154E-3,-3.0718856E-3,5.2450307E-2,3.5006602E-3,3.7138779E-3,1.8508239E-2,6.1142338E-3,2.216732E-3,1.7848749E-2,1.14940675E-2,-4.3605865E-4,-1.0867417E-3,-1.2302041E-3,-2.6091002E-3,6.498971E-4,-6.6325814E-4,-6.9686974E-4,-1.6278847E-3,9.355377E-4,-9.6494354E-5,-1.905721E-4,-1.2308758E-3,5.7488135E-3,8.5927546E-4,2.2347273E-5,5.027518E-4,5.43688E-4,-7.275641E-5,2.370681E-3,1.1091392E-3,8.6494087E-4,2.601443E-4,1.0152599E-3,2.1789598E-3,5.237165E-4,1.3231396E-3],"categories":[],"categories_nodes":[],"categories_segments":[],"categories_sizes":[],"default_left":[0,0,0,0,0,0,0,0,0,0,0,0,0,0,0,0,0,0,0,0,0,0,0,0,0,0,0,0,0,0,0,0,0,0,0,0,0,0,0,0,0,0,0,0,0,0,0,0,0,0,0,0,0,0,0],"id":35,"left_children":[1,3,5,7,9,11,13,-1,15,17,19,21,23,25,27,29,31,33,35,37,39,41,43,45,47,49,-1,51,53,-1,-1,-1,-1,-1,-1,-1,-1,-1,-1,-1,-1,-1,-1,-1,-1,-1,-1,-1,-1,-1,-1,-1,-1,-1,-1],"loss_changes":[4.490127E-2,1.826075E-2,5.9029665E-3,5.3209476E-3,2.3319072E-3,3.5306606E-3,1.4685234E-3,0E0,2.0501725E-3,1.185582E-3,1.1002326E-3,3.5460591E-3,4.0570786E-4,6.8896497E-4,4.295064E-4,8.301565E-5,6.6301227E-4,2.5381107E-4,1.0005976E-3,1.0291208E-3,7.628781E-4,1.2735929E-3,1.3887882E-5,3.4566132E-5,1.2262864E-4,5.2073714E-4,0E0,5.066837E-4,3.981283E-4,0E0,0E0,0E0,0E0,0E0,0E0,0E0,0E0,0E0,0E0,0E0,0E0,0E0,0E0,0E0,0E0,0E0,0E0,0E0,0E0,0E0,0E0,0E0,0E0,0E0,0E0],"parents":[2147483647,0,0,1,1,2,2,3,3,4,4,5,5,6,6,8,8,9,9,10,10,11,11,12,12,13,13,14,14,15,15,16,16,17,17,18,18,19,19,20,20,21,21,22,22,23,23,24,24,25,25,27,27,28,28],"right_children":[2,4,6,8,10,12,14,-1,16,18,20,22,24,26,28,30,32,34,36,38,40,42,44,46,48,50,-1,52,54,-1,-1,-1,-1,-1,-1,-1,-1,-1,-1,-1,-1,-1,-1,-1,-1,-1,-1,-1,-1,-1,-1,-1,-1,-1,-1],"split_conditions":[1E-1,-5E-1,1.9E-3,-8E-1,-3E-1,5E0,2E-1,-5.3278296E-3,-2.5E0,-2E0,3.1E1,6E0,2E1,4.357143E1,9.69E-2,3E1,-1.17E-1,-1E-3,-1.45E-2,9.268292E0,6E1,3.1E1,1E0,1E0,5E1,8.79E-2,2.216732E-3,1.6E1,3E-1,-4.3605865E-4,-1.0867417E-3,-1.2302041E-3,-2.6091002E-3,6.498971E-4,-6.6325814E-4,-6.9686974E-4,-1.6278847E-3,9.355377E-4,-9.6494354E-5,-1.905721E-4,-1.2308758E-3,5.7488135E-3,8.5927546E-4,2.2347273E-5,5.027518E-4,5.43688E-4,-7.275641E-5,2.370681E-3,1.1091392E-3,8.6494087E-4,2.601443E-4,1.0152599E-3,2.1789598E-3,5.237165E-4,1.3231396E-3],"split_indices":[9,9,12,9,9,17,9,0,21,21,8,21,19,18,12,8,10,10,10,18,19,8,6,5,19,12,0,17,9,0,0,0,0,0,0,0,0,0,0,0,0,0,0,0,0,0,0,0,0,0,0,0,0,0,0],"split_type":[0,0,0,0,0,0,0,0,0,0,0,0,0,0,0,0,0,0,0,0,0,0,0,0,0,0,0,0,0,0,0,0,0,0,0,0,0,0,0,0,0,0,0,0,0,0,0,0,0,0,0,0,0,0,0],"sum_hessian":[3.94E2,2.46E2,1.48E2,5.8E1,1.88E2,2.1E1,1.27E2,5E0,5.3E1,7.8E1,1.1E2,9E0,1.2E1,6.2E1,6.5E1,1.4E1,3.9E1,7E0,7.1E1,3.8E1,7.2E1,7E0,2E0,3E0,9E0,6E1,2E0,2.3E1,4.2E1,5E0,9E0,7E0,3.2E1,6E0,1E0,5.6E1,1.5E1,1.6E1,2.2E1,6.5E1,7E0,6E0,1E0,1E0,1E0,2E0,1E0,4E0,5E0,3.4E1,2.6E1,9E0,1.4E1,1E1,3.2E1],"tree_param":{"num_deleted":"0","num_feature":"22","num_nodes":"55","size_leaf_vector":"1"}},{"base_weights":[-6.948713E-4,-8.416394E-3,1.1726867E-2,-3.514161E-2,-6.070051E-3,2.3345571E-2,9.175541E-3,-8.152206E-3,-3.7837293E-2,-4.8650047E-3,-2.4883864E-2,4.0084615E-2,1.5068837E-2,6.818768E-3,1.4469153E-2,3.6606194E-5,-1.2594372E-3,-4.0555885E-3,-1.1631906E-3,-9.353387E-3,-1.2940968E-3,-3.4045104E-2,-1.2167786E-3,5.777658E-2,7.948503E-3,1.2932473E-2,2.6761696E-3,1.18550975E-2,5.237219E-3,2.7987591E-3,1.2897026E-2,-7.771393E-4,-1.8369245E-3,9.3877147E-4,-2.1642089E-4,-1.8324129E-3,-4.1254805E-3,6.591311E-3,1.2615233E-3,2.1229685E-5,1.0456473E-3,1.0584189E-3,1.8505423E-3,5.496239E-4,1.485631E-3,2.4113854E-4,7.5396366E-4,-6.9119036E-5,1.3317008E-3],"categories":[],"categories_nodes":[],"categories_segments":[],"categories_sizes":[],"default_left":[0,0,0,0,0,0,0,0,0,0,0,0,0,0,0,0,0,0,0,0,0,0,0,0,0,0,0,0,0,0,0,0,0,0,0,0,0,0,0,0,0,0,0,0,0,0,0,0,0],"id":36,"left_children":[1,3,5,7,9,11,13,15,17,19,21,23,25,27,29,-1,-1,-1,-1,31,33,35,-1,37,39,41,-1,43,45,-1,47,-1,-1,-1,-1,-1,-1,-1,-1,-1,-1,-1,-1,-1,-1,-1,-1,-1,-1],"loss_changes":[3.7025873E-2,1.471084E-2,4.1729715E-3,1.0738857E-3,4.8666745E-3,2.9981313E-3,1.4358675E-3,1.18129E-4,7.393677E-4,3.321636E-3,1.1001816E-3,4.089171E-3,1.2852903E-4,6.308849E-4,4.2539323E-4,0E0,0E0,0E0,0E0,1.169445E-3,1.1077587E-3,3.7446618E-5,0E0,1.0057744E-3,7.538879E-5,3.969879E-5,0E0,3.0003185E-4,4.2424386E-4,0E0,2.0894315E-4,0E0,0E0,0E0,0E0,0E0,0E0,0E0,0E0,0E0,0E0,0E0,0E0,0E0,0E0,0E0,0E0,0E0,0E0],"parents":[2147483647,0,0,1,1,2,2,3,3,4,4,5,5,6,6,7,7,8,8,9,9,10,10,11,11,12,12,13,13,14,14,19,19,20,20,21,21,23,23,24,24,25,25,27,27,28,28,30,30],"right_children":[2,4,6,8,10,12,14,16,18,20,22,24,26,28,30,-1,-1,-1,-1,32,34,36,-1,38,40,42,-1,44,46,-1,48,-1,-1,-1,-1,-1,-1,-1,-1,-1,-1,-1,-1,-1,-1,-1,-1,-1,-1],"split_conditions":[1E-1,-7E-1,5E0,-4.8E1,2.59E-2,2.5E1,3E-1,1E0,5.1E1,-4E-1,2.5E1,6E0,1E0,2.6E-2,4.1E-2,3.6606194E-5,-1.2594372E-3,-4.0555885E-3,-1.1631906E-3,1.4565217E1,-1.044E-1,4.27E-2,-1.2167786E-3,1E0,2E1,8.193511E-2,2.6761696E-3,4.5E1,1.9E1,2.7987591E-3,8.2E-2,-7.771393E-4,-1.8369245E-3,9.3877147E-4,-2.1642089E-4,-1.8324129E-3,-4.1254805E-3,6.591311E-3,1.2615233E-3,2.1229685E-5,1.0456473E-3,1.0584189E-3,1.8505423E-3,5.496239E-4,1.485631E-3,2.4113854E-4,7.5396366E-4,-6.9119036E-5,1.3317008E-3],"split_indices":[9,9,18,21,10,8,9,0,8,9,8,21,5,10,10,0,0,0,0,18,10,10,0,5,21,14,0,19,17,0,10,0,0,0,0,0,0,0,0,0,0,0,0,0,0,0,0,0,0],"split_type":[0,0,0,0,0,0,0,0,0,0,0,0,0,0,0,0,0,0,0,0,0,0,0,0,0,0,0,0,0,0,0,0,0,0,0,0,0,0,0,0,0,0,0,0,0,0,0,0,0],"sum_hessian":[3.84E2,2.37E2,1.47E2,1.8E1,2.19E2,2.5E1,1.22E2,2E0,1.6E1,2.07E2,1.2E1,7E0,1.8E1,8.6E1,3.6E1,1E0,1E0,1.4E1,2E0,9.1E1,1.16E2,6E0,6E0,4E0,3E0,1.7E1,1E0,1.9E1,6.7E1,2E0,3.4E1,7.9E1,1.2E1,8E0,1.08E2,3E0,3E0,3E0,1E0,1E0,2E0,1.4E1,3E0,7E0,1.2E1,3.1E1,3.6E1,1E0,3.3E1],"tree_param":{"num_deleted":"0","num_feature":"22","num_nodes":"49","size_leaf_vector":"1"}},{"base_weights":[5.574243E-4,-6.942621E-3,1.207698E-2,-2.4112934E-2,-3.45507E-3,1.04504E-2,1.28032E-2,-4.5458814E-3,-1.963681E-2,-6.8707666E-3,-8.929461E-4,2.2046367E-2,8.1767505E-3,-2.2970976E-2,-7.822905E-3,-5.490954E-3,-1.6394303E-3,1.0956251E-3,-4.1093887E-3,3.4597974E-2,8.764393E-3,6.47301E-3,1.2146038E-2,-2.4515141E-3,-8.349285E-4,-1.292629E-4,-2.045258E-3,-4.1727565E-4,-1.5844494E-3,5.4401454E-7,7.636191E-4,-7.0503476E-4,1.8504243E-4,4.016049E-3,4.5235927E-4,-1.878772E-4,1.2145219E-3,8.9052005E-4,3.5509092E-4,1.6579125E-3,1.0753211E-3],"categories":[],"categories_nodes":[],"categories_segments":[],"categories_sizes":[],"default_left":[0,0,0,0,0,0,0,0,0,0,0,0,0,0,0,0,0,0,0,0,0,0,0,0,0,0,0,0,0,0,0,0,0,0,0,0,0,0,0,0,0],"id":37,"left_children":[1,3,5,7,9,11,-1,-1,13,15,17,19,21,23,25,27,-1,29,31,33,35,37,39,-1,-1,-1,-1,-1,-1,-1,-1,-1,-1,-1,-1,-1,-1,-1,-1,-1,-1],"loss_changes":[3.3087574E-2,1.3809392E-2,2.7142143E-2,2.8336588E-3,1.6916438E-3,3.7745107E-3,0E0,0E0,1.1595441E-3,1.0006572E-3,7.2086835E-4,3.6978135E-3,7.8023225E-4,3.8235262E-4,7.1583973E-4,9.438379E-4,0E0,4.990883E-4,7.6673145E-4,1.825802E-3,4.90593E-4,6.1512506E-4,5.017873E-5,0E0,0E0,0E0,0E0,0E0,0E0,0E0,0E0,0E0,0E0,0E0,0E0,0E0,0E0,0E0,0E0,0E0,0E0],"parents":[2147483647,0,0,1,1,2,2,3,3,4,4,5,5,8,8,9,9,10,10,11,11,12,12,13,13,14,14,15,15,17,17,18,18,19,19,20,20,21,21,22,22],"right_children":[2,4,6,8,10,12,-1,-1,14,16,18,20,22,24,26,28,-1,30,32,34,36,38,40,-1,-1,-1,-1,-1,-1,-1,-1,-1,-1,-1,-1,-1,-1,-1,-1,-1,-1],"split_conditions":[1E-1,-6E-1,8E-1,-8E-1,-3E-1,1.9E-3,1.28032E-2,-4.5458814E-3,1E0,1E-2,1.9E-3,9.927008E0,3E-1,5.1E1,8.193511E-2,8.47E-2,-1.6394303E-3,0E0,1E0,3.1E1,8E0,9.69E-2,8.85E-2,-2.4515141E-3,-8.349285E-4,-1.292629E-4,-2.045258E-3,-4.1727565E-4,-1.5844494E-3,5.4401454E-7,7.636191E-4,-7.0503476E-4,1.8504243E-4,4.016049E-3,4.5235927E-4,-1.878772E-4,1.2145219E-3,8.9052005E-4,3.5509092E-4,1.6579125E-3,1.0753211E-3],"split_indices":[9,9,9,9,9,12,0,0,2,10,12,18,9,8,14,12,0,12,4,8,17,12,12,0,0,0,0,0,0,0,0,0,0,0,0,0,0,0,0,0,0],"split_type":[0,0,0,0,0,0,0,0,0,0,0,0,0,0,0,0,0,0,0,0,0,0,0,0,0,0,0,0,0,0,0,0,0,0,0,0,0,0,0,0,0],"sum_hessian":[3.81E2,2.31E2,1.5E2,3.8E1,1.93E2,1.49E2,1E0,5E0,3.3E1,8.2E1,1.11E2,2.3E1,1.26E2,2.5E1,8E0,7.3E1,9E0,6.9E1,4.2E1,1.1E1,1.2E1,9E1,3.6E1,2.2E1,3E0,6E0,2E0,6.6E1,7E0,6E1,9E0,2.8E1,1.4E1,9E0,2E0,3E0,9E0,4.8E1,4.2E1,6E0,3E1],"tree_param":{"num_deleted":"0","num_feature":"22","num_nodes":"41","size_leaf_vector":"1"}},{"base_weights":[-5.136666E-4,-6.9976225E-3,1.014841E-2,-1.8291278E-2,-3.4610142E-3,2.214233E-2,7.9562925E-3,-4.167059E-3,-1.524191E-2,-6.9522094E-3,-1.4493949E-3,3.1957425E-2,1.2889E-2,5.410504E-3,1.0298208E-2,-1.3220518E-2,-2.8535824E-3,-5.80925E-3,-2.9398927E-3,-1.7096272E-3,-1.0322395E-3,3.529863E-2,1.2395069E-3,8.365188E-3,2.5179978E-3,4.6177367E-3,1.946235E-3,1.3269223E-2,8.053475E-3,-1.0048941E-3,-2.5495074E-3,-6.170665E-4,3.716886E-4,5.777086E-4,-1.8006173E-4,8.377723E-4,3.7947658E-3,-1.2930707E-4,9.4603206E-4,8.059327E-4,2.0994733E-4,8.677444E-4,1.7903179E-3,3.5850852E-4,9.470675E-4],"categories":[],"categories_nodes":[],"categories_segments":[],"categories_sizes":[],"default_left":[0,0,0,0,0,0,0,0,0,0,0,0,0,0,0,0,0,0,0,0,0,0,0,0,0,0,0,0,0,0,0,0,0,0,0,0,0,0,0,0,0,0,0,0,0],"id":38,"left_children":[1,3,5,7,9,11,13,-1,15,17,19,21,23,25,27,29,-1,31,-1,-1,33,35,-1,37,-1,39,-1,41,43,-1,-1,-1,-1,-1,-1,-1,-1,-1,-1,-1,-1,-1,-1,-1,-1],"loss_changes":[2.6687002E-2,9.522591E-3,3.6624745E-3,3.4285132E-3,1.2821471E-3,1.5861904E-3,6.8953447E-4,0E0,1.0200962E-3,1.5481457E-3,7.525596E-4,2.1609012E-4,5.1219156E-4,6.007983E-4,3.1996146E-4,1.5734974E-3,0E0,2.4672365E-4,0E0,0E0,6.173299E-4,2.525989E-4,0E0,1.2858084E-4,0E0,5.030893E-4,0E0,3.978773E-4,2.1301839E-4,0E0,0E0,0E0,0E0,0E0,0E0,0E0,0E0,0E0,0E0,0E0,0E0,0E0,0E0,0E0,0E0],"parents":[2147483647,0,0,1,1,2,2,3,3,4,4,5,5,6,6,8,8,9,9,10,10,11,11,12,12,13,13,14,14,15,15,17,17,20,20,21,21,23,23,25,25,27,27,28,28],"right_children":[2,4,6,8,10,12,14,-1,16,18,20,22,24,26,28,30,-1,32,-1,-1,34,36,-1,38,-1,40,-1,42,44,-1,-1,-1,-1,-1,-1,-1,-1,-1,-1,-1,-1,-1,-1,-1,-1],"split_conditions":[1E-1,-5E-1,1.9E-3,-8E-1,-4E-1,2.5E1,2E-1,-4.167059E-3,8.756682E0,9.69E-2,-9.375529E-2,1.0035714E1,5.16E-2,1E0,9.69E-2,1E-2,-2.8535824E-3,4.6762478E-1,-2.9398927E-3,-1.7096272E-3,-1.044E-1,0E0,1.2395069E-3,3E1,2.5179978E-3,6.78E-2,1.946235E-3,7.5E1,3E-1,-1.0048941E-3,-2.5495074E-3,-6.170665E-4,3.716886E-4,5.777086E-4,-1.8006173E-4,8.377723E-4,3.7947658E-3,-1.2930707E-4,9.4603206E-4,8.059327E-4,2.0994733E-4,8.677444E-4,1.7903179E-3,3.5850852E-4,9.470675E-4],"split_indices":[9,9,12,9,9,8,9,0,16,12,13,18,10,4,12,10,0,14,0,0,10,10,0,8,0,12,0,17,9,0,0,0,0,0,0,0,0,0,0,0,0,0,0,0,0],"split_type":[0,0,0,0,0,0,0,0,0,0,0,0,0,0,0,0,0,0,0,0,0,0,0,0,0,0,0,0,0,0,0,0,0,0,0,0,0,0,0,0,0,0,0,0,0],"sum_hessian":[3.84E2,2.39E2,1.45E2,5.6E1,1.83E2,2.1E1,1.24E2,5E0,5.1E1,6.6E1,1.17E2,9E0,1.2E1,6.1E1,6.3E1,4.6E1,5E0,6.4E1,2E0,2E0,1.15E2,7E0,2E0,1E1,2E0,5.9E1,2E0,2.5E1,3.8E1,3.8E1,8E0,6.2E1,2E0,1.1E1,1.04E2,1E0,6E0,1E0,9E0,2.4E1,3.5E1,1.4E1,1.1E1,1E1,2.8E1],"tree_param":{"num_deleted":"0","num_feature":"22","num_nodes":"45","size_leaf_vector":"1"}},{"base_weights":[-5.47491E-4,-1.1405786E-2,5.2428707E-3,-1.8234089E-2,-6.246286E-3,2.1061879E-3,1.2475654E-2,-3.1333398E-2,-1.3433508E-2,-4.913227E-3,-2.8679774E-3,1.4144781E-2,1.424376E-3,4.6990397E-3,1.13436375E-2,1.5119315E-4,-3.3976266E-3,-1.1007033E-2,-2.6157847E-2,5.0640404E-3,-5.896979E-3,3.9296886E-3,1.3446255E-3,-1.2622266E-3,3.934105E-3,1.4855708E-2,7.2064297E-3,-1.235729E-3,-4.5676978E-4,-2.8343534E-3,-7.6147023E-4,7.42949E-4,-4.5643302E-4,-4.3529193E-4,-1.1857152E-3,2.0136785E-4,-1.334846E-4,6.466457E-5,-5.4112566E-4,3.365491E-4,1.816486E-3,8.998124E-4,2.0864238E-3,9.176265E-5,8.745859E-4],"categories":[],"categories_nodes":[],"categories_segments":[],"categories_sizes":[],"default_left":[0,0,0,0,0,0,0,0,0,0,0,0,0,0,0,0,0,0,0,0,0,0,0,0,0,0,0,0,0,0,0,0,0,0,0,0,0,0,0,0,0,0,0,0,0],"id":39,"left_children":[1,3,5,7,9,11,13,15,17,19,-1,21,23,-1,25,-1,-1,27,29,31,33,-1,35,37,39,41,43,-1,-1,-1,-1,-1,-1,-1,-1,-1,-1,-1,-1,-1,-1,-1,-1,-1,-1],"loss_changes":[2.3322977E-2,4.4308547E-3,5.463964E-3,3.037721E-3,2.1019764E-3,1.3752221E-3,2.319158E-3,1.2666499E-3,1.0088407E-3,7.365539E-4,0E0,2.8447178E-3,1.0972742E-3,0E0,9.3911495E-4,0E0,0E0,2.6526116E-4,2.7349684E-5,1.9333865E-4,5.557756E-4,0E0,1.5236908E-5,6.291766E-4,6.185784E-4,1.1496898E-3,3.3081544E-4,0E0,0E0,0E0,0E0,0E0,0E0,0E0,0E0,0E0,0E0,0E0,0E0,0E0,0E0,0E0,0E0,0E0,0E0],"parents":[2147483647,0,0,1,1,2,2,3,3,4,4,5,5,6,6,7,7,8,8,9,9,11,11,12,12,14,14,17,17,18,18,19,19,20,20,22,22,23,23,24,24,25,25,26,26],"right_children":[2,4,6,8,10,12,14,16,18,20,-1,22,24,-1,26,-1,-1,28,30,32,34,-1,36,38,40,42,44,-1,-1,-1,-1,-1,-1,-1,-1,-1,-1,-1,-1,-1,-1,-1,-1,-1,-1],"split_conditions":[-3E-1,-5E-1,2E-1,2E1,8.07E-2,1.1E1,0E0,-1.381E-1,8.756682E0,-2E0,-2.8679774E-3,4.786325E0,-3.07E-2,4.6990397E-3,9.69E-2,1.5119315E-4,-3.3976266E-3,-6E-1,1.9E-3,-1E-3,-1.1E-2,3.9296886E-3,1E0,1.05E-2,4.357143E1,5.21E-2,1.101E-1,-1.235729E-3,-4.5676978E-4,-2.8343534E-3,-7.6147023E-4,7.42949E-4,-4.5643302E-4,-4.3529193E-4,-1.1857152E-3,2.0136785E-4,-1.334846E-4,6.466457E-5,-5.4112566E-4,3.365491E-4,1.816486E-3,8.998124E-4,2.0864238E-3,9.176265E-5,8.745859E-4],"split_indices":[9,9,9,8,12,8,10,10,16,21,0,18,10,0,12,0,0,9,12,10,10,0,5,12,18,10,12,0,0,0,0,0,0,0,0,0,0,0,0,0,0,0,0,0,0],"split_type":[0,0,0,0,0,0,0,0,0,0,0,0,0,0,0,0,0,0,0,0,0,0,0,0,0,0,0,0,0,0,0,0,0,0,0,0,0,0,0,0,0,0,0,0,0],"sum_hessian":[3.69E2,1.28E2,2.41E2,5.4E1,7.4E1,1.69E2,7.2E1,1.3E1,4.1E1,7.1E1,3E0,8E0,1.61E2,1E0,7.1E1,1E0,1.2E1,3.6E1,5E0,6E0,6.5E1,2E0,6E0,7.8E1,8.3E1,3.7E1,3.4E1,2.9E1,7E0,4E0,1E0,5E0,1E0,5.3E1,1.2E1,5E0,1E0,5.4E1,2.4E1,8.1E1,2E0,2E1,1.7E1,7E0,2.7E1],"tree_param":{"num_deleted":"0","num_feature":"22","num_nodes":"45","size_leaf_vector":"1"}},{"base_weights":[7.099025E-4,7.479679E-5,1.2070748E-2,-9.269902E-3,4.933741E-3,-2.2997323E-2,-7.0011984E-3,-1.9068747E-4,8.5853245E-3,-3.4467627E-3,-1.7258121E-3,-5.2922796E-3,-1.7813316E-2,-1.5797695E-3,2.657369E-4,1.9931296E-2,6.6261915E-3,-3.8567444E-4,-1.2498072E-3,-1.2419005E-3,-2.2204097E-3,3.1230328E-4,-1.2508569E-4,2.754003E-3,8.807685E-4,5.2954594E-4,9.568534E-4],"categories":[],"categories_nodes":[],"categories_segments":[],"categories_sizes":[],"default_left":[0,0,0,0,0,0,0,0,0,0,0,0,0,0,0,0,0,0,0,0,0,0,0,0,0,0,0],"id":40,"left_children":[1,3,-1,5,7,9,11,13,15,-1,-1,17,19,-1,21,23,25,-1,-1,-1,-1,-1,-1,-1,-1,-1,-1],"loss_changes":[2.8951205E-2,1.7254371E-2,0E0,3.8876394E-3,4.679707E-3,5.901009E-4,1.9936315E-3,7.5215695E-4,3.1132577E-3,0E0,0E0,9.758705E-4,7.9525635E-5,0E0,4.5024225E-4,1.5348047E-3,4.426795E-4,0E0,0E0,0E0,0E0,0E0,0E0,0E0,0E0,0E0,0E0],"parents":[2147483647,0,0,1,1,3,3,4,4,5,5,6,6,7,7,8,8,11,11,12,12,14,14,15,15,16,16],"right_children":[2,4,-1,6,8,10,12,14,16,-1,-1,18,20,-1,22,24,26,-1,-1,-1,-1,-1,-1,-1,-1,-1,-1],"split_conditions":[8E-1,-3E-1,1.2070748E-2,-7E-1,1E-1,-8E-1,2.5E-3,-9.375529E-2,1.9E-3,-3.4467627E-3,-1.7258121E-3,1.4090909E1,5.02E-2,-1.5797695E-3,8.021978E0,9.927008E0,3E-1,-3.8567444E-4,-1.2498072E-3,-1.2419005E-3,-2.2204097E-3,3.1230328E-4,-1.2508569E-4,2.754003E-3,8.807685E-4,5.2954594E-4,9.568534E-4],"split_indices":[9,9,0,9,9,9,10,13,12,0,0,18,10,0,18,18,9,0,0,0,0,0,0,0,0,0,0],"split_type":[0,0,0,0,0,0,0,0,0,0,0,0,0,0,0,0,0,0,0,0,0,0,0,0,0,0,0],"sum_hessian":[3.79E2,3.78E2,1E0,1.29E2,2.49E2,1.7E1,1.12E2,1.04E2,1.45E2,4E0,1.3E1,9.8E1,1.4E1,2E0,1.02E2,2E1,1.25E2,8.3E1,1.5E1,8E0,6E0,3.5E1,6.7E1,1.1E1,9E0,8.8E1,3.7E1],"tree_param":{"num_deleted":"0","num_feature":"22","num_nodes":"27","size_leaf_vector":"1"}},{"base_weights":[2.6921823E-4,-3.1665125E-4,1.146721E-2,-5.4344432E-3,7.345755E-3,-1.6651478E-2,-2.9780006E-3,1.7042555E-2,5.2911034E-3,-3.443128E-3,-1.3873834E-2,-1.9604068E-3,-9.1993995E-3,1.9932354E-2,3.4097285E-4,3.2409474E-3,9.00898E-3,-1.6968685E-3,-3.5113873E-4,2.4512238E-4,-3.6439006E-4,-6.5848016E-4,-2.792125E-3,4.112012E-3,1.4698183E-3,4.654733E-4,-4.0864447E-4,3.9794735E-4,-3.5197148E-4,2.0504377E-3,8.020454E-4],"categories":[],"categories_nodes":[],"categories_segments":[],"categories_sizes":[],"default_left":[0,0,0,0,0,0,0,0,0,0,0,0,0,0,0,0,0,0,0,0,0,0,0,0,0,0,0,0,0,0,0],"id":41,"left_children":[1,3,-1,5,7,9,11,13,15,-1,17,19,21,23,25,27,29,-1,-1,-1,-1,-1,-1,-1,-1,-1,-1,-1,-1,-1,-1],"loss_changes":[2.6310172E-2,1.53728295E-2,0E0,6.425603E-3,3.0378234E-3,1.5965169E-3,1.2101518E-3,1.2963368E-3,9.69314E-4,0E0,1.159085E-3,1.2566601E-3,1.137797E-3,1.946318E-3,1.14515395E-4,4.433979E-4,3.5826676E-4,0E0,0E0,0E0,0E0,0E0,0E0,0E0,0E0,0E0,0E0,0E0,0E0,0E0,0E0],"parents":[2147483647,0,0,1,1,3,3,4,4,5,5,6,6,7,7,8,8,10,10,11,11,12,12,13,13,14,14,15,15,16,16],"right_children":[2,4,-1,6,8,10,12,14,16,-1,18,20,22,24,26,28,30,-1,-1,-1,-1,-1,-1,-1,-1,-1,-1,-1,-1,-1,-1],"split_conditions":[8E-1,1E-1,1.146721E-2,-6E-1,5E0,-8E-1,-2E-3,6E0,3E-1,-3.443128E-3,1E0,1E0,9.117457E0,1.34E-2,3E-1,7.16E-2,4.1E-2,-1.6968685E-3,-3.5113873E-4,2.4512238E-4,-3.6439006E-4,-6.5848016E-4,-2.792125E-3,4.112012E-3,1.4698183E-3,4.654733E-4,-4.0864447E-4,3.9794735E-4,-3.5197148E-4,2.0504377E-3,8.020454E-4],"split_indices":[9,9,0,9,18,9,10,21,9,0,2,17,16,10,9,10,10,0,0,0,0,0,0,0,0,0,0,0,0,0,0],"split_type":[0,0,0,0,0,0,0,0,0,0,0,0,0,0,0,0,0,0,0,0,0,0,0,0,0,0,0,0,0,0,0],"sum_hessian":[3.91E2,3.9E2,1E0,2.34E2,1.56E2,4.1E1,1.93E2,2.6E1,1.3E2,4E0,3.7E1,1.67E2,2.6E1,2.2E1,4E0,8.5E1,4.5E1,2.8E1,9E0,4.6E1,1.21E2,2.4E1,2E0,3E0,1.9E1,2E0,2E0,7.7E1,8E0,2E0,4.3E1],"tree_param":{"num_deleted":"0","num_feature":"22","num_nodes":"31","size_leaf_vector":"1"}},{"base_weights":[2.846042E-5,-9.134111E-3,3.6349036E-3,-1.4991574E-2,-5.879657E-3,1.2028974E-4,6.5974193E-3,-2.859794E-3,-1.2619477E-2,-3.8622147E-3,-1.2298159E-2,9.352567E-4,-8.781195E-3,1.32732615E-2,5.5517904E-3,-9.657272E-3,-2.3088686E-3,-1.9230784E-3,-8.311766E-3,-1.3909992E-2,6.745577E-4,3.9508706E-3,-8.626102E-4,1.250565E-3,-1.4692281E-2,1.4168483E-2,-1.8679797E-4,7.305938E-3,3.7417952E-3,-6.7757344E-4,-1.9573877E-3,-4.1431258E-4,3.7872966E-4,-6.548261E-4,-1.8263921E-3,-2.2006631E-4,-1.6442863E-3,6.0017843E-4,-8.040058E-4,-3.3558066E-5,-1.0265246E-3,-3.5232308E-5,1.7393679E-4,-5.45002E-4,-1.7299181E-3,1.993715E-3,8.160622E-4,3.5285958E-4,1.0273281E-3,3.1126587E-4,1.633554E-3],"categories":[],"categories_nodes":[],"categories_segments":[],"categories_sizes":[],"default_left":[0,0,0,0,0,0,0,0,0,0,0,0,0,0,0,0,0,0,0,0,0,0,0,0,0,0,0,0,0,0,0,0,0,0,0,0,0,0,0,0,0,0,0,0,0,0,0,0,0,0,0],"id":42,"left_children":[1,3,5,7,9,11,13,-1,15,17,19,21,23,25,27,29,-1,31,33,35,-1,37,39,41,43,45,-1,47,49,-1,-1,-1,-1,-1,-1,-1,-1,-1,-1,-1,-1,-1,-1,-1,-1,-1,-1,-1,-1,-1,-1],"loss_changes":[1.2986565E-2,2.02783E-3,2.935418E-3,8.978583E-4,8.9777587E-4,9.5128675E-4,9.943191E-4,0E0,8.624443E-4,4.7582813E-4,6.15651E-4,6.5400876E-4,6.706583E-4,2.97562E-4,3.9811246E-4,6.9604954E-4,0E0,5.3546065E-4,1.7876457E-4,4.3834653E-4,0E0,1.1549108E-3,3.7317062E-4,4.5303004E-6,7.4374606E-5,4.957903E-4,0E0,7.147305E-4,4.879299E-4,0E0,0E0,0E0,0E0,0E0,0E0,0E0,0E0,0E0,0E0,0E0,0E0,0E0,0E0,0E0,0E0,0E0,0E0,0E0,0E0,0E0,0E0],"parents":[2147483647,0,0,1,1,2,2,3,3,4,4,5,5,6,6,8,8,9,9,10,10,11,11,12,12,13,13,14,14,15,15,17,17,18,18,19,19,21,21,22,22,23,23,24,24,25,25,27,27,28,28],"right_children":[2,4,6,8,10,12,14,-1,16,18,20,22,24,26,28,30,-1,32,34,36,-1,38,40,42,44,46,-1,48,50,-1,-1,-1,-1,-1,-1,-1,-1,-1,-1,-1,-1,-1,-1,-1,-1,-1,-1,-1,-1,-1,-1],"split_conditions":[-4E-1,-6E-1,1E-1,-8E-1,9.1E-3,1E0,1.9E-3,-2.859794E-3,1E0,-1.2E-2,2.27E2,1E0,-7E-2,1.764E-1,9.69E-2,2.5E-3,-2.3088686E-3,-4.5E-3,1E0,1E0,6.745577E-4,1E-2,1.418E-1,-1.222E-1,-6.1E-2,5E0,-1.8679797E-4,1.8E1,3.36E1,-6.7757344E-4,-1.9573877E-3,-4.1431258E-4,3.7872966E-4,-6.548261E-4,-1.8263921E-3,-2.2006631E-4,-1.6442863E-3,6.0017843E-4,-8.040058E-4,-3.3558066E-5,-1.0265246E-3,-3.5232308E-5,1.7393679E-4,-5.45002E-4,-1.7299181E-3,1.993715E-3,8.160622E-4,3.5285958E-4,1.0273281E-3,3.1126587E-4,1.633554E-3],"split_indices":[9,9,9,9,12,6,12,0,17,10,17,17,12,10,12,10,0,12,6,2,0,10,12,12,10,17,0,17,18,0,0,0,0,0,0,0,0,0,0,0,0,0,0,0,0,0,0,0,0,0,0],"split_type":[0,0,0,0,0,0,0,0,0,0,0,0,0,0,0,0,0,0,0,0,0,0,0,0,0,0,0,0,0,0,0,0,0,0,0,0,0,0,0,0,0,0,0,0,0,0,0,0,0,0,0],"sum_hessian":[3.91E2,1.1E2,2.81E2,3.8E1,7.2E1,1.29E2,1.52E2,4E0,3.4E1,5.6E1,1.6E1,1.19E2,1E1,1.9E1,1.33E2,2.8E1,6E0,4E1,1.6E1,1.5E1,1E0,4.4E1,7.5E1,4E0,6E0,1.8E1,1E0,6.6E1,6.7E1,2.3E1,5E0,2.9E1,1.1E1,1.5E1,1E0,3E0,1.2E1,3.8E1,6E0,7.2E1,3E0,1E0,3E0,2E0,4E0,8E0,1E1,3E1,3.6E1,6.5E1,2E0],"tree_param":{"num_deleted":"0","num_feature":"22","num_nodes":"51","size_leaf_vector":"1"}},{"base_weights":[-6.699693E-4,-3.2711893E-3,2.8130733E-3,-1.142843E-2,-2.7405324E-3,-1.7078035E-2,3.2927692E-3,5.860885E-3,-2.2966862E-2,1.4284062E-3,-3.6021774E-3,-2.1057874E-3,-2.5692582E-4,1.2498884E-3,5.9014745E-3,1.9191251E-3,-6.434381E-4,-2.7352665E-3,3.8668813E-4,-1.8180679E-3,1.5137808E-2,-4.3132645E-3,2.6816907E-3,-2.0803602E-3,3.9026397E-3,9.337529E-3,2.7622308E-3,-1.1171773E-4,6.2575935E-5,-5.676625E-4,3.950417E-5,7.058084E-5,2.5785358E-3,-3.6810336E-4,-1.929479E-3,-1.8683927E-4,5.112432E-4,-3.2934116E-4,1.438276E-3,3.1284717E-4,1.5246504E-3,1.0363146E-3,-4.3730313E-4,4.0877247E-4,-8.6286534E-5],"categories":[],"categories_nodes":[],"categories_segments":[],"categories_sizes":[],"default_left":[0,0,0,0,0,0,0,0,0,0,0,0,0,0,0,0,0,0,0,0,0,0,0,0,0,0,0,0,0,0,0,0,0,0,0,0,0,0,0,0,0,0,0,0,0],"id":43,"left_children":[1,3,5,7,9,11,13,15,17,19,21,-1,-1,23,25,-1,27,-1,-1,29,31,33,35,37,39,41,43,-1,-1,-1,-1,-1,-1,-1,-1,-1,-1,-1,-1,-1,-1,-1,-1,-1,-1],"loss_changes":[3.4520628E-3,9.1233547E-4,1.6115287E-3,2.7279966E-3,7.451273E-4,1.7686724E-4,8.453077E-4,5.325784E-4,1.0472699E-3,1.6297816E-3,7.756597E-4,0E0,0E0,8.1204216E-4,7.292705E-4,0E0,3.7054272E-6,0E0,0E0,2.5842476E-4,1.0574583E-3,1.3876294E-3,2.0863338E-4,8.661633E-4,4.0018657E-4,5.0935755E-4,1.8611876E-4,0E0,0E0,0E0,0E0,0E0,0E0,0E0,0E0,0E0,0E0,0E0,0E0,0E0,0E0,0E0,0E0,0E0,0E0],"parents":[2147483647,0,0,1,1,2,2,3,3,4,4,5,5,6,6,7,7,8,8,9,9,10,10,13,13,14,14,16,16,19,19,20,20,21,21,22,22,23,23,24,24,25,25,26,26],"right_children":[2,4,6,8,10,12,14,16,18,20,22,-1,-1,24,26,-1,28,-1,-1,30,32,34,36,38,40,42,44,-1,-1,-1,-1,-1,-1,-1,-1,-1,-1,-1,-1,-1,-1,-1,-1,-1,-1],"split_conditions":[2.5E-3,1.1E1,0E0,-5.22E-2,2.5E1,5.56E-2,2E1,1E0,1E0,-1.67E-2,1E0,-2.1057874E-3,-2.5692582E-4,4.63E-2,8.85E-2,1.9191251E-3,1E0,-2.7352665E-3,3.8668813E-4,2E1,2E1,9.32E-2,-4.88E-2,1.503E-1,4.357143E1,1.1854103E-3,1.4406779E1,-1.1171773E-4,6.2575935E-5,-5.676625E-4,3.950417E-5,7.058084E-5,2.5785358E-3,-3.6810336E-4,-1.929479E-3,-1.8683927E-4,5.112432E-4,-3.2934116E-4,1.438276E-3,3.1284717E-4,1.5246504E-3,1.0363146E-3,-4.3730313E-4,4.0877247E-4,-8.6286534E-5],"split_indices":[10,8,21,10,8,10,17,17,0,10,4,0,0,12,12,0,0,0,0,8,8,12,12,10,18,15,18,0,0,0,0,0,0,0,0,0,0,0,0,0,0,0,0,0,0],"split_type":[0,0,0,0,0,0,0,0,0,0,0,0,0,0,0,0,0,0,0,0,0,0,0,0,0,0,0,0,0,0,0,0,0,0,0,0,0,0,0,0,0,0,0,0,0],"sum_hessian":[3.79E2,2.17E2,1.62E2,1.2E1,2.05E2,3E0,1.59E2,5E0,7E0,3.5E1,1.7E2,2E0,1E0,9E1,6.9E1,1E0,4E0,6E0,1E0,2.9E1,6E0,1.53E2,1.7E1,4E1,5E1,3.2E1,3.7E1,3E0,1E0,1E1,1.9E1,3E0,3E0,1.48E2,5E0,6E0,1.1E1,3.8E1,2E0,4.8E1,2E0,3E1,2E0,2.7E1,1E1],"tree_param":{"num_deleted":"0","num_feature":"22","num_nodes":"45","size_leaf_vector":"1"}},{"base_weights":[1.0422613E-4,-4.8795782E-4,1.08125685E-2,-7.6524755E-3,3.0524284E-3,-1.9819736E-2,-5.7437145E-3,1.1502922E-3,7.1876044E-3,-7.386342E-4,-2.2120802E-3,-4.978298E-3,-3.0363582E-3,5.302279E-3,-3.087371E-4,7.805162E-3,-3.266257E-3,-4.2983485E-4,-1.5367757E-3,-2.8482E-4,9.200775E-4,-1.4517397E-3,-7.892865E-6,1.8691713E-3,5.982183E-4,1.7134547E-4,-4.9395487E-4],"categories":[],"categories_nodes":[],"categories_segments":[],"categories_sizes":[],"default_left":[0,0,0,0,0,0,0,0,0,0,0,0,0,0,0,0,0,0,0,0,0,0,0,0,0,0,0],"id":44,"left_children":[1,3,-1,5,7,9,11,13,15,-1,-1,17,-1,19,21,23,25,-1,-1,-1,-1,-1,-1,-1,-1,-1,-1],"loss_changes":[2.3465259E-2,9.281642E-3,0E0,2.6963125E-3,1.9188209E-3,2.943687E-4,1.8463524E-3,1.025417E-3,5.2259443E-4,0E0,0E0,6.686328E-4,0E0,1.4242885E-3,4.1027818E-4,1.3369378E-3,5.0126248E-5,0E0,0E0,0E0,0E0,0E0,0E0,0E0,0E0,0E0,0E0],"parents":[2147483647,0,0,1,1,3,3,4,4,5,5,6,6,7,7,8,8,11,11,13,13,14,