{"learner":{"attributes":{"scikit_learn":"{\"_estimator_type\": \"regressor\"}"},"feature_names":[],"feature_types":[],"gradient_booster":{"model":{"cats":{"enc":[],"feature_segments":[],"sorted_idx":[]},"gbtree_model_param":{"num_parallel_tree":"1","num_trees":"200"},"iteration_indptr":[0,1,2,3,4,5,6,7,8,9,10,11,12,13,14,15,16,17,18,19,20,21,22,23,24,25,26,27,28,29,30,31,32,33,34,35,36,37,38,39,40,41,42,43,44,45,46,47,48,49,50,51,52,53,54,55,56,57,58,59,60,61,62,63,64,65,66,67,68,69,70,71,72,73,74,75,76,77,78,79,80,81,82,83,84,85,86,87,88,89,90,91,92,93,94,95,96,97,98,99,100,101,102,103,104,105,106,107,108,109,110,111,112,113,114,115,116,117,118,119,120,121,122,123,124,125,126,127,128,129,130,131,132,133,134,135,136,137,138,139,140,141,142,143,144,145,146,147,148,149,150,151,152,153,154,155,156,157,158,159,160,161,162,163,164,165,166,167,168,169,170,171,172,173,174,175,176,177,178,179,180,181,182,183,184,185,186,187,188,189,190,191,192,193,194,195,196,197,198,199,200],"tree_info":[0,0,0,0,0,0,0,0,0,0,0,0,0,0,0,0,0,0,0,0,0,0,0,0,0,0,0,0,0,0,0,0,0,0,0,0,0,0,0,0,0,0,0,0,0,0,0,0,0,0,0,0,0,0,0,0,0,0,0,0,0,0,0,0,0,0,0,0,0,0,0,0,0,0,0,0,0,0,0,0,0,0,0,0,0,0,0,0,0,0,0,0,0,0,0,0,0,0,0,0,0,0,0,0,0,0,0,0,0,0,0,0,0,0,0,0,0,0,0,0,0,0,0,0,0,0,0,0,0,0,0,0,0,0,0,0,0,0,0,0,0,0,0,0,0,0,0,0,0,0,0,0,0,0,0,0,0,0,0,0,0,0,0,0,0,0,0,0,0,0,0,0,0,0,0,0,0,0,0,0,0,0,0,0,0,0,0,0,0,0,0,0,0,0,0,0,0,0,0,0],"trees":[{"base_weights":[2.7715368E-3,-7.311111E-2,4.1380655E-2,4.836262E-2,-2.4193548E-1,-2.4285714E-1,3.9967895E-3,-4.025E-1,3.6666666E-3,-5.0666664E-2,3.2E-3,-2.2E-1,-6.3333325E-2,-8.615385E-3,-5.0666664E-2],"categories":[],"categories_nodes":[],"categories_segments":[],"categories_sizes":[],"default_left":[0,0,0,0,0,0,0,0,0,0,0,0,0,0,0],"id":0,"left_children":[1,-1,3,5,7,9,-1,11,-1,-1,-1,13,-1,-1,-1],"loss_changes":[4.7285404E1,0E0,2.5476294E0,5.945022E-1,1.450817E0,7.9847616E-1,0E0,1.2462919E0,0E0,0E0,0E0,6.2810254E-1,0E0,0E0,0E0],"parents":[2147483647,0,0,2,2,3,3,4,4,5,5,7,7,11,11],"right_children":[2,-1,4,6,8,10,-1,12,-1,-1,-1,14,-1,-1,-1],"split_conditions":[-1.204E-1,-2.5295198E0,1E0,-1.112E-1,4E-4,-2.7925584E-2,3.9584E-1,-5E-4,3.0448E-1,-1.8720016E-2,4.799652E-4,1E0,-6.57552E0,-1.13552E0,-6.73552E0],"split_indices":[20,0,9,20,20,23,0,20,0,0,0,0,0,0,0],"split_type":[0,0,0,0,0,0,0,0,0,0,0,0,0,0,0],"sum_hessian":[1.334E3,5.3E1,1.281E3,1.251E3,3E1,6E0,1.245E3,1.9E1,1.1E1,2E0,4E0,1.4E1,5E0,1.2E1,2E0],"tree_param":{"num_deleted":"0","num_feature":"32","num_nodes":"15","size_leaf_vector":"1"}},{"base_weights":[1.2226416E-2,-8.8139534E-1,4.2166796E-2,-9.02439E-1,-2.9999998E-1,4.8363928E-2,-2.0967741E-1,-7.4051276E-2,-2.9999998E-1,2E-3,-3.8E-2,4.915798E-2,-9.9999994E-2,-5E-1,-4.7619045E-2,-3.8E-2,2E-3,-5.5E-2,3.996769E-3,3E-3,-2.1249999E-1,-1.6E-1,-5.3714283E-2,-2.4285714E-1,3.7333332E-3,-2.3999998E-2,3.4999999E-3,2.6666666E-3,-3.8E-2,3E-3,-3.8E-2,-2.8799998E-2,2.6666666E-3],"categories":[],"categories_nodes":[],"categories_segments":[],"categories_sizes":[],"default_left":[0,0,0,0,0,0,0,0,0,0,0,0,0,0,0,0,0,0,0,0,0,0,0,0,0,0,0,0,0,0,0,0,0],"id":1,"left_children":[1,3,5,7,9,11,13,-1,15,-1,-1,17,19,21,23,-1,-1,25,-1,-1,27,29,-1,31,-1,-1,-1,-1,-1,-1,-1,-1,-1],"loss_changes":[3.5488037E1,2.5536346E-1,2.0125337E0,2.953987E-1,1.8249997E-1,1.525302E-1,1.4347159E0,0E0,1.8249997E-1,0E0,0E0,1.0686779E-1,1.16249986E-1,5.337143E-1,3.9790475E-1,0E0,0E0,2.5506252E-1,0E0,0E0,2.7395833E-1,3.28875E-1,0E0,2.3847622E-1,0E0,0E0,0E0,0E0,0E0,0E0,0E0,0E0,0E0],"parents":[2147483647,0,0,1,1,2,2,3,3,4,4,5,5,6,6,8,8,11,11,12,12,13,13,14,14,17,17,20,20,21,21,23,23],"right_children":[2,4,6,8,10,12,14,-1,16,-1,-1,18,20,22,24,-1,-1,26,-1,-1,28,30,-1,32,-1,-1,-1,-1,-1,-1,-1,-1,-1],"split_conditions":[-1.415E-1,1E0,1E0,1E0,1E0,1E0,-6E-1,-2.4439583E0,-5E-1,2.8415679E-3,-2.0531583E0,-1.915E-1,-5E-1,-2.85E-2,-5.99E-2,-5.3158417E-2,5.868416E-1,-1.112E-1,3.015328E-1,5.128128E-1,-2.5E-3,1E0,-6.196678E0,1E0,1.5532157E-1,-1.7222442E-2,3.096128E-1,7.9281276E-1,-1.0071871E0,6.3532156E-1,-9.646784E-1,-1.0446784E0,2.3532157E-1],"split_indices":[21,6,9,9,10,15,19,0,19,0,0,22,19,21,21,0,0,21,0,0,21,3,0,4,0,0,0,0,0,0,0,0,0],"split_type":[0,0,0,0,0,0,0,0,0,0,0,0,0,0,0,0,0,0,0,0,0,0,0,0,0,0,0,0,0,0,0,0,0],"sum_hessian":[1.324E3,4.2E1,1.282E3,4E1,2E0,1.252E3,3E1,3.8E1,2E0,1E0,1E0,1.246E3,6E0,1E1,2E1,1E0,1E0,9E0,1.237E3,3E0,3E0,4E0,6E0,6E0,1.4E1,2E0,7E0,2E0,1E0,3E0,1E0,4E0,2E0],"tree_param":{"num_deleted":"0","num_feature":"32","num_nodes":"33","size_leaf_vector":"1"}},{"base_weights":[1.6399696E-2,-8.632353E-1,3.9788734E-2,-7.127272E-2,2E-3,-1.6363636E-1,4.5144465E-2,2.2727286E-3,-4.5416665E-1,-1.6041666E-1,4.9141455E-2,3.7894738E-3,-2.1249999E-1,-6.7142856E-1,-1.25E-1,-1.1764704E-2,-4.5624998E-1,3.9966474E-3,1.6129034E-2,-3.8E-2,2.6666666E-3,-6.3333325E-2,2E-3,3E-3,-2.3999998E-2,3.75E-3,-3.8E-2,-6.0799997E-2,3E-3,-3.6363634E-3,3.8095238E-3],"categories":[],"categories_nodes":[],"categories_segments":[],"categories_sizes":[],"default_left":[0,0,0,0,0,0,0,0,0,0,0,0,0,0,0,0,0,0,0,0,0,0,0,0,0,0,0,0,0,0,0],"id":2,"left_children":[1,3,5,-1,-1,7,9,11,13,15,17,-1,19,21,23,25,27,-1,29,-1,-1,-1,-1,-1,-1,-1,-1,-1,-1,-1,-1],"loss_changes":[2.7006617E1,8.580208E-1,1.399755E0,0E0,0E0,1.5916857E0,1.0316298E0,2.2314294E-1,7.74256E-1,1.0500612E0,3.216505E-2,0E0,2.7395833E-1,6.059525E-1,1.8187502E-1,4.8405328E-1,1.2283126E0,0E0,6.2281802E-2,0E0,0E0,0E0,0E0,0E0,0E0,0E0,0E0,0E0,0E0,0E0,0E0],"parents":[2147483647,0,0,1,1,2,2,5,5,6,6,7,7,8,8,9,9,10,10,12,12,13,13,14,14,15,15,16,16,18,18],"right_children":[2,4,6,-1,-1,8,10,12,14,16,18,-1,20,22,24,26,28,-1,30,-1,-1,-1,-1,-1,-1,-1,-1,-1,-1,-1,-1],"split_conditions":[-1.551E-1,2E1,-1.07E-1,-2.2523217E0,1.5958251E-2,-1.204E-1,-6E-1,6.6E-3,-4.72E-2,-2.07E-2,2.5E1,2.614212E-3,1.23E-2,4.818799E-2,1E0,1E0,4E-4,3.6733016E-1,3E1,-9.281006E-3,2.9118957E-2,-2.374504E-2,2.0690154E-2,1.5090179E-2,-2.368103E-2,9.6690215E-2,-8.875041E-1,-5.700944E0,7.7585584E-1,-9.266122E-1,2.1810554E-1],"split_indices":[21,28,21,0,0,21,19,22,22,21,18,0,22,23,2,3,21,0,18,0,0,0,0,0,0,0,0,0,0,0,0],"split_type":[0,0,0,0,0,0,0,0,0,0,0,0,0,0,0,0,0,0,0,0,0,0,0,0,0,0,0,0,0,0,0],"sum_hessian":[1.31E3,3.3E1,1.277E3,3.2E1,1E0,3.2E1,1.245E3,2.1E1,1.1E1,2.3E1,1.222E3,1.8E1,3E0,6E0,5E0,1.6E1,7E0,1.192E3,3E1,1E0,2E0,5E0,1E0,3E0,2E0,1.5E1,1E0,4E0,3E0,1E1,2E1],"tree_param":{"num_deleted":"0","num_feature":"32","num_nodes":"31","size_leaf_vector":"1"}},{"base_weights":[2.455157E-2,-6.8571426E-2,3.8581185E-2,-2.596154E-1,4.4547565E-2,-1.9999998E-2,-5.3749996E-1,-1.030303E-1,4.8374306E-2,-2.9999998E-1,3.6923077E-3,-7.0625E-1,-1.6E-1,-2.3214284E-2,-4.583333E-1,4.916468E-2,-1.6E-1,2E-3,-3.8E-2,2E-3,-6.5142855E-2,3E-3,-3.8E-2,8.8888896E-4,-3.8E-2,-5.6999996E-2,2.6666666E-3,-2.9999998E-3,3.9967895E-3,-2.3999998E-2,2.6666666E-3],"categories":[],"categories_nodes":[],"categories_segments":[],"categories_sizes":[],"default_left":[0,0,0,0,0,0,0,0,0,0,0,0,0,0,0,0,0,0,0,0,0,0,0,0,0,0,0,0,0,0,0],"id":3,"left_children":[1,-1,3,5,7,9,11,13,15,17,-1,19,21,23,25,27,29,-1,-1,-1,-1,-1,-1,-1,-1,-1,-1,-1,-1,-1,-1],"loss_changes":[1.6583906E1,0E0,2.3564904E0,1.720471E0,7.351959E-1,2.9169232E-1,6.514375E-1,9.2520285E-1,2.155447E-1,1.8249997E-1,0E0,6.523659E-1,3.28875E-1,4.3949404E-1,7.7354157E-1,8.8499784E-2,1.4533335E-1,0E0,0E0,0E0,0E0,0E0,0E0,0E0,0E0,0E0,0E0,0E0,0E0,0E0,0E0],"parents":[2147483647,0,0,2,2,3,3,4,4,5,5,6,6,7,7,8,8,9,9,11,11,12,12,13,13,14,14,15,15,16,16],"right_children":[2,-1,4,6,8,10,12,14,16,18,-1,20,22,24,26,28,30,-1,-1,-1,-1,-1,-1,-1,-1,-1,-1,-1,-1,-1,-1],"split_conditions":[-1.877E-1,-2.016456E0,-6E-1,1E0,-1.112E-1,-1.112E-1,1E0,-1.204E-1,1E0,1E0,1.8495499E-1,-5E0,3.1E1,3.263158E1,-1.329E-1,-5E-1,3E1,1.1814903E-1,-2.1786574E-2,7.0476055E-1,-5.2448688E0,5.7676065E-1,-3.6928685E0,-4.7082515E-3,-1.1971847E-1,-2.1845473E-2,9.413452E-3,-9.785525E-1,3.1066376E-1,-8.524833E-1,8.0793935E-1],"split_indices":[21,0,19,9,21,21,2,21,15,8,0,30,18,28,22,19,18,0,0,0,0,0,0,0,0,0,0,0,0,0,0],"split_type":[0,0,0,0,0,0,0,0,0,0,0,0,0,0,0,0,0,0,0,0,0,0,0,0,0,0,0,0,0,0,0],"sum_hessian":[1.337E3,2E1,1.317E3,2.5E1,1.292E3,1.4E1,1.1E1,3.2E1,1.26E3,2E0,1.2E1,7E0,4E0,2.7E1,5E0,1.256E3,4E0,1E0,1E0,1E0,6E0,3E0,1E0,2.6E1,1E0,3E0,2E0,1.1E1,1.245E3,2E0,2E0],"tree_param":{"num_deleted":"0","num_feature":"32","num_nodes":"31","size_leaf_vector":"1"}},{"base_weights":[2.4436938E-2,-8.28125E-1,3.4776006E-2,-7.0933335E-2,2E-3,-1.6517857E-1,4.362124E-2,-3.947367E-3,-4.7894737E-1,-2.32E-1,4.915186E-2,2.1621622E-2,-3.8E-2,-5.4117644E-1,2.6666666E-3,3.7142858E-3,-5.3749996E-1,3.9966996E-3,1.1111112E-2,3.8571428E-3,-4.4E-3,-6.0399998E-2,-1.65E-2,2E-3,-4.7272723E-2,-6.4999997E-3,3.7999998E-3],"categories":[],"categories_nodes":[],"categories_segments":[],"categories_sizes":[],"default_left":[0,0,0,0,0,0,0,0,0,0,0,0,0,0,0,0,0,0,0,0,0,0,0,0,0,0,0],"id":4,"left_children":[1,3,5,-1,-1,7,9,11,13,15,17,19,-1,21,-1,-1,23,-1,25,-1,-1,-1,-1,-1,-1,-1,-1],"loss_changes":[1.1769975E1,8.2126045E-1,2.3365102E0,0E0,0E0,2.8311114E0,1.9351413E0,4.6795517E-1,6.237364E-1,2.1514535E0,3.744459E-2,7.804199E-2,0E0,1.0617385E0,0E0,0E0,3.752842E-1,0E0,9.460416E-2,0E0,0E0,0E0,0E0,0E0,0E0,0E0,0E0],"parents":[2147483647,0,0,1,1,2,2,5,5,6,6,7,7,8,8,9,9,10,10,11,11,13,13,16,16,18,18],"right_children":[2,4,6,-1,-1,8,10,12,14,16,18,20,-1,22,-1,-1,24,-1,26,-1,-1,-1,-1,-1,-1,-1,-1],"split_conditions":[-2.018E-1,5.057242E-1,-1.003E-1,-2.7961395E0,3.1860504E-2,-1.204E-1,-6E-1,3.5484943E-1,3E1,1E0,2.5E1,6.6E-3,-1.1014099E-1,-1.07E-1,2.4854736E-2,7.415863E-2,-8E-1,3.173306E-1,3E1,2.823654E-3,-8.161849E-3,-2.3863371E-2,-2.1549378E-2,5.306198E-1,-4.825279E0,-7.8428465E-1,2.0638862E-1],"split_indices":[20,23,20,0,0,20,19,23,18,9,18,22,0,20,0,0,19,0,18,0,0,0,0,0,0,0,0],"split_type":[0,0,0,0,0,0,0,0,0,0,0,0,0,0,0,0,0,0,0,0,0,0,0,0,0,0,0],"sum_hessian":[1.331E3,1.5E1,1.316E3,1.4E1,1E0,5.5E1,1.261E3,3.7E1,1.8E1,2.4E1,1.237E3,3.6E1,1E0,1.6E1,2E0,1.3E1,1.1E1,1.211E3,2.6E1,2.7E1,9E0,9E0,7E0,1E0,1E1,7E0,1.9E1],"tree_param":{"num_deleted":"0","num_feature":"32","num_nodes":"27","size_leaf_vector":"1"}},{"base_weights":[2.7034024E-2,-8.107143E-1,3.5772964E-2,2E-3,-7.015385E-2,-1.6517857E-1,4.4509348E-2,1.2720504E-9,-5.78125E-1,4.606084E-2,-5.0666664E-2,2.3750002E-2,-3.8E-2,-6.181818E-2,-1.25E-1,4.9164012E-2,-9.9999994E-2,3.8518517E-3,-1.9999999E-3,-3.8E-2,3.2E-3,3.9968025E-3,-1E-2,-1.5058824E-2,3.6363637E-3],"categories":[],"categories_nodes":[],"categories_segments":[],"categories_sizes":[],"default_left":[0,0,0,0,0,0,0,0,0,0,0,0,0,0,0,0,0,0,0,0,0,0,0,0,0],"id":5,"left_children":[1,3,5,-1,-1,7,9,11,13,15,-1,17,-1,-1,19,21,23,-1,-1,-1,-1,-1,-1,-1,-1],"loss_changes":[9.927038E0,7.96566E-1,2.3580856E0,0E0,0E0,3.8197546E0,1.3795168E0,4.738125E-1,1.3142757E0,5.8598495E-1,0E0,4.878009E-2,0E0,0E0,3.6549997E-1,1.8037438E-1,3.550802E-1,0E0,0E0,0E0,0E0,0E0,0E0,0E0,0E0],"parents":[2147483647,0,0,1,1,2,2,5,5,6,6,7,7,8,8,9,9,11,11,14,14,15,15,16,16],"right_children":[2,4,6,-1,-1,8,10,12,14,16,-1,18,-1,-1,20,22,24,-1,-1,-1,-1,-1,-1,-1,-1],"split_conditions":[-2.367E-1,-7.888969E-3,-1.003E-1,9.1516115E-3,-1.7812485E0,-1.204E-1,6E1,3.263158E1,-1.07E-1,1E0,-3.7320569E0,6.6E-3,-1.0132965E-1,-2.1154251E-2,1E0,1E0,4E-4,2.5925103E-3,-7.508926E-3,-1.982544E-2,9.7457884E-4,2.9466417E-1,-7.215419E-1,-4.4392567E0,2.0888329E-1],"split_indices":[20,25,20,0,0,20,18,28,20,9,0,22,0,0,2,15,20,0,0,0,0,0,0,0,0],"split_type":[0,0,0,0,0,0,0,0,0,0,0,0,0,0,0,0,0,0,0,0,0,0,0,0,0],"sum_hessian":[1.351E3,1.3E1,1.338E3,1E0,1.2E1,5.5E1,1.283E3,4E1,1.5E1,1.281E3,2E0,3.9E1,1E0,1E1,5E0,1.255E3,2.6E1,2.6E1,1.3E1,1E0,4E0,1.25E3,5E0,1.6E1,1E1],"tree_param":{"num_deleted":"0","num_feature":"32","num_nodes":"25","size_leaf_vector":"1"}},{"base_weights":[2.3646617E-2,-7.0933335E-2,3.400456E-2,-1.6615385E-1,4.4369012E-2,2.3255826E-3,-4.7391304E-1,-2.1304348E-1,4.9146343E-2,2.5E-2,-3.8E-2,-7.3333335E-1,-2.8666666E-1,3.6923077E-3,-5E-1,3.9967345E-3,-1.25E-1,3.8666667E-3,-2.4615382E-3,-6.65E-2,2E-3,-5.6999996E-2,-9.666666E-3,-5.65E-2,3E-3,-1.6999999E-2,2.6666666E-3],"categories":[],"categories_nodes":[],"categories_segments":[],"categories_sizes":[],"default_left":[0,0,0,0,0,0,0,0,0,0,0,0,0,0,0,0,0,0,0,0,0,0,0,0,0,0,0],"id":6,"left_children":[1,-1,3,5,7,9,11,13,15,17,-1,19,21,-1,23,-1,25,-1,-1,-1,-1,-1,-1,-1,-1,-1,-1],"loss_changes":[1.2570684E1,0E0,2.7374558E0,3.3714235E0,1.550111E0,4.7726744E-1,9.070139E-1,1.7337793E0,1.8035579E-1,5.6141023E-2,0E0,6.890626E-1,9.731666E-1,0E0,1.2459373E0,0E0,9.020832E-2,0E0,0E0,0E0,0E0,0E0,0E0,0E0,0E0,0E0,0E0],"parents":[2147483647,0,0,2,2,3,3,4,4,5,5,6,6,7,7,8,8,9,9,11,11,12,12,14,14,16,16],"right_children":[2,-1,4,6,8,10,12,14,16,18,-1,20,22,-1,24,-1,26,-1,-1,-1,-1,-1,-1,-1,-1,-1,-1],"split_conditions":[-2.626E-1,-2.4299486E0,-9.48E-2,-1.204E-1,-6E-1,8.870882E-1,6E0,-2.07E-2,1E0,-1.415E-1,-5.0748594E-2,1E0,-1.557E-1,3.2465273E-1,4E-4,2.6929104E-1,3E1,5.3839874E-3,-6.9081876E-3,-2.0261917E-2,3.7180626E0,-1.9461898E-2,-1.6496353E-2,-4.084116E0,1.0223194E0,-6.638185E-1,7.845165E-1],"split_indices":[20,0,20,20,19,24,27,21,15,20,0,14,22,0,20,0,18,0,0,0,0,0,0,0,0,0,0],"split_type":[0,0,0,0,0,0,0,0,0,0,0,0,0,0,0,0,0,0,0,0,0,0,0,0,0,0,0],"sum_hessian":[1.329E3,1.4E1,1.315E3,6.4E1,1.251E3,4.2E1,2.2E1,2.2E1,1.229E3,4.1E1,1E0,8E0,1.4E1,1.2E1,1E1,1.224E3,5E0,2.9E1,1.2E1,7E0,1E0,3E0,1.1E1,7E0,3E0,3E0,2E0],"tree_param":{"num_deleted":"0","num_feature":"32","num_nodes":"27","size_leaf_vector":"1"}},{"base_weights":[3.0501498E-2,-6.818182E-1,3.6387634E-2,-3.5999998E-1,-6.5142855E-2,-1.2E-1,4.441363E-2,-5.0666664E-2,2.6666666E-3,-4.535714E-1,-2.7884614E-2,3.996761E-3,-2.0178571E-1,-5.9090906E-1,3E-3,3.9000001E-3,-2.6153845E-1,-1.11999996E-1,-5.6999996E-2,-5.2399997E-2,2E-3,3.3333334E-3,-3.65E-2,-1.76E-2,3.6363637E-3],"categories":[],"categories_nodes":[],"categories_segments":[],"categories_sizes":[],"default_left":[0,0,0,0,0,0,0,0,0,0,0,0,0,0,0,0,0,0,0,0,0,0,0,0,0],"id":7,"left_children":[1,3,5,7,-1,9,11,-1,-1,13,15,-1,17,19,-1,-1,21,23,-1,-1,-1,-1,-1,-1,-1],"loss_changes":[5.626404E0,1.7579222E-1,1.6696806E0,5.586666E-1,0E0,1.9846113E0,1.7332075E0,0E0,0E0,9.6635556E-1,9.4386053E-1,0E0,1.2041357E0,4.505906E-1,0E0,0E0,7.864983E-1,4.3512723E-1,0E0,0E0,0E0,0E0,0E0,0E0,0E0],"parents":[2147483647,0,0,1,1,2,2,3,3,5,5,6,6,9,9,10,10,12,12,13,13,16,16,17,17],"right_children":[2,4,6,8,-1,10,12,-1,-1,14,16,-1,18,20,-1,-1,22,24,-1,-1,-1,-1,-1,-1,-1],"split_conditions":[-2.626E-1,-8.4E-2,-9.48E-2,-3.37E-1,-2.2355525E0,-1.193E-1,1E0,-1.1995525E0,9.2447355E-2,1.074067E1,-1.112E-1,2.7154776E-1,5E1,1E0,7.988739E-3,3.0059053E-3,-3.31E-2,-5E-1,-3.1067631E0,-9.365402E-2,2.364566E-1,2.216339E-3,-1.66185E-2,-3.757387E0,5.7062936E-1],"split_indices":[20,22,20,20,0,22,9,0,0,26,20,0,18,5,0,0,22,19,0,0,0,0,0,0,0],"split_type":[0,0,0,0,0,0,0,0,0,0,0,0,0,0,0,0,0,0,0,0,0,0,0,0,0],"sum_hessian":[1.335E3,1E1,1.325E3,4E0,6E0,6.4E1,1.261E3,2E0,2E0,1.3E1,5.1E1,1.234E3,2.7E1,1E1,3E0,3.9E1,1.2E1,2.4E1,3E0,9E0,1E0,5E0,7E0,1.4E1,1E1],"tree_param":{"num_deleted":"0","num_feature":"32","num_nodes":"25","size_leaf_vector":"1"}},{"base_weights":[2.599251E-2,-2.3944443E-1,4.5144465E-2,-6.65E-2,-1.7951807E-1,4.6744373E-2,-5.0666664E-2,-4.181818E-2,-4.3448275E-1,3.9966637E-3,-3.8043477E-2,-3.181818E-1,2.6666667E-2,-4.903846E-1,3E-3,1.3793104E-2,-1.19444445E-1,-2.8399998E-2,2E-3,3.909091E-3,-3.8E-2,-4.571428E-2,-1E-2,3.826087E-3,-7.999999E-3,-2.0399999E-2,3.5555556E-3],"categories":[],"categories_nodes":[],"categories_segments":[],"categories_sizes":[],"default_left":[0,0,0,0,0,0,0,0,0,0,0,0,0,0,0,0,0,0,0,0,0,0,0,0,0,0,0],"id":8,"left_children":[1,3,5,-1,7,9,-1,11,13,-1,15,17,19,21,-1,23,25,-1,-1,-1,-1,-1,-1,-1,-1,-1,-1],"loss_changes":[6.7974634E0,3.0426044E0,1.3821428E0,0E0,2.8958452E0,3.4089255E-1,0E0,1.0494545E0,7.83546E-1,0E0,1.957467E-1,1.4786363E-1,5.243068E-1,6.984892E-1,0E0,1.17091455E-1,4.1122222E-1,0E0,0E0,0E0,0E0,0E0,0E0,0E0,0E0,0E0,0E0],"parents":[2147483647,0,0,1,1,2,2,4,4,5,5,7,7,8,8,10,10,11,11,12,12,13,13,15,15,16,16],"right_children":[2,4,6,-1,8,10,-1,12,14,-1,16,18,20,22,-1,24,26,-1,-1,-1,-1,-1,-1,-1,-1,-1,-1],"split_conditions":[-8.9E-2,-3.37E-1,6E1,-2.0567086E0,-1.204E-1,2.5E1,-2.8582222E0,-2.367E-1,3E1,2.5262398E-1,1E0,1E0,3.263158E1,1.4641451E-2,2.563797E-2,1E0,-5E-1,-1.1818838E0,4.9380187E-2,4.826935E-3,-8.616165E-2,-1.8686168E-2,-3.0597686E-3,9.746885E-2,-6.324368E-1,-3.3095965E0,1.2497902E-1],"split_indices":[20,20,18,0,20,18,0,20,18,0,9,17,28,25,0,15,19,0,0,0,0,0,0,0,0,0,0],"split_type":[0,0,0,0,0,0,0,0,0,0,0,0,0,0,0,0,0,0,0,0,0,0,0,0,0,0,0],"sum_hessian":[1.334E3,8.9E1,1.245E3,7E0,8.2E1,1.243E3,2E0,5.4E1,2.8E1,1.198E3,4.5E1,1E1,4.4E1,2.5E1,3E0,2.8E1,1.7E1,9E0,1E0,4.3E1,1E0,2E1,5E0,2.2E1,6E0,9E0,8E0],"tree_param":{"num_deleted":"0","num_feature":"32","num_nodes":"27","size_leaf_vector":"1"}},{"base_weights":[2.8798187E-2,-2.1249999E-1,4.512097E-2,-6.3333325E-2,-1.6582279E-1,4.913223E-2,-1.1290322E-1,-4.181818E-2,-4.3199998E-1,3.9966805E-3,-1.25E-1,-2.8666666E-1,3.764706E-3,-9.80392E-3,-3.5999998E-1,-4.9772727E-1,3E-3,3E-3,-2.9999998E-1,-4.090909E-1,3.2E-3,7.200001E-4,-3.8E-2,-5.0666664E-2,2.6666666E-3,-2.8266665E-2,-5.65E-2,2E-3,-3.8E-2,-1.28E-2,-4.2285714E-2],"categories":[],"categories_nodes":[],"categories_segments":[],"categories_sizes":[],"default_left":[0,0,0,0,0,0,0,0,0,0,0,0,0,0,0,0,0,0,0,0,0,0,0,0,0,0,0,0,0,0,0],"id":9,"left_children":[1,3,5,-1,7,9,11,13,15,-1,17,19,-1,21,23,25,-1,-1,27,29,-1,-1,-1,-1,-1,-1,-1,-1,-1,-1,-1],"loss_changes":[5.2204323E0,2.1395705E0,7.915542E-1,0E0,2.5895033E0,1.80341E-1,8.7515235E-1,5.5672014E-1,7.9013824E-1,0E0,1.8187502E-1,6.162425E-1,0E0,4.5039803E-1,5.586666E-1,4.1286564E-1,0E0,0E0,1.8249997E-1,2.4280512E-1,0E0,0E0,0E0,0E0,0E0,0E0,0E0,0E0,0E0,0E0,0E0],"parents":[2147483647,0,0,1,1,2,2,4,4,5,5,6,6,7,7,8,8,10,10,11,11,13,13,14,14,15,15,18,18,19,19],"right_children":[2,4,6,-1,8,10,12,14,16,-1,18,20,-1,22,24,26,-1,-1,28,30,-1,-1,-1,-1,-1,-1,-1,-1,-1,-1,-1],"split_conditions":[-8.9E-2,-3.37E-1,1E0,-1.8921719E0,-1.204E-1,1E0,-5E-1,3.5484943E-1,1.1296509E1,2.1521407E-1,-2.5E-3,4.786325E0,1.149807E-1,1E0,5.057242E-1,2.8E1,7.21817E-4,5.039458E-1,-5E-1,-3.38E-2,1.5450076E0,-2.8454969E-3,-1.0873331E0,-7.926864E-2,2.885498E-2,-1.7323378E-2,-1.4681091E-2,9.765582E-1,-5.818419E-1,-1.7823333E-2,-3.1920285E0],"split_indices":[20,20,9,0,20,15,19,23,26,0,20,28,0,10,23,29,0,0,19,20,0,0,0,0,0,0,0,0,0,0,0],"split_type":[0,0,0,0,0,0,0,0,0,0,0,0,0,0,0,0,0,0,0,0,0,0,0,0,0,0,0,0,0,0,0],"sum_hessian":[1.322E3,8.3E1,1.239E3,5E0,7.8E1,1.209E3,3E1,5.4E1,2.4E1,1.204E3,5E0,1.4E1,1.6E1,5E1,4E0,2.1E1,3E0,3E0,2E0,1E1,4E0,4.9E1,1E0,2E0,2E0,1.4E1,7E0,1E0,1E0,4E0,6E0],"tree_param":{"num_deleted":"0","num_feature":"32","num_nodes":"31","size_leaf_vector":"1"}},{"base_weights":[2.878215E-2,-2.328125E-1,3.5244E-2,-2.851852E-1,3.3333334E-3,-4.204545E-2,3.7940707E-2,3.3333334E-3,-3.6136362E-1,3.8461538E-3,-1.631579E-1,3.870579E-2,-1.6E-1,-3.809524E-1,2E-3,-3.55E-1,3.6000002E-3,3.9458804E-2,-9.9999994E-2,2.6666666E-3,-2.3999998E-2,-3.22E-2,2E-3,-4.2285714E-2,3E-3,3.4134788E-3,1.1347518E-3,3.3333334E-3,-3.8E-2],"categories":[],"categories_nodes":[],"categories_segments":[],"categories_sizes":[],"default_left":[0,0,0,0,0,0,0,0,0,0,0,0,0,0,0,0,0,0,0,0,0,0,0,0,0,0,0,0,0],"id":10,"left_children":[1,3,5,7,-1,9,11,-1,13,-1,15,17,19,21,-1,23,-1,25,27,-1,-1,-1,-1,-1,-1,-1,-1,-1,-1],"loss_changes":[2.2428942E0,4.7188938E-1,2.7067482E-1,6.873319E-1,0E0,4.881015E-1,1.9519126E-1,0E0,1.7602825E-1,0E0,7.747105E-1,1.3387883E-1,1.4533335E-1,1.9375587E-1,0E0,7.0108926E-1,0E0,9.9825025E-2,3.9166665E-1,0E0,0E0,0E0,0E0,0E0,0E0,0E0,0E0,0E0,0E0],"parents":[2147483647,0,0,1,1,2,2,3,3,5,5,6,6,8,8,10,10,11,11,12,12,13,13,15,15,17,17,18,18],"right_children":[2,4,6,8,-1,10,12,-1,14,-1,16,18,20,22,-1,24,-1,26,28,-1,-1,-1,-1,-1,-1,-1,-1,-1,-1],"split_conditions":[-6E-1,1E0,-1.329E-1,-5E0,2.3529205E-2,3.5E1,1E0,2.519421E-1,1E0,2.929782E-2,4.3E1,1E0,-5E-1,1E0,6.00083E-1,1.5929105E-2,8.8630675E-4,5.5E1,-3E-1,7.8290164E-1,-5.352945E-1,-2.9366663E0,4.636302E-1,-1.032478E0,3.0327834E-2,1.16985984E-1,2.9304704E-2,1.5187835E-3,-1.2408218E-2],"split_indices":[19,27,22,31,0,29,15,0,3,0,29,11,19,15,0,23,0,29,19,0,0,0,0,0,0,0,0,0,0],"split_type":[0,0,0,0,0,0,0,0,0,0,0,0,0,0,0,0,0,0,0,0,0,0,0,0,0,0,0,0,0],"sum_hessian":[1.321E3,3.1E1,1.29E3,2.6E1,5E0,4.3E1,1.247E3,5E0,2.1E1,2.5E1,1.8E1,1.243E3,4E0,2E1,1E0,9E0,9E0,1.237E3,6E0,2E0,2E0,1.9E1,1E0,6E0,3E0,1.097E3,1.4E2,5E0,1E0],"tree_param":{"num_deleted":"0","num_feature":"32","num_nodes":"29","size_leaf_vector":"1"}},{"base_weights":[2.8157895E-2,-2.2329545E-1,4.5937248E-2,-1.0703125E-1,-5.1199996E-1,4.7542304E-2,-5.0666664E-2,-6.3333325E-2,-3.559322E-2,-6.190476E-1,3.2E-3,3.9966637E-3,-2.093023E-2,-4.4642845E-3,-4.625E-1,-3.181818E-1,-6.909091E-2,3.7999998E-3,-7.7083334E-2,1.0181819E-3,-3.8E-2,-5.0666664E-2,2E-3,-7.999999E-3,-4.48E-2,-1.8181818E-2,3.7142858E-3],"categories":[],"categories_nodes":[],"categories_segments":[],"categories_sizes":[],"default_left":[0,0,0,0,0,0,0,0,0,0,0,0,0,0,0,0,0,0,0,0,0,0,0,0,0,0,0],"id":11,"left_children":[1,3,5,7,9,11,-1,-1,13,15,-1,-1,17,19,21,23,-1,-1,25,-1,-1,-1,-1,-1,-1,-1,-1],"loss_changes":[5.9562597E0,2.8990078E0,1.3853123E0,3.1019983E0,1.5020194E0,2.0634317E-1,0E0,0E0,7.819953E-1,1.2705622E0,0E0,0E0,1.6889194E-1,4.5904303E-1,3.489583E-1,5.2436364E-1,0E0,0E0,4.557562E-1,0E0,0E0,0E0,0E0,0E0,0E0,0E0,0E0],"parents":[2147483647,0,0,1,1,2,2,3,3,4,4,5,5,8,8,9,9,12,12,13,13,14,14,15,15,18,18],"right_children":[2,4,6,8,10,12,-1,-1,14,16,-1,-1,18,20,22,24,-1,-1,26,-1,-1,-1,-1,-1,-1,-1,-1],"split_conditions":[-8.63E-2,-1.112E-1,6E1,-3.37E-1,1E1,2.5E1,-2.139269E0,-1.5058651E0,4.1456795E-1,-5.51E-2,6.60598E-2,2.193981E-1,-9.4E-3,5.5E1,7.98E-2,-9.48E-2,-2.5296401E-2,8.866386E-2,4E-4,1.1188707E-3,-7.6541305E-1,-8.228592E-2,1.7187804E-2,-8.69484E-3,-1.09619135E-2,-2.5545332E0,9.6423335E-2],"split_indices":[20,20,18,20,18,18,0,0,23,22,0,0,20,18,22,20,0,0,20,0,0,0,0,0,0,0,0],"split_type":[0,0,0,0,0,0,0,0,0,0,0,0,0,0,0,0,0,0,0,0,0,0,0,0,0,0,0],"sum_hessian":[1.329E3,8.7E1,1.242E3,6.3E1,2.4E1,1.24E3,2E0,5E0,5.8E1,2E1,4E0,1.198E3,4.2E1,5.5E1,3E0,1E1,1E1,1.9E1,2.3E1,5.4E1,1E0,2E0,1E0,6E0,4E0,1E1,1.3E1],"tree_param":{"num_deleted":"0","num_feature":"32","num_nodes":"27","size_leaf_vector":"1"}},{"base_weights":[2.8141461E-2,2.9615676E-2,-5.0666664E-2,3.4087304E-2,-5.3676467E-2,-4.4E-2,3.899663E-2,-2.2321427E-2,-1.8461539E-1,2.3437513E-3,-2.875E-1,7.812501E-3,4.170486E-2,-7.65625E-2,3.84E-3,3.5555556E-3,-4.48E-2,2.4727273E-3,-1.2399999E-2,-4.48E-2,-6.4999997E-3,2.9756099E-3,-1.2266667E-2,3.5817805E-3,1.4285714E-3,-2.074074E-3,-2.3333332E-2],"categories":[],"categories_nodes":[],"categories_segments":[],"categories_sizes":[],"default_left":[0,0,0,0,0,0,0,0,0,0,0,0,0,0,0,0,0,0,0,0,0,0,0,0,0,0,0],"id":12,"left_children":[1,3,-1,5,7,9,11,13,15,17,19,21,23,25,-1,-1,-1,-1,-1,-1,-1,-1,-1,-1,-1,-1,-1],"loss_changes":[1.3147388E0,4.9607277E-1,0E0,4.847443E-1,2.7505958E-1,8.4702647E-1,9.983647E-2,2.1727633E-1,1.1427009E0,2.924439E-1,6.289375E-1,4.6025243E-1,7.9007626E-2,3.409867E-1,0E0,0E0,0E0,0E0,0E0,0E0,0E0,0E0,0E0,0E0,0E0,0E0,0E0],"parents":[2147483647,0,0,1,1,3,3,4,4,5,5,6,6,7,7,8,8,9,9,10,10,11,11,12,12,13,13],"right_children":[2,4,-1,6,8,10,12,14,16,18,20,22,24,26,-1,-1,-1,-1,-1,-1,-1,-1,-1,-1,-1,-1,-1],"split_conditions":[6E1,2E1,-1.9681274E0,-1.099E-1,1E0,1.23E2,-3.9173737E-2,3.1E1,4.5E1,1E0,2.8E1,-4.3775138E-2,1.470012E-1,3E1,2.1030959E-2,2.2266288E-1,-1.1215801E0,1.1279774E-2,-7.570297E-2,-6.6955227E-1,-8.294104E-1,1.6131541E-1,-1.8412933E-2,1.2680942E-1,1.1993686E-1,-1.9311555E-1,-2.7088263E0],"split_indices":[18,18,0,22,2,27,23,18,18,0,29,23,23,18,0,0,0,0,0,0,0,0,0,0,0,0,0],"split_type":[0,0,0,0,0,0,0,0,0,0,0,0,0,0,0,0,0,0,0,0,0,0,0,0,0,0,0],"sum_hessian":[1.328E3,1.326E3,2E0,1.259E3,6.7E1,7.4E1,1.185E3,5.5E1,1.2E1,6.3E1,1.1E1,9.5E1,1.09E3,3.1E1,2.4E1,8E0,4E0,5.4E1,9E0,4E0,7E0,8.1E1,1.4E1,9.65E2,1.25E2,2.6E1,5E0],"tree_param":{"num_deleted":"0","num_feature":"32","num_nodes":"27","size_leaf_vector":"1"}},{"base_weights":[2.5317403E-2,-2.305E-1,4.592742E-2,-1.19718306E-1,-4.8499998E-1,-1.2608695E-1,4.913793E-2,-6.0799997E-2,-7.014925E-2,3.4999999E-3,-6.478261E-1,3.6666666E-3,-2.875E-1,3.9967024E-3,-1.25E-1,-1.0999999E-2,-2.3055555E-1,-3.7083334E-1,-6.966667E-2,2.6666666E-3,-3.55E-1,2.6666666E-3,-2.1249999E-1,2.1333334E-3,-2.3333332E-2,-5.6999996E-2,-6.9333334E-3,-6.0799997E-2,-6.4999997E-3,-3.65E-2,2.6666666E-3,2.6666666E-3,-3.8E-2],"categories":[],"categories_nodes":[],"categories_segments":[],"categories_sizes":[],"default_left":[0,0,0,0,0,0,0,0,0,0,0,0,0,0,0,0,0,0,0,0,0,0,0,0,0,0,0,0,0,0,0,0,0],"id":13,"left_children":[1,3,5,7,9,11,13,-1,15,-1,17,-1,19,-1,21,23,25,27,-1,-1,29,-1,31,-1,-1,-1,-1,-1,-1,-1,-1,-1,-1],"loss_changes":[7.0703316E0,2.7613301E0,6.909909E-1,2.2000957E0,2.6111712E0,6.514311E-1,1.8034673E-1,0E0,6.3315403E-1,0E0,1.0978079E0,0E0,2.7170837E-1,0E0,9.020832E-2,5.363667E-1,1.186486E0,1.2906042E0,0E0,0E0,4.0839577E-1,0E0,2.7395833E-1,0E0,0E0,0E0,0E0,0E0,0E0,0E0,0E0,0E0,0E0],"parents":[2147483647,0,0,1,1,2,2,3,3,4,4,5,5,6,6,8,8,10,10,12,12,14,14,15,15,16,16,17,17,20,20,22,22],"right_children":[2,4,6,8,10,12,14,-1,16,-1,18,-1,20,-1,22,24,26,28,-1,-1,30,-1,32,-1,-1,-1,-1,-1,-1,-1,-1,-1,-1],"split_conditions":[-8.12E-2,-1.112E-1,-6E-1,-3.37E-1,-1.166E-1,1E0,1E0,-7.6305753E-1,8.116691E-2,1.386261E-3,4.894132E-4,2.4014285E-1,-3.38E-2,2.1890147E-1,-5E-1,1.0798084E1,9.275362E0,-3.9173737E-2,-3.3417434E-2,1.5941505E0,4.786325E0,9.2926174E-1,-2.5E-3,8.080559E-3,-1.9050904E-1,-2.634758E-2,-6.964676E-2,-2.0428848E-2,-1.901741E-2,-2.4921203E0,1.8513823E0,9.396839E-1,-2.7265915E-1],"split_indices":[20,20,19,20,22,9,15,0,23,0,23,0,20,0,19,26,28,23,0,0,28,0,20,0,0,0,0,0,0,0,0,0,0],"split_type":[0,0,0,0,0,0,0,0,0,0,0,0,0,0,0,0,0,0,0,0,0,0,0,0,0,0,0,0,0,0,0,0,0],"sum_hessian":[1.338E3,9.9E1,1.239E3,7E1,2.9E1,2.2E1,1.217E3,4E0,6.6E1,7E0,2.2E1,1.1E1,1.1E1,1.212E3,5E0,4.9E1,1.7E1,1.1E1,1.1E1,2E0,9E0,2E0,3E0,4.4E1,5E0,3E0,1.4E1,4E0,7E0,7E0,2E0,2E0,1E0],"tree_param":{"num_deleted":"0","num_feature":"32","num_nodes":"33","size_leaf_vector":"1"}},{"base_weights":[2.8058913E-2,-2.0315789E-1,4.589431E-2,-7.1969695E-2,-4.8499998E-1,4.7516286E-2,-5.0666664E-2,-4.5416665E-1,1.2727274E-2,3.3333334E-3,-5.92E-1,-2.0625E-1,4.914005E-2,-6.3333325E-2,-9.9999994E-2,3.018868E-2,-2.9999998E-1,-1.7777777E-1,-7.764706E-1,3.2E-3,-4.625E-1,-2.4999999E-2,3.9966884E-3,3.3333334E-3,-3.8E-2,3.9000001E-3,-1.9999999E-3,-3.8E-2,2E-3,-5.0666664E-2,3.4285714E-3,-6.625E-2,2E-3,-5.0666664E-2,2E-3,3.6666666E-3,-2.3999998E-2],"categories":[],"categories_nodes":[],"categories_segments":[],"categories_sizes":[],"default_left":[0,0,0,0,0,0,0,0,0,0,0,0,0,0,0,0,0,0,0,0,0,0,0,0,0,0,0,0,0,0,0,0,0,0,0,0,0],"id":14,"left_children":[1,3,5,7,9,11,-1,13,15,-1,17,19,21,-1,23,25,27,29,31,-1,33,35,-1,-1,-1,-1,-1,-1,-1,-1,-1,-1,-1,-1,-1,-1,-1],"loss_changes":[5.4692926E0,3.4776585E0,1.385175E0,2.1422613E0,1.7152667E0,5.1614E-1,0E0,1.3552084E0,3.093928E-1,0E0,1.7722569E0,5.233125E-1,7.534909E-2,0E0,3.9166665E-1,5.551061E-2,1.8249997E-1,9.31746E-1,7.2449493E-1,0E0,3.489583E-1,2.8645834E-1,0E0,0E0,0E0,0E0,0E0,0E0,0E0,0E0,0E0,0E0,0E0,0E0,0E0,0E0,0E0],"parents":[2147483647,0,0,1,1,2,2,3,3,4,4,5,5,7,7,8,8,10,10,11,11,12,12,14,14,15,15,16,16,17,17,18,18,20,20,21,21],"right_children":[2,4,6,8,10,12,-1,14,16,-1,18,20,22,-1,24,26,28,30,32,-1,34,36,-1,-1,-1,-1,-1,-1,-1,-1,-1,-1,-1,-1,-1,-1,-1],"split_conditions":[-8.12E-2,-1.112E-1,6E1,-2.626E-1,-1.166E-1,-7E-1,-1.611308E0,1.0648855E1,3.263158E1,8.637543E-3,8.815518E0,1E0,-6E-1,-1.3344961E0,-2.95E-2,6.6E-3,1E0,-1.07E-1,7.53E-2,3.644664E-1,-6.9E-3,1E0,1.7407921E-1,5.1640928E-2,-1.7526825E-1,5.4177856E-3,-2.4239806E-2,-6.407501E-2,3.5115585E-2,-3.0744018E-2,1.0615311E-2,-2.6752014E-2,8.656616E-3,-2.2927508E0,1.5275159E0,3.4893143E-1,-2.1524842E0],"split_indices":[20,20,18,20,22,19,0,28,28,0,26,9,19,0,22,22,8,20,22,0,20,0,0,0,0,0,0,0,0,0,0,0,0,0,0,0,0],"split_type":[0,0,0,0,0,0,0,0,0,0,0,0,0,0,0,0,0,0,0,0,0,0,0,0,0,0,0,0,0,0,0,0,0,0,0,0,0],"sum_hessian":[1.323E3,9.4E1,1.229E3,6.5E1,2.9E1,1.227E3,2E0,1.1E1,5.4E1,5E0,2.4E1,7E0,1.22E3,5E0,6E0,5.2E1,2E0,8E0,1.6E1,4E0,3E0,1.3E1,1.207E3,5E0,1E0,3.9E1,1.3E1,1E0,1E0,2E0,6E0,1.5E1,1E0,2E0,1E0,1.1E1,2E0],"tree_param":{"num_deleted":"0","num_feature":"32","num_nodes":"37","size_leaf_vector":"1"}},{"base_weights":[2.4608502E-2,-2.2666666E-1,4.5917545E-2,-9.565217E-2,-4.6486485E-1,4.7530364E-2,-5.0666664E-2,-4.5624998E-1,-4.7580644E-2,3.4999999E-3,-5.85E-1,-1.7777777E-1,4.9144257E-2,-6.25E-1,2.6666666E-3,4.4444455E-3,-1.75E-1,-6.3035715E-1,2.6666666E-3,3.2E-3,-3.5999998E-1,-2.4999999E-2,3.996705E-3,-6.0799997E-2,2E-3,2.090909E-3,-3.8E-2,-5.6999996E-2,-1.5999997E-3,-5.2444443E-2,2E-3,2E-3,-3.7E-2,3.6363637E-3,-1.6999999E-2],"categories":[],"categories_nodes":[],"categories_segments":[],"categories_sizes":[],"default_left":[0,0,0,0,0,0,0,0,0,0,0,0,0,0,0,0,0,0,0,0,0,0,0,0,0,0,0,0,0,0,0,0,0,0,0],"id":15,"left_children":[1,3,5,7,9,11,-1,13,15,-1,17,19,21,23,-1,25,27,29,-1,-1,31,33,-1,-1,-1,-1,-1,-1,-1,-1,-1,-1,-1,-1,-1],"loss_changes":[7.1907024E0,3.2323132E0,1.3852494E0,1.174371E0,2.286387E0,4.5781064E-1,0E0,6.817709E-1,4.1177598E-1,0E0,8.6238575E-1,3.7155557E-1,7.5353384E-2,5.4550004E-1,0E0,4.8041794E-1,1.4853749E0,4.787798E-1,0E0,0E0,2.08875E-1,1.9460228E-1,0E0,0E0,0E0,0E0,0E0,0E0,0E0,0E0,0E0,0E0,0E0,0E0,0E0],"parents":[2147483647,0,0,1,1,2,2,3,3,4,4,5,5,7,7,8,8,10,10,11,11,12,12,13,13,15,15,16,16,17,17,20,20,21,21],"right_children":[2,4,6,8,10,12,-1,14,16,-1,18,20,22,24,-1,26,28,30,-1,-1,32,34,-1,-1,-1,-1,-1,-1,-1,-1,-1,-1,-1,-1,-1],"split_conditions":[-7.87E-2,-1.112E-1,6E1,-3.37E-1,-1.166E-1,-7E-1,-1.4824035E0,1.0564516E1,8.116691E-2,5.843353E-4,1E1,1E0,-6E-1,1E0,4.7509763E-2,5E1,9.275362E0,7.53E-2,2.5944573E-1,3.3530906E-1,-8E-1,3.1E1,1.8468782E-1,-1.2277365E0,1.521347E-1,6.27475E-3,-5.478094E-1,-2.2300644E-2,-5.8948975E-2,-2.4038212E-2,7.964096E-3,1.6500386E0,-2.109331E0,3.210169E-1,-1.9802856E0],"split_indices":[20,20,18,20,22,19,0,28,23,0,18,9,19,17,0,18,28,22,0,0,19,18,0,0,0,0,0,0,0,0,0,0,0,0,0],"split_type":[0,0,0,0,0,0,0,0,0,0,0,0,0,0,0,0,0,0,0,0,0,0,0,0,0,0,0,0,0,0,0,0,0,0,0],"sum_hessian":[1.34E3,1.04E2,1.236E3,6.8E1,3.6E1,1.234E3,2E0,7E0,6.1E1,7E0,2.9E1,8E0,1.226E3,5E0,2E0,4.4E1,1.7E1,2.7E1,2E0,4E0,4E0,1.3E1,1.213E3,4E0,1E0,4.3E1,1E0,3E0,1.4E1,2.6E1,1E0,1E0,3E0,1E1,3E0],"tree_param":{"num_deleted":"0","num_feature":"32","num_nodes":"35","size_leaf_vector":"1"}},{"base_weights":[2.7337858E-2,-2.030303E-1,4.5887623E-2,-6.3709676E-2,-4.2499998E-1,4.7512237E-2,-5.0666664E-2,-4.583333E-1,-2.105263E-2,3.6666666E-3,-6.1851853E-1,3.9966414E-3,-3.472222E-2,-5.6E-1,2E-3,-4.4642845E-3,-3.8E-2,-7.0208335E-1,3E-3,1.50000015E-2,-2.4285714E-1,-5.6999996E-2,2E-3,2.2857143E-3,-1.65E-2,-3.633333E-2,-7.015385E-2,-2.9999998E-3,3.7894738E-3,-3.7E-2,3E-3],"categories":[],"categories_nodes":[],"categories_segments":[],"categories_sizes":[],"default_left":[0,0,0,0,0,0,0,0,0,0,0,0,0,0,0,0,0,0,0,0,0,0,0,0,0,0,0,0,0,0,0],"id":16,"left_children":[1,3,5,7,9,11,-1,13,15,-1,17,-1,19,21,-1,23,-1,25,-1,27,29,-1,-1,-1,-1,-1,-1,-1,-1,-1,-1],"loss_changes":[5.675679E0,3.034494E0,1.3851535E0,1.0340266E0,3.490718E0,2.48317E-1,0E0,3.0883336E-1,4.271029E-1,0E0,1.5064697E0,0E0,3.762043E-1,4.6387494E-1,0E0,3.791964E-1,0E0,6.420269E-1,0E0,5.2756574E-2,4.4839287E-1,0E0,0E0,0E0,0E0,0E0,0E0,0E0,0E0,0E0,0E0],"parents":[2147483647,0,0,1,1,2,2,3,3,4,4,5,5,7,7,8,8,10,10,12,12,13,13,15,15,17,17,19,19,20,20],"right_children":[2,4,6,8,10,12,-1,14,16,-1,18,-1,20,22,-1,24,-1,26,-1,28,30,-1,-1,-1,-1,-1,-1,-1,-1,-1,-1],"split_conditions":[-7.69E-2,-1.112E-1,6E1,-3.37E-1,-1.099E-1,2.5E1,-1.363811E0,1E0,5.5E1,5.3756713E-4,2.5E1,1.8948855E-1,1E0,4.894132E-4,1.3996398E-1,1.0798084E1,-5.039847E-1,-2.78E-2,2.3869003E-1,3E1,1E0,-1.1295174E0,4.3709107E-2,5.5630878E-3,-1.6174881E-1,-2.6361465E-2,-2.268875E-2,-2.7954787E-1,4.081352E-2,-1.9405847E0,3.192224E-1],"split_indices":[20,20,18,20,22,18,0,17,18,0,18,0,0,23,0,26,0,22,0,18,27,0,0,0,0,0,0,0,0,0,0],"split_type":[0,0,0,0,0,0,0,0,0,0,0,0,0,0,0,0,0,0,0,0,0,0,0,0,0,0,0,0,0,0,0],"sum_hessian":[1.325E3,9.8E1,1.227E3,6.1E1,3.7E1,1.225E3,2E0,5E0,5.6E1,1.1E1,2.6E1,1.19E3,3.5E1,4E0,1E0,5.5E1,1E0,2.3E1,3E0,2.9E1,6E0,3E0,1E0,4.8E1,7E0,1.1E1,1.2E1,1.1E1,1.8E1,3E0,3E0],"tree_param":{"num_deleted":"0","num_feature":"32","num_nodes":"31","size_leaf_vector":"1"}},{"base_weights":[2.6618976E-2,-1.7541666E-1,4.6650127E-2,-3.287671E-2,-3.8854167E-1,4.7475167E-2,-3.8E-2,-3.857143E-1,4.477613E-3,-1.9310345E-1,-6.525E-1,3.996581E-3,-2.8205127E-2,-4.48E-2,2.6666666E-3,1.8939395E-2,-3.8E-2,-3.4166667E-1,3.6666666E-3,-7.764706E-1,3E-3,3.7894738E-3,-9.523809E-2,3.932203E-3,-1.65E-2,3E-3,-3.36E-2,-2.3999998E-2,-6.56E-2,-1.6333332E-2,3.6000002E-3],"categories":[],"categories_nodes":[],"categories_segments":[],"categories_sizes":[],"default_left":[0,0,0,0,0,0,0,0,0,0,0,0,0,0,0,0,0,0,0,0,0,0,0,0,0,0,0,0,0,0,0],"id":17,"left_children":[1,3,5,7,9,11,-1,13,15,17,19,-1,21,-1,-1,23,-1,25,-1,27,-1,-1,29,-1,-1,-1,-1,-1,-1,-1,-1],"loss_changes":[5.382607E0,3.6326852E0,5.4288363E-1,9.638677E-1,2.3502016E0,2.2832704E-1,0E0,5.299047E-1,4.7358096E-1,1.0450789E0,1.739912E0,0E0,2.0208213E-1,0E0,0E0,4.591806E-1,0E0,5.50375E-1,0E0,1.0658836E-1,0E0,0E0,3.2998216E-1,0E0,0E0,0E0,0E0,0E0,0E0,0E0,0E0],"parents":[2147483647,0,0,1,1,2,2,3,3,4,4,5,5,7,7,8,8,9,9,10,10,12,12,15,15,17,17,19,19,22,22],"right_children":[2,4,6,8,10,12,-1,14,16,18,20,-1,22,-1,-1,24,-1,26,-1,28,-1,-1,30,-1,-1,-1,-1,-1,-1,-1,-1],"split_conditions":[-7.38E-2,-1.112E-1,6E1,-3.37E-1,-2.78E-2,2.5E1,-1.2547064E0,7.080664E0,5.5E1,2.9045996E-1,1E1,1.671689E-1,-2.07E-2,-1.0391562E0,4.02124E-2,1.907563E1,-4.6366575E-1,-1.361E-1,4.9453735E-4,-1.58E-2,2.1959479E-1,3.0409697E-2,3.5E1,9.581695E-3,-1.488089E-1,1.8695984E-2,-2.4252547E-2,-2.2569275E-3,-2.0873642E-2,-1.785338E0,3.7548445E-2],"split_indices":[20,20,18,20,22,18,0,26,18,24,18,0,21,0,0,28,0,22,0,22,0,0,18,0,0,0,0,0,0,0,0],"split_type":[0,0,0,0,0,0,0,0,0,0,0,0,0,0,0,0,0,0,0,0,0,0,0,0,0,0,0,0,0,0,0],"sum_hessian":[1.327E3,1.19E2,1.208E3,7.2E1,4.7E1,1.207E3,1E0,6E0,6.6E1,2.8E1,1.9E1,1.169E3,3.8E1,4E0,2E0,6.5E1,1E0,1.7E1,1.1E1,1.6E1,3E0,1.8E1,2E1,5.8E1,7E0,3E0,1.4E1,2E0,1.4E1,1.1E1,9E0],"tree_param":{"num_deleted":"0","num_feature":"32","num_nodes":"31","size_leaf_vector":"1"}},{"base_weights":[2.7740741E-2,-1.8857142E-1,4.594703E-2,-4.7580644E-2,-3.8295454E-1,4.7542304E-2,-2.9166666E-1,-3.3124998E-1,-5.454544E-3,3.6363637E-3,-5.1029414E-1,3.99667E-3,-2.4390243E-2,2.6666666E-3,-3.7E-2,-5.0666664E-2,-1.25E-1,1.2037038E-2,-3.8E-2,-5.724138E-1,-1.25E-1,2.0833334E-2,-2.9166666E-1,3.2E-3,-3.8E-2,2.3846154E-3,-2.3999998E-2,-4.948148E-2,2.6666666E-3,3.2E-3,-3.8E-2,3.8666667E-3,-7.999999E-3,2.6666666E-3,-3.7E-2],"categories":[],"categories_nodes":[],"categories_segments":[],"categories_sizes":[],"default_left":[0,0,0,0,0,0,0,0,0,0,0,0,0,0,0,0,0,0,0,0,0,0,0,0,0,0,0,0,0,0,0,0,0,0,0],"id":18,"left_children":[1,3,5,7,9,11,13,15,17,-1,19,-1,21,-1,-1,-1,23,25,-1,27,29,31,33,-1,-1,-1,-1,-1,-1,-1,-1,-1,-1,-1,-1],"loss_changes":[5.3252907E0,2.8594322E0,6.8494534E-1,7.390859E-1,2.4235458E0,2.168963E-1,3.4854162E-1,4.192708E-1,4.574377E-1,0E0,7.422161E-1,0E0,5.0165147E-1,0E0,0E0,0E0,3.6549997E-1,3.0837786E-1,0E0,8.305235E-1,3.6549997E-1,1.2445834E-1,3.4854162E-1,0E0,0E0,0E0,0E0,0E0,0E0,0E0,0E0,0E0,0E0,0E0,0E0],"parents":[2147483647,0,0,1,1,2,2,3,3,4,4,5,5,6,6,7,7,8,8,10,10,12,12,16,16,17,17,19,19,20,20,21,21,22,22],"right_children":[2,4,6,8,10,12,14,16,18,-1,20,-1,22,-1,-1,-1,24,26,-1,28,30,32,34,-1,-1,-1,-1,-1,-1,-1,-1,-1,-1,-1,-1],"split_conditions":[-7.38E-2,-1.112E-1,5E1,-3.37E-1,-1.166E-1,2.5E1,1E0,-1.329E-1,1E0,4.5494077E-4,7.0190156E-1,1.5953724E-1,1E0,7.387851E-1,-1.1543298E0,-3.5667846E-1,5E0,3.263158E1,-4.2657256E-1,1E0,-2.45E-2,1E0,3E1,3.6995545E-2,-9.560235E-1,2.146698E-3,-4.2773437E-2,-3.191597E-2,8.222119E-1,1.197319E-3,-4.0372466E-3,3.1260755E-2,-1.14356995E-1,5.202628E-1,-1.6425109E0],"split_indices":[20,20,18,20,22,18,9,22,10,0,24,0,0,0,0,0,30,28,0,9,22,15,18,0,0,0,0,0,0,0,0,0,0,0,0],"split_type":[0,0,0,0,0,0,0,0,0,0,0,0,0,0,0,0,0,0,0,0,0,0,0,0,0,0,0,0,0,0,0,0,0,0,0],"sum_hessian":[1.349E3,1.04E2,1.245E3,6.1E1,4.3E1,1.24E3,5E0,7E0,5.4E1,1E1,3.3E1,1.2E3,4E1,2E0,3E0,2E0,5E0,5.3E1,1E0,2.8E1,5E0,3.5E1,5E0,4E0,1E0,5.1E1,2E0,2.6E1,2E0,4E0,1E0,2.9E1,6E0,2E0,3E0],"tree_param":{"num_deleted":"0","num_feature":"32","num_nodes":"35","size_leaf_vector":"1"}},{"base_weights":[2.8433558E-2,-1.6782609E-1,4.671533E-2,-4.6031743E-2,-3.0943397E-1,-2.0625E-1,4.8327897E-2,-1.882353E-1,6.38298E-3,-3.9302325E-1,3.6363637E-3,3.2E-3,-4.625E-1,3.9966526E-3,-1.4062499E-2,-3.181818E-1,3.4285714E-3,2.6666667E-2,-2.9999998E-1,-2.8484848E-1,-6.818182E-1,-5.0666664E-2,2E-3,3.7777778E-3,-8.6666666E-2,2.6666666E-3,-3.2E-2,3.8666667E-3,-1.2499999E-3,-3.8E-2,2E-3,-3.443478E-2,3.6363637E-3,-6.0399998E-2,2E-3,-2.8799998E-2,3.6363637E-3],"categories":[],"categories_nodes":[],"categories_segments":[],"categories_sizes":[],"default_left":[0,0,0,0,0,0,0,0,0,0,0,0,0,0,0,0,0,0,0,0,0,0,0,0,0,0,0,0,0,0,0,0,0,0,0,0,0],"id":19,"left_children":[1,3,5,7,9,11,13,15,17,19,-1,-1,21,-1,23,25,-1,27,29,31,33,-1,-1,-1,35,-1,-1,-1,-1,-1,-1,-1,-1,-1,-1,-1,-1],"loss_changes":[4.840841E0,1.9691656E0,5.1293755E-1,4.7077578E-1,1.5901031E0,5.233125E-1,1.2540245E-1,5.2414066E-1,3.0008513E-1,1.1491194E0,0E0,0E0,3.489583E-1,0E0,1.4647743E-1,3.29697E-1,0E0,4.1989584E-2,1.8249997E-1,1.6064556E0,5.8786297E-1,0E0,0E0,0E0,5.580606E-1,0E0,0E0,0E0,0E0,0E0,0E0,0E0,0E0,0E0,0E0,0E0,0E0],"parents":[2147483647,0,0,1,1,2,2,3,3,4,4,5,5,6,6,7,7,8,8,9,9,12,12,14,14,15,15,17,17,18,18,19,19,20,20,24,24],"right_children":[2,4,6,8,10,12,14,16,18,20,-1,-1,22,-1,24,26,-1,28,30,32,34,-1,-1,-1,36,-1,-1,-1,-1,-1,-1,-1,-1,-1,-1,-1,-1],"split_conditions":[-7.2E-2,-1.112E-1,-7E-1,-2.367E-1,2.3055555E1,-2.06E-2,2.5E1,4.894132E-4,3.2083332E1,1.0009917E1,4.7691344E-4,2.4963081E-1,-6.9E-3,1.616324E-1,-2.5E-3,-3.9095584E-2,3.4035947E-2,8.116691E-2,1E1,9.427868E0,7.0190156E-1,-1.5111102E0,1.5652905E0,1.21476054E-1,4E-4,1.10467374E-1,-8.7954164E-1,1.3664246E-2,-2.1899872E-2,-3.93515E-2,6.0070798E-2,-3.231769E-2,3.6624906E-4,-1.6650466E-2,3.6219787E-3,-1.3923882E0,3.2043763E-2],"split_indices":[20,20,19,20,28,20,18,23,28,26,0,0,20,0,20,23,0,23,18,26,24,0,0,0,20,0,0,0,0,0,0,0,0,0,0,0,0],"split_type":[0,0,0,0,0,0,0,0,0,0,0,0,0,0,0,0,0,0,0,0,0,0,0,0,0,0,0,0,0,0,0,0,0,0,0,0,0],"sum_hessian":[1.346E3,1.14E2,1.232E3,6.2E1,5.2E1,7E0,1.225E3,1.6E1,4.6E1,4.2E1,1E1,4E0,3E0,1.194E3,3.1E1,1E1,6E0,4.4E1,2E0,3.2E1,1E1,2E0,1E0,1.7E1,1.4E1,2E0,8E0,2.9E1,1.5E1,1E0,1E0,2.2E1,1E1,9E0,1E0,4E0,1E1],"tree_param":{"num_deleted":"0","num_feature":"32","num_nodes":"37","size_leaf_vector":"1"}},{"base_weights":[2.8608248E-2,-1.6468254E-1,4.833739E-2,-4.0298507E-2,-3.008333E-1,-4.3181818E-2,3.9966996E-3,-2.8666666E-1,3.018868E-2,-4.9772727E-1,-1.8205129E-1,3.6923077E-3,-1.55E-1,-5.111111E-1,3.4285714E-3,3.8947368E-3,-1.5624998E-2,-5.842105E-1,3E-3,-5.285714E-1,-1.030303E-1,3.2E-3,-2.9166666E-1,-4.65E-2,2E-3,-3.8E-2,3.7333332E-3,2.6666666E-3,-5.2705884E-2,2.6666666E-3,-6.0799997E-2,-2.074074E-3,-3.0857142E-2,-5.0666664E-2,3E-3],"categories":[],"categories_nodes":[],"categories_segments":[],"categories_sizes":[],"default_left":[0,0,0,0,0,0,0,0,0,0,0,0,0,0,0,0,0,0,0,0,0,0,0,0,0,0,0,0,0,0,0,0,0,0,0],"id":20,"left_children":[1,3,5,7,9,11,-1,13,15,17,19,-1,21,23,-1,-1,25,27,-1,29,31,-1,33,-1,-1,-1,-1,-1,-1,-1,-1,-1,-1,-1,-1],"loss_changes":[5.1866403E0,2.121685E0,1.8511629E-1,1.1721625E0,1.3126364E0,2.2691959E-1,0E0,1.1313018E0,4.567015E-2,1.0402484E0,1.013453E0,0E0,2.781667E-1,3.529513E-1,0E0,0E0,4.800104E-1,8.974199E-1,0E0,9.356191E-1,7.092737E-1,0E0,6.985416E-1,0E0,0E0,0E0,0E0,0E0,0E0,0E0,0E0,0E0,0E0,0E0,0E0],"parents":[2147483647,0,0,1,1,2,2,3,3,4,4,5,5,7,7,8,8,9,9,10,10,12,12,13,13,16,16,17,17,19,19,20,20,22,22],"right_children":[2,4,6,8,10,12,-1,14,16,18,20,-1,22,24,-1,-1,26,28,-1,30,32,-1,34,-1,-1,-1,-1,-1,-1,-1,-1,-1,-1,-1,-1],"split_conditions":[-7.03E-2,-1.112E-1,-6E-1,-2.367E-1,9.42029E0,1E0,1.7327052E-1,6.9648093E-3,8.116691E-2,2.5E1,-5.0466903E-4,2.2966033E-1,3E1,1E0,3.131317E-2,1.2673156E-2,9.603538E-2,-8.693043E-2,2.071659E-1,-6.113871E-2,1.9816099E-2,1.6051337E0,3.5E1,-8.091781E-1,1.4725158E-1,-2.0147856E-2,2.0409392E-3,8.1703183E-4,-3.194847E-2,3.3695222E-4,-1.53184505E-2,-9.10009E-3,-1.1767578E-2,-1.3902215E0,3.2940733E-1],"split_indices":[21,21,19,21,28,9,0,23,23,18,25,0,18,14,0,0,23,23,0,25,25,0,18,0,0,0,0,0,0,0,0,0,0,0,0],"split_type":[0,0,0,0,0,0,0,0,0,0,0,0,0,0,0,0,0,0,0,0,0,0,0,0,0,0,0,0,0,0,0,0,0,0,0],"sum_hessian":[1.357E3,1.25E2,1.232E3,6.6E1,5.9E1,2.1E1,1.211E3,1.4E1,5.2E1,2.1E1,3.8E1,1.2E1,9E0,8E0,6E0,3.7E1,1.5E1,1.8E1,3E0,6E0,3.2E1,4E0,5E0,7E0,1E0,1E0,1.4E1,2E0,1.6E1,2E0,4E0,2.6E1,6E0,2E0,3E0],"tree_param":{"num_deleted":"0","num_feature":"32","num_nodes":"35","size_leaf_vector":"1"}},{"base_weights":[3.2862455E-2,-1.0875E-1,4.6696573E-2,-6.161616E-2,-3.159091E-1,4.832105E-2,-2.9166666E-1,-3.103448E-2,-2.6153845E-1,-6.2083334E-1,3.6363637E-3,-1.6E-1,4.9137224E-2,3E-3,-5.0666664E-2,-2.9166666E-1,-1.1585364E-2,-5.6E-1,-6.666666E-2,-2.9166666E-1,-6.5142855E-2,3E-3,-3.8E-2,3.996697E-3,-9.9999994E-2,-2.8799998E-2,2E-3,1.0302037E-10,-3.8E-2,-5.6999996E-2,2E-3,-3.8E-2,3.4999999E-3,-5.0666664E-2,3E-3,3E-3,-1.6999999E-2],"categories":[],"categories_nodes":[],"categories_segments":[],"categories_sizes":[],"default_left":[0,0,0,0,0,0,0,0,0,0,0,0,0,0,0,0,0,0,0,0,0,0,0,0,0,0,0,0,0,0,0,0,0,0,0,0,0],"id":21,"left_children":[1,3,5,7,9,11,13,15,17,19,-1,21,23,-1,-1,25,27,29,31,33,-1,-1,-1,-1,35,-1,-1,-1,-1,-1,-1,-1,-1,-1,-1,-1,-1],"loss_changes":[2.6400461E0,1.1522392E0,6.879797E-1,5.971652E-1,2.4523678E0,2.1546412E-1,6.985416E-1,4.376297E-1,7.187692E-1,5.266366E-1,0E0,3.28875E-1,1.5409589E-1,0E0,0E0,1.3883334E-1,4.402439E-1,4.6387494E-1,4.265625E-1,6.985416E-1,0E0,0E0,0E0,0E0,1.16249986E-1,0E0,0E0,0E0,0E0,0E0,0E0,0E0,0E0,0E0,0E0,0E0,0E0],"parents":[2147483647,0,0,1,1,2,2,3,3,4,4,5,5,6,6,7,7,8,8,9,9,11,11,12,12,15,15,16,16,17,17,18,18,19,19,24,24],"right_children":[2,4,6,8,10,12,14,16,18,20,-1,22,24,-1,-1,26,28,30,32,34,-1,-1,-1,-1,36,-1,-1,-1,-1,-1,-1,-1,-1,-1,-1,-1,-1],"split_conditions":[-7E-2,3.05E-2,5E1,1.470012E-1,7.53E-2,-7E-1,1E0,-3.37E-1,2E1,4.56E-2,3.0998228E-4,1E0,1E0,6.632571E-1,-9.7694516E-1,1E0,5E1,-8.9E-2,1.5841286E-1,3.87E-2,-1.4092941E-2,2.2884543E-1,-1.2790039E0,1.3584015E-1,-5E-1,-7.4444395E-1,3.4403747E-1,-6.662557E-5,-2.5734922E-1,-3.636658E-2,1.3662796E-2,-3.140106E-3,2.5474548E-4,-1.0826187E-2,2.7777099E-3,3.6307722E-1,-7.679138E-3],"split_indices":[20,22,18,23,22,19,9,20,27,22,0,0,15,0,0,17,18,20,23,22,0,0,0,0,19,0,0,0,0,0,0,0,0,0,0,0,0],"split_type":[0,0,0,0,0,0,0,0,0,0,0,0,0,0,0,0,0,0,0,0,0,0,0,0,0,0,0,0,0,0,0,0,0,0,0,0,0],"sum_hessian":[1.344E3,1.19E2,1.225E3,9.8E1,2.1E1,1.22E3,5E0,8.6E1,1.2E1,1.1E1,1E1,4E0,1.216E3,3E0,2E0,5E0,8.1E1,4E0,8E0,5E0,6E0,3E0,1E0,1.21E3,6E0,4E0,1E0,8E1,1E0,3E0,1E0,1E0,7E0,2E0,3E0,3E0,3E0],"tree_param":{"num_deleted":"0","num_feature":"32","num_nodes":"37","size_leaf_vector":"1"}},{"base_weights":[3.0413534E-2,-1.2868217E-1,4.7462564E-2,-3.2786883E-2,-2.115942E-1,-4.7619045E-2,4.9111675E-2,-1.7499998E-2,-3.8E-2,-1.3728814E-1,-5.9090906E-1,3.6923077E-3,-1.7777777E-1,3.996604E-3,-1.6E-1,-2.5862055E-3,-2.9999998E-1,3.7333332E-3,-1.9555555E-1,-6.65E-2,3E-3,-3.8E-2,-8.125E-2,2.6666666E-3,-2.9999998E-1,1.0714286E-3,-2.3999998E-2,-3.8E-2,2E-3,-2.1257143E-2,3.6363637E-3,-1E-2,2.6666666E-3,2E-3,-3.8E-2],"categories":[],"categories_nodes":[],"categories_segments":[],"categories_sizes":[],"default_left":[0,0,0,0,0,0,0,0,0,0,0,0,0,0,0,0,0,0,0,0,0,0,0,0,0,0,0,0,0,0,0,0,0,0,0],"id":22,"left_children":[1,3,5,7,9,11,13,15,-1,17,19,-1,21,-1,23,25,27,-1,29,-1,-1,-1,31,-1,33,-1,-1,-1,-1,-1,-1,-1,-1,-1,-1],"loss_changes":[3.613636E0,1.0187249E0,1.9081259E-1,4.0405124E-1,1.8636677E0,2.6451772E-1,2.1706939E-1,2.5201294E-1,0E0,6.4152145E-1,1.6925282E0,0E0,2.1961802E-1,0E0,1.4533335E-1,2.796567E-1,1.8249997E-1,0E0,7.729813E-1,0E0,0E0,0E0,4.4270832E-2,0E0,1.8249997E-1,0E0,0E0,0E0,0E0,0E0,0E0,0E0,0E0,0E0,0E0],"parents":[2147483647,0,0,1,1,2,2,3,3,4,4,5,5,6,6,7,7,9,9,10,10,12,12,14,14,15,15,16,16,18,18,22,22,24,24],"right_children":[2,4,6,8,10,12,14,16,-1,18,20,-1,22,-1,24,26,28,-1,30,-1,-1,-1,32,-1,34,-1,-1,-1,-1,-1,-1,-1,-1,-1,-1],"split_conditions":[-6.66E-2,-1.112E-1,-6E-1,2E1,1.27E2,-2.07E-2,1E0,1E0,-6.848883E-1,-1.166E-1,2.08E2,2.1053779E-1,-1.57E-2,1.3761294E-1,-2.5E-3,5.52E2,1E0,5.415306E-3,5.6E1,-1.1027069E-2,2.8518678E-4,-1.1766833E0,4E-4,9.6155304E-1,-5E-1,-2.1997215E-3,-1.0035278E-1,-2.3676117E-1,1.169014E-2,-1.830614E-2,8.09021E-4,-1.1806469E0,6.6925764E-1,9.2945874E-1,-7.0648193E-3],"split_indices":[20,20,19,30,27,21,15,6,0,22,27,0,20,0,20,27,11,0,27,0,0,0,20,0,19,0,0,0,0,0,0,0,0,0,0],"split_type":[0,0,0,0,0,0,0,0,0,0,0,0,0,0,0,0,0,0,0,0,0,0,0,0,0,0,0,0,0,0,0,0,0,0,0],"sum_hessian":[1.329E3,1.28E2,1.201E3,6E1,6.8E1,2E1,1.181E3,5.9E1,1E0,5.8E1,1E1,1.2E1,8E0,1.177E3,4E0,5.7E1,2E0,1.4E1,4.4E1,7E0,3E0,1E0,7E0,2E0,2E0,5.5E1,2E0,1E0,1E0,3.4E1,1E1,5E0,2E0,1E0,1E0],"tree_param":{"num_deleted":"0","num_feature":"32","num_nodes":"35","size_leaf_vector":"1"}},{"base_weights":[2.7790098E-2,-1.3082707E-1,4.5045044E-2,-8.717948E-2,-4.2352942E-1,4.9122807E-2,-1.52E-1,-7.857141E-3,-2.0104167E-1,-2.0416667E-1,-6.3333325E-2,3.9966498E-3,-2.1249999E-1,-2.8888887E-1,-7.058823E-2,1.6935484E-2,-1.7777777E-1,-1.5111111E-1,-5.6999996E-2,-3.857143E-1,3.3333334E-3,2.6666666E-3,-3.8E-2,-5.0666664E-2,-9.9999994E-2,-1.5624998E-2,-3.8E-2,-1.6999999E-2,2.5762713E-3,3.4285714E-3,-5.0666664E-2,-4.413793E-3,-2.4470586E-2,-4.48E-2,2.6666666E-3,3.2E-3,-2.3999998E-2,3.7142858E-3,-2.3999998E-2],"categories":[],"categories_nodes":[],"categories_segments":[],"categories_sizes":[],"default_left":[0,0,0,0,0,0,0,0,0,0,0,0,0,0,0,0,0,0,0,0,0,0,0,0,0,0,0,0,0,0,0,0,0,0,0,0,0,0,0],"id":23,"left_children":[1,3,5,7,9,11,13,15,17,19,-1,-1,21,23,25,27,29,31,-1,33,-1,-1,-1,-1,35,37,-1,-1,-1,-1,-1,-1,-1,-1,-1,-1,-1,-1,-1],"loss_changes":[3.7089605E0,1.6622517E0,9.8854375E-1,1.0551428E0,1.2112131E0,2.7220583E-1,2.5821698E-1,2.979053E-1,1.1181283E0,5.516369E-1,0E0,0E0,2.7395833E-1,5.222222E-1,3.7045035E-1,2.2402918E-1,9.31746E-1,6.5130866E-1,0E0,5.299047E-1,0E0,0E0,0E0,0E0,2.08E-1,2.9627234E-1,0E0,0E0,0E0,0E0,0E0,0E0,0E0,0E0,0E0,0E0,0E0,0E0,0E0],"parents":[2147483647,0,0,1,1,2,2,3,3,4,4,5,5,6,6,7,7,8,8,9,9,12,12,13,13,14,14,15,15,16,16,17,17,19,19,24,24,25,25],"right_children":[2,4,6,8,10,12,14,16,18,20,-1,-1,22,24,26,28,30,32,-1,34,-1,-1,-1,-1,36,38,-1,-1,-1,-1,-1,-1,-1,-1,-1,-1,-1,-1,-1],"split_conditions":[-6.66E-2,-7.2E-2,3E1,-6.9E-3,5.943775E-1,1E0,-6E-1,2.909091E1,1.8571428E1,-4.1186535E-3,-1.014492E-2,1.3829312E-1,-5E-1,3.5E1,3.0693125E-2,-3.37E-1,1.4296162E-1,-1.112E-1,-5.8618165E-3,1.0035714E1,4.7227857E-3,3.1718802E-1,-6.4996337E-3,-1.086195E0,5E1,1E0,-6.2575913E-3,-2.0640105E-1,1.1519451E-3,3.4188079E-3,-3.3281248E-2,-4.445726E-1,-2.792282E-2,-3.8724898E-3,2.474632E-3,2.2026744E-1,-8.0433774E-1,8.3988644E-2,-1.9979859E-2],"split_indices":[21,21,18,22,24,15,19,28,28,23,0,0,19,18,23,21,23,21,0,28,0,0,0,0,18,13,0,0,0,0,0,0,0,0,0,0,0,0,0],"split_type":[0,0,0,0,0,0,0,0,0,0,0,0,0,0,0,0,0,0,0,0,0,0,0,0,0,0,0,0,0,0,0,0,0,0,0,0,0,0,0],"sum_hessian":[1.352E3,1.32E2,1.22E3,1.16E2,1.6E1,1.196E3,2.4E1,6.9E1,4.7E1,1.1E1,5E0,1.193E3,3E0,8E0,1.6E1,6.1E1,8E0,4.4E1,3E0,6E0,5E0,2E0,1E0,2E0,6E0,1.5E1,1E0,3E0,5.8E1,6E0,2E0,2.8E1,1.6E1,4E0,2E0,4E0,2E0,1.3E1,2E0],"tree_param":{"num_deleted":"0","num_feature":"32","num_nodes":"39","size_leaf_vector":"1"}},{"base_weights":[3.2900594E-2,-8.7050356E-2,4.6652894E-2,-4.877049E-2,-3.4166667E-1,4.912134E-2,-1.40625E-1,-3.3124998E-1,-2.869565E-2,-1.6785714E-1,-6.0799997E-2,3.996584E-3,8.000001E-3,3.6000002E-3,-3.857143E-1,-5.0666664E-2,-1.25E-1,3.4558825E-2,-1.1770833E-1,-5.6E-1,3.6000002E-3,3.7894738E-3,-9.9999994E-2,-3.6666665E-2,2E-3,-3.8E-2,3.2E-3,3.9354837E-3,-7.999999E-3,-1.8571427E-3,-1.9047618E-2,-5.6999996E-2,2E-3,-3.8E-2,3.3333334E-3],"categories":[],"categories_nodes":[],"categories_segments":[],"categories_sizes":[],"default_left":[0,0,0,0,0,0,0,0,0,0,0,0,0,0,0,0,0,0,0,0,0,0,0,0,0,0,0,0,0,0,0,0,0,0,0],"id":24,"left_children":[1,3,5,7,9,11,13,15,17,19,-1,-1,21,-1,23,-1,25,27,29,31,-1,-1,33,-1,-1,-1,-1,-1,-1,-1,-1,-1,-1,-1,-1],"loss_changes":[2.227724E0,1.3381251E0,5.662732E-1,6.823237E-1,1.1812143E0,4.0679216E-2,7.452723E-1,4.192708E-1,6.5156966E-1,1.1937857E0,0E0,0E0,1.1103158E-1,0E0,2.2023809E-1,0E0,3.6549997E-1,1.3882709E-1,5.405134E-1,4.6387494E-1,0E0,0E0,3.9166665E-1,0E0,0E0,0E0,0E0,0E0,0E0,0E0,0E0,0E0,0E0,0E0,0E0],"parents":[2147483647,0,0,1,1,2,2,3,3,4,4,5,5,6,6,7,7,8,8,9,9,12,12,14,14,16,16,17,17,18,18,19,19,22,22],"right_children":[2,4,6,8,10,12,14,16,18,20,-1,-1,22,-1,24,-1,26,28,30,32,-1,-1,34,-1,-1,-1,-1,-1,-1,-1,-1,-1,-1,-1,-1],"split_conditions":[-6.46E-2,-7.2E-2,3.1E1,-3.37E-1,5.943775E-1,2.5E1,1E0,-1.329E-1,-1.58E-2,1.254721E-1,-9.333343E-3,1.3424021E-1,-2.5E-3,2.0264606E-1,5.1E1,-1.8988891E-1,1E0,2.9285715E1,-1.112E-1,1E0,2.0373154E-3,2.4590111E-1,-1.9E-3,-9.992993E-1,5.4000914E-1,-5.9453154E-1,1.05051875E-1,1.2939452E-3,-6.4932248E-3,-1.0953936E-1,-2.4867918E-2,-3.5626984E-3,8.811584E-2,-5.9796143E-3,5.8210164E-1],"split_indices":[20,20,18,20,24,18,9,22,22,24,0,0,20,0,18,0,2,28,20,10,0,0,20,0,0,0,0,0,0,0,0,0,0,0,0],"split_type":[0,0,0,0,0,0,0,0,0,0,0,0,0,0,0,0,0,0,0,0,0,0,0,0,0,0,0,0,0,0,0,0,0,0,0],"sum_hessian":[1.347E3,1.38E2,1.209E3,1.21E2,1.7E1,1.194E3,1.5E1,7E0,1.14E2,1.3E1,4E0,1.17E3,2.4E1,9E0,6E0,2E0,5E0,6.7E1,4.7E1,4E0,9E0,1.8E1,6E0,5E0,1E0,1E0,4E0,6.1E1,6E0,2.7E1,2E1,3E0,1E0,1E0,5E0],"tree_param":{"num_deleted":"0","num_feature":"32","num_nodes":"35","size_leaf_vector":"1"}},{"base_weights":[3.171533E-2,-9.417808E-2,4.669388E-2,-2.9385963E-2,-3.151515E-1,4.7506135E-2,-2.9999998E-1,-2.9166666E-1,-1.4678897E-2,-4.3043476E-1,-4.5454543E-2,4.8318293E-2,-1.6E-1,-3.8E-2,2E-3,-3.5999998E-1,2E-3,1.6483517E-2,-1.631579E-1,-2.8611112E-1,-6.3333325E-2,3.5555556E-3,-2.9999998E-1,-4.7619045E-2,3.9966637E-3,3E-3,-3.8E-2,-3.7E-2,2E-3,3E-3,-1.65E-2,3.6363637E-3,-3.2E-2,-8.615385E-3,-4.9999997E-2,-3.8E-2,2E-3,3.6363637E-3,-1.0909091E-2],"categories":[],"categories_nodes":[],"categories_segments":[],"categories_sizes":[],"default_left":[0,0,0,0,0,0,0,0,0,0,0,0,0,0,0,0,0,0,0,0,0,0,0,0,0,0,0,0,0,0,0,0,0,0,0,0,0,0,0],"id":25,"left_children":[1,3,5,7,9,11,13,15,17,19,21,23,25,-1,-1,27,-1,29,31,33,-1,-1,35,37,-1,-1,-1,-1,-1,-1,-1,-1,-1,-1,-1,-1,-1,-1,-1],"loss_changes":[2.5878072E0,2.0810702E0,3.5921645E-1,4.3545997E-1,1.0064557E0,2.1384144E-1,1.8249997E-1,1.3883334E-1,5.0702846E-1,9.725847E-1,2.650505E-1,1.9417334E-1,3.28875E-1,0E0,0E0,2.08875E-1,0E0,4.337122E-1,9.5693785E-1,1.0210471E0,0E0,0E0,1.8249997E-1,1.7965367E-1,0E0,0E0,0E0,0E0,0E0,0E0,0E0,0E0,0E0,0E0,0E0,0E0,0E0,0E0,0E0],"parents":[2147483647,0,0,1,1,2,2,3,3,4,4,5,5,6,6,7,7,8,8,9,9,10,10,11,11,12,12,15,15,17,17,18,18,19,19,22,22,23,23],"right_children":[2,4,6,8,10,12,14,16,18,20,22,24,26,-1,-1,28,-1,30,32,34,-1,-1,36,38,-1,-1,-1,-1,-1,-1,-1,-1,-1,-1,-1,-1,-1,-1,-1],"split_conditions":[-6.12E-2,-7.2E-2,1E0,-3.37E-1,1.0917431E1,1E0,-3E-1,1E0,2E1,3.8E-3,-6.34E-2,-6E-1,-5E-1,-3.459316E-2,5.845742E-1,1E0,2.223648E-1,1E0,1.2E1,5.943775E-1,-7.0387647E-3,7.1258546E-5,1E0,-2.07E-2,1.4501762E-1,2.721409E-1,-5.501251E-3,-5.46969E-1,3.4385222E-1,1.1904144E-3,-1.7349121E-1,1.9425201E-3,-3.0099334E-2,-6.157684E-4,-8.586693E-3,-1.9924164E-4,1.881813E-2,1.7189209E-1,-1.0153253E0],"split_indices":[20,20,13,20,28,15,19,14,28,22,20,19,19,0,0,17,0,6,27,24,0,0,5,21,0,0,0,0,0,0,0,0,0,0,0,0,0,0,0],"split_type":[0,0,0,0,0,0,0,0,0,0,0,0,0,0,0,0,0,0,0,0,0,0,0,0,0,0,0,0,0,0,0,0,0,0,0,0,0,0,0],"sum_hessian":[1.369E3,1.45E2,1.224E3,1.13E2,3.2E1,1.222E3,2E0,5E0,1.08E2,2.2E1,1E1,1.218E3,4E0,1E0,1E0,4E0,1E0,9E1,1.8E1,1.7E1,5E0,8E0,2E0,2E1,1.198E3,3E0,1E0,3E0,1E0,8.3E1,7E0,1E1,8E0,1.2E1,5E0,1E0,1E0,1E1,1E1],"tree_param":{"num_deleted":"0","num_feature":"32","num_nodes":"39","size_leaf_vector":"1"}},{"base_weights":[3.4822106E-2,3.556818E-2,-3.8E-2,3.630501E-2,-2.9999998E-1,-6.542055E-3,4.0057756E-2,-3.8E-2,2E-3,2.6436783E-2,-1.4285713E-1,4.085265E-2,-1.6E-1,2.987952E-3,-1.28E-2,-2.3111109E-2,-2.4615382E-3,3.4801844E-3,1.3870967E-3,-1.6999999E-2,2E-3],"categories":[],"categories_nodes":[],"categories_segments":[],"categories_sizes":[],"default_left":[0,0,0,0,0,0,0,0,0,0,0,0,0,0,0,0,0,0,0,0,0],"id":26,"left_children":[1,3,-1,5,7,9,11,-1,-1,13,15,17,19,-1,-1,-1,-1,-1,-1,-1,-1],"loss_changes":[5.1935947E-1,3.372686E-1,0E0,2.1218884E-1,1.8249997E-1,4.847966E-1,1.9927418E-1,0E0,0E0,1.8297853E-1,3.3484736E-1,7.450867E-2,5.3875E-2,0E0,0E0,0E0,0E0,0E0,0E0,0E0,0E0],"parents":[2147483647,0,0,1,1,3,3,4,4,5,5,6,6,9,9,10,10,11,11,12,12],"right_children":[2,4,-1,6,8,10,12,-1,-1,14,16,18,20,-1,-1,-1,-1,-1,-1,-1,-1],"split_conditions":[6E1,1E0,-7.0196533E-1,-8.71E-2,5E1,1.15E2,1E0,-3.1825714E-2,5.378083E-1,2.7206337E-1,2.399413E-1,1E0,1E0,3.8790035E-3,-2.7691344E-2,-1.3094024E-1,-7.899742E-3,4.6037026E-2,4.1432198E-4,-2.3794783E-2,1.6005631E-1],"split_indices":[18,13,0,22,18,27,11,0,0,23,24,4,1,0,0,0,0,0,0,0,0],"split_type":[0,0,0,0,0,0,0,0,0,0,0,0,0,0,0,0,0,0,0,0,0],"sum_hessian":[1.32E3,1.319E3,1E0,1.317E3,2E0,1.06E2,1.211E3,1E0,1E0,8.6E1,2E1,1.207E3,4E0,8.2E1,4E0,8E0,1.2E1,1.084E3,1.23E2,3E0,1E0],"tree_param":{"num_deleted":"0","num_feature":"32","num_nodes":"21","size_leaf_vector":"1"}},{"base_weights":[2.3762738E-2,-1.7412587E-1,4.6712663E-2,-4.453125E-2,-2.75625E-1,-7.7083334E-2,4.9131513E-2,-2.9166666E-1,-1.8644067E-2,3.7999998E-3,-3.7704918E-1,3.6923077E-3,-2.0416667E-1,3.996686E-3,-2.9999998E-1,-3.5999998E-1,2E-3,-3.5087706E-3,-2.9999998E-1,-2.2625E-1,-6.340909E-1,-3.3124998E-1,3.2E-3,-3.8E-2,2E-3,-3.7E-2,2E-3,3.897436E-3,-8.842105E-3,2E-3,-3.8E-2,-2.3724139E-2,-2.9999998E-3,-5.6199998E-2,2.6666666E-3,-3.6666665E-2,2.6666666E-3],"categories":[],"categories_nodes":[],"categories_segments":[],"categories_sizes":[],"default_left":[0,0,0,0,0,0,0,0,0,0,0,0,0,0,0,0,0,0,0,0,0,0,0,0,0,0,0,0,0,0,0,0,0,0,0,0,0],"id":27,"left_children":[1,3,5,7,9,11,13,15,17,-1,19,-1,21,-1,23,25,-1,27,29,31,33,35,-1,-1,-1,-1,-1,-1,-1,-1,-1,-1,-1,-1,-1,-1,-1],"loss_changes":[6.2481947E0,1.868711E0,3.7270212E-1,4.040111E-1,2.6397257E0,3.8529646E-1,3.640902E-1,1.3883334E-1,2.501933E-1,0E0,2.2209988E0,0E0,3.8560414E-1,0E0,1.8249997E-1,2.08875E-1,0E0,3.239676E-1,1.8249997E-1,5.196574E-1,1.0278902E0,3.859375E-1,0E0,0E0,0E0,0E0,0E0,0E0,0E0,0E0,0E0,0E0,0E0,0E0,0E0,0E0,0E0],"parents":[2147483647,0,0,1,1,2,2,3,3,4,4,5,5,6,6,7,7,8,8,10,10,12,12,14,14,15,15,17,17,18,18,19,19,20,20,21,21],"right_children":[2,4,6,8,10,12,14,16,18,-1,20,-1,22,-1,24,26,-1,28,30,32,34,36,-1,-1,-1,-1,-1,-1,-1,-1,-1,-1,-1,-1,-1,-1,-1],"split_conditions":[-6.34E-2,-1.112E-1,-6E-1,-3.37E-1,-1.166E-1,-2.07E-2,1E0,1E0,1E0,3.533821E-3,3.342392E-2,1.6900001E-1,4E-4,1.1879685E-1,-3E-1,1E0,2.0089263E-1,6.725294E-2,1E0,9.147826E0,1E0,1E0,6.714574E-1,-2.927967E-2,4.947836E-1,-5.0689423E-1,3.126611E-1,1.6410232E-2,-2.5476074E-2,7.086677E-2,-1.0345459E-1,-1.6718004E-2,-2.587738E-3,-1.3471984E-2,8.2370755E-4,-9.37782E-1,9.473693E-2],"split_indices":[20,20,19,20,22,21,13,14,6,0,23,0,20,0,19,17,0,23,10,26,6,2,0,0,0,0,0,0,0,0,0,0,0,0,0,0,0],"split_type":[0,0,0,0,0,0,0,0,0,0,0,0,0,0,0,0,0,0,0,0,0,0,0,0,0,0,0,0,0,0,0,0,0,0,0,0,0],"sum_hessian":[1.373E3,1.42E2,1.231E3,6.3E1,7.9E1,2.3E1,1.208E3,5E0,5.8E1,1.9E1,6E1,1.2E1,1.1E1,1.206E3,2E0,4E0,1E0,5.6E1,2E0,3.9E1,2.1E1,7E0,4E0,1E0,1E0,3E0,1E0,3.8E1,1.8E1,1E0,1E0,2.8E1,1.1E1,1.9E1,2E0,5E0,2E0],"tree_param":{"num_deleted":"0","num_feature":"32","num_nodes":"37","size_leaf_vector":"1"}},{"base_weights":[2.3606928E-2,-1.5294117E-1,4.6556123E-2,-9.0073526E-2,-6.1944443E-1,4.7404256E-2,-3.8E-2,5.14706E-3,-1.826087E-1,3E-3,-7.5333333E-1,4.8252344E-2,-2.3999998E-2,1.9402986E-2,-3.8E-2,3.8181816E-3,-2.8437498E-1,-7.015385E-2,2.6666666E-3,4.910103E-2,-1.25E-1,3.9215684E-3,-5.647058E-3,-9.032258E-3,-4.5111112E-2,-5.333333E-3,3.996552E-3,3E-3,-2.3999998E-2],"categories":[],"categories_nodes":[],"categories_segments":[],"categories_sizes":[],"default_left":[0,0,0,0,0,0,0,0,0,0,0,0,0,0,0,0,0,0,0,0,0,0,0,0,0,0,0,0,0],"id":28,"left_children":[1,3,5,7,9,11,-1,13,15,-1,17,19,-1,21,-1,-1,23,-1,-1,25,27,-1,-1,-1,-1,-1,-1,-1,-1],"loss_changes":[5.3876944E0,4.4313817E0,5.4271936E-1,1.1992704E0,1.6114864E0,3.6066556E-1,0E0,4.746724E-1,1.6309628E0,0E0,1.4875889E0,1.7861152E-1,0E0,1.8203102E-1,0E0,0E0,2.2369146E0,0E0,0E0,1.1905813E-1,1.8187502E-1,0E0,0E0,0E0,0E0,0E0,0E0,0E0,0E0],"parents":[2147483647,0,0,1,1,2,2,3,3,4,4,5,5,7,7,8,8,10,10,11,11,13,13,16,16,19,19,20,20],"right_children":[2,4,6,8,10,12,-1,14,16,-1,18,20,-1,22,-1,-1,24,-1,-1,26,28,-1,-1,-1,-1,-1,-1,-1,-1],"split_conditions":[-5.99E-2,-6.46E-2,1E0,-1.112E-1,-9.78E-2,6E1,-2.6937293E-2,3.5E1,-1.011E-1,7.8819273E-4,1E1,1E0,-5.707855E-1,5.8272653E-3,-4.6634278E-1,3.3102569E-3,3.342392E-2,-9.080887E-3,3.2809295E-2,-7E-1,-2.5E-3,6.2656095E-3,-7.991363E-2,-1.359746E-2,-1.2394256E-2,-8.6275935E-1,1.4380318E-1,2.331667E-1,-1.8247986E-2],"split_indices":[20,20,13,20,22,18,0,30,22,0,18,15,0,25,0,0,23,0,0,19,20,0,0,0,0,0,0,0,0],"split_type":[0,0,0,0,0,0,0,0,0,0,0,0,0,0,0,0,0,0,0,0,0,0,0,0,0,0,0,0,0],"sum_hessian":[1.327E3,1.52E2,1.175E3,1.35E2,1.7E1,1.174E3,1E0,6.7E1,6.8E1,3E0,1.4E1,1.172E3,2E0,6.6E1,1E0,2.1E1,4.7E1,1.2E1,2E0,1.167E3,5E0,5E1,1.6E1,3E1,1.7E1,8E0,1.159E3,3E0,2E0],"tree_param":{"num_deleted":"0","num_feature":"32","num_nodes":"29","size_leaf_vector":"1"}},{"base_weights":[2.5354214E-2,-1.4512987E-1,4.743266E-2,-7.539062E-2,-4.7037035E-1,3.9965278E-3,-3.243243E-2,-1.3380282E-1,-2.5862055E-3,-6.666666E-2,-6.368421E-1,1.6129034E-2,-2.4285714E-1,-1.0703125E-1,-3.3124998E-1,1.4035089E-2,-3.8E-2,3.3333334E-3,-2.1249999E-1,3E-3,-7.65625E-1,-4.5454543E-2,3.8095238E-3,-4.625E-1,3E-3,-1.2408163E-2,3.75E-3,-5.0666664E-2,-1E-2,3.909091E-3,-7.714285E-3,2.6666666E-3,-3.8E-2,-7.015385E-2,-1.6999999E-2,-1.28E-2,3.4285714E-3,-5.0666664E-2,2E-3],"categories":[],"categories_nodes":[],"categories_segments":[],"categories_sizes":[],"default_left":[0,0,0,0,0,0,0,0,0,0,0,0,0,0,0,0,0,0,0,0,0,0,0,0,0,0,0,0,0,0,0,0,0,0,0,0,0,0,0],"id":29,"left_children":[1,3,5,7,9,-1,11,13,15,17,19,21,23,25,27,29,-1,-1,31,-1,33,35,-1,37,-1,-1,-1,-1,-1,-1,-1,-1,-1,-1,-1,-1,-1,-1,-1],"loss_changes":[5.0544395E0,3.4575703E0,2.4109101E-1,5.4399514E-1,1.7720861E0,0E0,3.820027E-1,3.398497E-1,4.6209013E-1,1.5104166E-1,1.6787415E0,6.2281802E-2,4.4839287E-1,4.8076767E-1,4.192708E-1,2.240073E-1,0E0,0E0,2.7395833E-1,0E0,7.986412E-1,1.1812986E-1,0E0,3.489583E-1,0E0,0E0,0E0,0E0,0E0,0E0,0E0,0E0,0E0,0E0,0E0,0E0,0E0,0E0,0E0],"parents":[2147483647,0,0,1,1,2,2,3,3,4,4,6,6,7,7,8,8,9,9,10,10,11,11,12,12,13,13,14,14,15,15,18,18,20,20,21,21,23,23],"right_children":[2,4,6,8,10,-1,12,14,16,18,20,22,24,26,28,30,-1,-1,32,-1,34,36,-1,38,-1,-1,-1,-1,-1,-1,-1,-1,-1,-1,-1,-1,-1,-1,-1],"split_conditions":[-5.9E-2,-6.66E-2,2.5E1,2.6897666E-1,-9.36E-2,1.244837E-1,1E0,1.7351298E-1,1E0,-6.12E-2,7.6202636E0,3E1,1E0,9.4844055E0,-8.24E-2,-7.2E-2,-2.3723983E-3,7.251358E-4,-1.432E-1,1.9142151E-4,1.01339245E1,1E0,4.380875E-2,1E0,3.040956E-1,-6.339627E-2,2.0022583E-3,-7.3520504E-2,-2.0576477E-4,9.327774E-4,-4.898796E-3,1.3816566E-2,-1.5584945E-3,-8.354416E-3,-2.5506592E-3,-1.6788177E-2,4.9924108E-1,-7.9373837E-1,8.9117324E-1],"split_indices":[20,20,18,24,22,0,0,24,5,20,26,18,27,26,22,20,0,0,22,0,26,9,0,8,0,0,0,0,0,0,0,0,0,0,0,0,0,0,0],"split_type":[0,0,0,0,0,0,0,0,0,0,0,0,0,0,0,0,0,0,0,0,0,0,0,0,0,0,0,0,0,0,0,0,0,0,0,0,0,0,0],"sum_hessian":[1.34E3,1.53E2,1.187E3,1.27E2,2.6E1,1.151E3,3.6E1,7E1,5.7E1,8E0,1.8E1,3E1,6E0,6.3E1,7E0,5.6E1,1E0,5E0,3E0,3E0,1.5E1,1E1,2E1,3E0,3E0,4.8E1,1.5E1,2E0,5E0,4.3E1,1.3E1,2E0,1E0,1.2E1,3E0,4E0,6E0,2E0,1E0],"tree_param":{"num_deleted":"0","num_feature":"32","num_nodes":"39","size_leaf_vector":"1"}},{"base_weights":[2.8385418E-2,-1.10802464E-1,4.742181E-2,-3.3749998E-2,-3.232558E-1,4.826565E-2,-3.8E-2,-3.5999998E-1,-1.9396551E-2,-2.2162162E-1,-6.5142855E-2,4.911017E-2,-2.9999998E-1,2E-3,-4.625E-1,-1.1304347E-2,-3.8E-2,-8.863636E-2,-3.90625E-1,3.9965957E-3,-1.25E-1,-3.8E-2,2E-3,2E-3,-5.0666664E-2,2.5925937E-4,-1.65E-2,-3.7E-2,-4.2105254E-4,-4.9777772E-2,-6.4999997E-3,3E-3,-2.3999998E-2],"categories":[],"categories_nodes":[],"categories_segments":[],"categories_sizes":[],"default_left":[0,0,0,0,0,0,0,0,0,0,0,0,0,0,0,0,0,0,0,0,0,0,0,0,0,0,0,0,0,0,0,0,0],"id":30,"left_children":[1,3,5,7,9,11,-1,13,15,17,-1,19,21,-1,23,25,-1,27,29,-1,31,-1,-1,-1,-1,-1,-1,-1,-1,-1,-1,-1,-1],"loss_changes":[3.5663643E0,2.6410387E0,5.4444194E-1,5.5495477E-1,1.9654703E0,3.6237884E-1,0E0,2.08875E-1,4.223034E-1,7.9694986E-1,0E0,1.8031788E-1,1.8249997E-1,0E0,3.489583E-1,3.2675108E-1,0E0,6.833104E-1,1.0958507E0,0E0,1.8187502E-1,0E0,0E0,0E0,0E0,0E0,0E0,0E0,0E0,0E0,0E0,0E0,0E0],"parents":[2147483647,0,0,1,1,2,2,3,3,4,4,5,5,7,7,8,8,9,9,11,11,12,12,14,14,15,15,17,17,18,18,20,20],"right_children":[2,4,6,8,10,12,-1,14,16,18,-1,20,22,-1,24,26,-1,28,30,-1,32,-1,-1,-1,-1,-1,-1,-1,-1,-1,-1,-1,-1],"split_conditions":[-5.69E-2,-7.03E-2,6E1,-2.5137607E-2,6.901339E-1,1E0,-5.2862734E-1,1E0,3.5E1,3.1921595E-2,-4.506874E-3,1E0,5E1,3.8607025E-3,-2.018E-1,7.545934E-1,-4.239636E-1,-1.1490216E-1,1.254721E-1,1.2723967E-1,-2.5E-3,-2.828701E-2,4.5385122E-1,5.3179625E-2,-5.5328367E-4,1.7671208E-4,-6.0559083E-3,-7.663002E-3,-8.489838E-3,-3.2320784E-3,-4.8065186E-3,2.1585639E-1,-1.5445098E-2],"split_indices":[21,21,18,25,24,13,0,2,30,23,0,15,18,0,21,24,0,23,24,0,21,0,0,0,0,0,0,0,0,0,0,0,0],"split_type":[0,0,0,0,0,0,0,0,0,0,0,0,0,0,0,0,0,0,0,0,0,0,0,0,0,0,0,0,0,0,0,0,0],"sum_hessian":[1.343E3,1.61E2,1.182E3,1.19E2,4.2E1,1.181E3,1E0,4E0,1.15E2,3.6E1,6E0,1.179E3,2E0,1E0,3E0,1.14E2,1E0,2.1E1,1.5E1,1.174E3,5E0,1E0,1E0,1E0,2E0,1.07E2,7E0,3E0,1.8E1,8E0,7E0,3E0,2E0],"tree_param":{"num_deleted":"0","num_feature":"32","num_nodes":"33","size_leaf_vector":"1"}},{"base_weights":[2.5608856E-2,-1.1505681E-1,4.6567798E-2,-3.8399998E-2,-2.971154E-1,3.9965366E-3,-1.0576923E-1,-3.1048385E-2,-3.8E-2,-8.260869E-2,-4.5166665E-1,-2.03125E-1,3.6363637E-3,3.977274E-3,-1.13513514E-1,-5.0666664E-2,1.2417635E-9,-2.03125E-1,-6.8666667E-1,-3.55E-1,3.4285714E-3,-4.307692E-3,3.92E-3,-5.0666664E-2,-5.2571427E-3,3.75E-3,-1E-2,3.4285714E-3,-2.8399998E-2,-6.4E-2,2.6666666E-3,-5.0666664E-2,-1.65E-2],"categories":[],"categories_nodes":[],"categories_segments":[],"categories_sizes":[],"default_left":[0,0,0,0,0,0,0,0,0,0,0,0,0,0,0,0,0,0,0,0,0,0,0,0,0,0,0,0,0,0,0,0,0],"id":31,"left_children":[1,3,5,7,9,-1,11,13,-1,15,17,19,-1,21,23,-1,25,27,29,31,-1,-1,-1,-1,-1,-1,-1,-1,-1,-1,-1,-1,-1],"loss_changes":[4.0001736E0,2.444852E0,6.1446714E-1,3.8646626E-1,1.6866074E0,0E0,3.9201814E-1,3.586125E-1,0E0,1.0463767E0,1.6127396E0,6.129509E-1,0E0,2.3173486E-1,8.7771934E-1,0E0,1.2890625E-1,6.129509E-1,1.2506661E0,2.8339577E-1,0E0,0E0,0E0,0E0,0E0,0E0,0E0,0E0,0E0,0E0,0E0,0E0,0E0],"parents":[2147483647,0,0,1,1,2,2,3,3,4,4,6,6,7,7,9,9,10,10,11,11,13,13,14,14,16,16,17,17,18,18,19,19],"right_children":[2,4,6,8,10,-1,12,14,-1,16,18,20,-1,22,24,-1,26,28,30,32,-1,-1,-1,-1,-1,-1,-1,-1,-1,-1,-1,-1,-1],"split_conditions":[-5.6E-2,-7E-2,3E1,5.5E1,-5.03E-2,1.2037415E-1,4E-4,1.3090909E1,-9.062164E-2,-6.83E-2,3E0,1E0,2.4210662E-2,8.021978E0,1.3142858E1,-4.421997E-3,9.912002E0,7.7667685E0,1E0,3.5E1,1.4249511E-1,-3.319023E-2,1.9424247E-3,-5.5714417E-3,-6.476859E-3,1.3462829E-3,-1.1752701E-3,8.5529324E-4,-7.04998E-3,-7.8106686E-3,3.6411285E-3,-7.404187E-1,-4.8633727E-1],"split_indices":[20,20,18,18,22,0,20,28,0,20,27,2,0,28,28,0,26,26,4,18,0,0,0,0,0,0,0,0,0,0,0,0,0],"split_type":[0,0,0,0,0,0,0,0,0,0,0,0,0,0,0,0,0,0,0,0,0,0,0,0,0,0,0,0,0,0,0,0,0],"sum_hessian":[1.354E3,1.75E2,1.179E3,1.24E2,5.1E1,1.154E3,2.5E1,1.23E2,1E0,2.2E1,2.9E1,1.5E1,1E1,8.7E1,3.6E1,2E0,2E1,1.5E1,1.4E1,9E0,6E0,3.8E1,4.9E1,2E0,3.4E1,1.5E1,5E0,6E0,9E0,1.2E1,2E0,2E0,7E0],"tree_param":{"num_deleted":"0","num_feature":"32","num_nodes":"33","size_leaf_vector":"1"}},{"base_weights":[3.0530645E-2,-8.047337E-2,4.653846E-2,7.5630266E-3,-2.843137E-1,-1.10526316E-1,4.908854E-2,1.5384616E-2,-2.9999998E-1,-1.7625E-1,-6.2083334E-1,-2.2727272E-1,3.5555556E-3,3.9965124E-3,-1.25E-1,3.9175257E-2,-9.523809E-2,-3.8E-2,2E-3,-1.5624998E-2,-2.7199998E-1,-6.65E-2,-1.6E-1,-3.3124998E-1,3E-3,2.6666666E-3,-2.1249999E-1,3.956522E-3,-1E-2,3.6666666E-3,-2.0399999E-2,3.7333332E-3,-3.8E-2,-8.842105E-3,-5.3714283E-2,-3.8E-2,3E-3,-3.6666665E-2,2.6666666E-3,2.6666666E-3,-3.8E-2],"categories":[],"categories_nodes":[],"categories_segments":[],"categories_sizes":[],"default_left":[0,0,0,0,0,0,0,0,0,0,0,0,0,0,0,0,0,0,0,0,0,0,0,0,0,0,0,0,0,0,0,0,0,0,0,0,0,0,0,0,0],"id":32,"left_children":[1,3,5,7,9,11,13,15,17,19,21,23,-1,-1,25,27,29,-1,-1,31,33,-1,35,37,-1,-1,39,-1,-1,-1,-1,-1,-1,-1,-1,-1,-1,-1,-1,-1,-1],"loss_changes":[2.3812802E0,3.034918E0,4.7404313E-1,2.908856E-1,1.7452221E0,3.5385436E-1,1.8029499E-1,3.1164986E-1,1.8249997E-1,6.109437E-1,1.0306039E0,3.1525564E-1,0E0,0E0,9.020832E-2,1.6991122E-1,4.8498213E-1,0E0,0E0,4.800104E-1,1.5382196E0,0E0,3.28875E-1,3.859375E-1,0E0,0E0,2.7395833E-1,0E0,0E0,0E0,0E0,0E0,0E0,0E0,0E0,0E0,0E0,0E0,0E0,0E0,0E0],"parents":[2147483647,0,0,1,1,2,2,3,3,4,4,5,5,6,6,7,7,8,8,9,9,10,10,11,11,14,14,15,15,16,16,19,19,20,20,22,22,23,23,26,26],"right_children":[2,4,6,8,10,12,14,16,18,20,22,24,-1,-1,26,28,30,-1,-1,32,34,-1,36,38,-1,-1,40,-1,-1,-1,-1,-1,-1,-1,-1,-1,-1,-1,-1,-1,-1],"split_conditions":[-5.6E-2,-7.2E-2,-6E-1,1E0,5.2E1,1E0,1E0,3.64E-2,1E0,-6.46E-2,4.3E1,1E0,1.3109557E-1,1.0558106E-1,-5E-1,3.5435522E-1,-1.003E-1,-8.3371885E-2,2.0264557E-1,6.901339E-1,1.15E-2,-6.676712E-3,-6.83E-2,1E0,3.2362095E-1,7.641107E-1,-2.5E-3,2.142433E-3,-1.8363494E-2,1.605812E-2,-5.125732E-3,1.968193E-3,-1.468277E-3,-6.485977E-3,-7.1858214E-3,-3.5214615E-3,3.4840773E-3,-6.811853E-1,2.5995892E-1,7.946648E-1,-2.3839416E-2],"split_indices":[20,20,19,10,27,2,15,22,2,20,29,17,0,0,19,23,20,0,0,24,22,0,20,27,0,0,20,0,0,0,0,0,0,0,0,0,0,0,0,0,0],"split_type":[0,0,0,0,0,0,0,0,0,0,0,0,0,0,0,0,0,0,0,0,0,0,0,0,0,0,0,0,0,0,0,0,0,0,0,0,0,0,0,0,0],"sum_hessian":[1.337E3,1.68E2,1.169E3,1.18E2,5E1,1.8E1,1.151E3,1.16E2,2E0,3.9E1,1.1E1,1E1,8E0,1.146E3,5E0,9.6E1,2E1,1E0,1E0,1.5E1,2.4E1,7E0,4E0,7E0,3E0,2E0,3E0,9.1E1,5E0,1.1E1,9E0,1.4E1,1E0,1.8E1,6E0,1E0,3E0,5E0,2E0,2E0,1E0],"tree_param":{"num_deleted":"0","num_feature":"32","num_nodes":"41","size_leaf_vector":"1"}},{"base_weights":[2.551852E-2,-1.2171429E-1,4.7406465E-2,-2.4793386E-2,-3.3272725E-1,-2.8205127E-2,3.996485E-3,-2.0625E-1,-1.1842104E-2,3.6363637E-3,-4.1777778E-1,3.7777778E-3,-8.863636E-2,-3.5999998E-1,3E-3,2.5E-2,-1.030303E-1,-2.85E-1,-6.40625E-1,-2.8888887E-1,3.7142858E-3,-3.7E-2,2E-3,-1.6999999E-2,2.936709E-3,-5.0666664E-2,-3.8709675E-3,3.3333334E-3,-2.8159998E-2,-6.299999E-2,-1.28E-2,-2.6499998E-2,2E-3],"categories":[],"categories_nodes":[],"categories_segments":[],"categories_sizes":[],"default_left":[0,0,0,0,0,0,0,0,0,0,0,0,0,0,0,0,0,0,0,0,0,0,0,0,0,0,0,0,0,0,0,0,0],"id":33,"left_children":[1,3,5,7,9,11,-1,13,15,-1,17,-1,19,21,-1,23,25,27,29,31,-1,-1,-1,-1,-1,-1,-1,-1,-1,-1,-1,-1,-1],"loss_changes":[4.356311E0,3.570775E0,2.281177E-1,2.8191915E-1,1.7880411E0,1.8195415E-1,0E0,3.1331253E-1,3.855662E-1,0E0,1.1489344E0,0E0,6.0844874E-1,2.08875E-1,0E0,2.358307E-1,9.256109E-1,6.7126656E-1,1.0034685E0,1.2795138E-1,0E0,0E0,0E0,0E0,0E0,0E0,0E0,0E0,0E0,0E0,0E0,0E0,0E0],"parents":[2147483647,0,0,1,1,2,2,3,3,4,4,5,5,7,7,8,8,10,10,12,12,13,13,15,15,16,16,17,17,18,18,19,19],"right_children":[2,4,6,8,10,12,-1,14,16,-1,18,-1,20,22,-1,24,26,28,30,32,-1,-1,-1,-1,-1,-1,-1,-1,-1,-1,-1,-1,-1],"split_conditions":[-5.47E-2,-7E-2,-4E-1,-3.37E-1,-1.226E-1,-5.7E-3,1.10754386E-1,1.0035714E1,1.3090909E1,3.342285E-3,1E0,1.1684852E-1,4E-4,1E0,3.8392637E-2,-6E-1,-4.4378643E-3,0E0,4.3E1,1E0,1.3827286E-2,-3.8756254E-1,2.946887E-1,-7.670227E-2,1.1474381E-3,-1.4137268E-3,-1.0196079E-2,1.0078507E-2,-6.4499853E-3,-1.2745437E-2,-3.239746E-3,-6.1124635E-1,4.3519063E0],"split_indices":[20,20,19,20,22,20,0,28,28,0,2,0,20,17,0,19,25,19,29,2,0,0,0,0,0,0,0,0,0,0,0,0,0],"split_type":[0,0,0,0,0,0,0,0,0,0,0,0,0,0,0,0,0,0,0,0,0,0,0,0,0,0,0,0,0,0,0,0,0],"sum_hessian":[1.349E3,1.74E2,1.175E3,1.2E2,5.4E1,3.8E1,1.137E3,7E0,1.13E2,1E1,4.4E1,1.7E1,2.1E1,4E0,3E0,8.1E1,3.2E1,2.9E1,1.5E1,8E0,1.3E1,3E0,1E0,3E0,7.8E1,2E0,3E1,5E0,2.4E1,1.1E1,4E0,7E0,1E0],"tree_param":{"num_deleted":"0","num_feature":"32","num_nodes":"33","size_leaf_vector":"1"}},{"base_weights":[2.3117078E-2,-1.3210227E-1,4.652659E-2,-4.1287877E-2,-3.9555556E-1,3.9965035E-3,-1.2608695E-1,-3.4351144E-2,-3.8E-2,3.4999999E-3,-4.7763157E-1,-2.2E-1,3.5555556E-3,-3.8E-2,-2.7307691E-2,-2.8571427E-1,-6.75E-1,-1.0769231E-1,-5.0666664E-2,-1.612403E-3,-3.8E-2,-2.7333332E-2,3E-3,2.6666666E-3,-6.1249997E-2,-2.9999998E-3,-3.8E-2],"categories":[],"categories_nodes":[],"categories_segments":[],"categories_sizes":[],"default_left":[0,0,0,0,0,0,0,0,0,0,0,0,0,0,0,0,0,0,0,0,0,0,0,0,0,0,0],"id":34,"left_children":[1,3,5,7,9,-1,11,13,-1,-1,15,17,-1,-1,19,21,23,25,-1,-1,-1,-1,-1,-1,-1,-1,-1],"loss_changes":[4.8788157E0,4.19453E0,6.9658685E-1,3.808112E-1,1.6434364E0,0E0,3.7812558E-1,3.9361215E-1,0E0,0E0,1.2465229E0,6.2810254E-1,0E0,0E0,4.0671074E-1,3.925892E-1,1.1809893E0,3.1735575E-1,0E0,0E0,0E0,0E0,0E0,0E0,0E0,0E0,0E0],"parents":[2147483647,0,0,1,1,2,2,3,3,4,4,6,6,7,7,10,10,11,11,14,14,15,15,16,16,17,17],"right_children":[2,4,6,8,10,-1,12,14,-1,-1,16,18,-1,-1,20,22,24,26,-1,-1,-1,-1,-1,-1,-1,-1,-1],"split_conditions":[-5.22E-2,-6.46E-2,3E1,5.5E1,-1.076E-1,1.1122872E-1,4E-4,-6.0935274E-2,-7.05661E-2,4.7252653E-4,8.897637E0,1E0,3.9829943E-1,-4.928589E-5,3.5E1,1.5E1,-8.71E-2,1E0,-6.360388E-1,-2.7708223E-3,-3.565576E-1,-1.1725807E-2,9.272232E-3,6.1763762E-3,-1.1205788E-2,-3.4403625E-1,-4.4239424E-3],"split_indices":[20,20,18,18,22,0,20,25,0,0,28,0,0,0,30,18,22,13,0,0,0,0,0,0,0,0,0],"split_type":[0,0,0,0,0,0,0,0,0,0,0,0,0,0,0,0,0,0,0,0,0,0,0,0,0,0,0],"sum_hessian":[1.34E3,1.75E2,1.165E3,1.31E2,4.4E1,1.143E3,2.2E1,1.3E2,1E0,7E0,3.7E1,1.4E1,8E0,1E0,1.29E2,2E1,1.7E1,1.2E1,2E0,1.28E2,1E0,1.7E1,3E0,2E0,1.5E1,1.1E1,1E0],"tree_param":{"num_deleted":"0","num_feature":"32","num_nodes":"27","size_leaf_vector":"1"}},{"base_weights":[2.9629631E-2,-7.6578945E-2,4.659091E-2,-2.298387E-2,-1.7462686E-1,3.9965664E-3,-1.1875E-1,-1.5447153E-2,-3.8E-2,-8.055555E-2,-5.25E-1,3.6923077E-3,-2.875E-1,-7.786884E-3,-3.8E-2,2.3255826E-3,-3.7083334E-1,-6.818182E-1,3E-3,2.6666666E-3,-3.55E-1,4.5614043E-4,-1.4222221E-2,3.8571428E-3,-6.2499996E-3,-4.9999997E-2,-7.999999E-3,-6.0399998E-2,2E-3,2E-3,-3.2E-2],"categories":[],"categories_nodes":[],"categories_segments":[],"categories_sizes":[],"default_left":[0,0,0,0,0,0,0,0,0,0,0,0,0,0,0,0,0,0,0,0,0,0,0,0,0,0,0,0,0,0,0],"id":35,"left_children":[1,3,5,7,9,-1,11,13,-1,15,17,-1,19,21,-1,23,25,27,-1,-1,29,-1,-1,-1,-1,-1,-1,-1,-1,-1,-1],"loss_changes":[2.4841413E0,9.944147E-1,6.6713285E-1,4.1509557E-1,2.1660323E0,0E0,6.811298E-1,4.2929792E-1,0E0,1.3000243E0,1.2605114E0,0E0,2.7170837E-1,2.8075305E-1,0E0,1.6251297E-1,7.635416E-1,5.8786297E-1,0E0,0E0,1.8100011E-1,0E0,0E0,0E0,0E0,0E0,0E0,0E0,0E0,0E0,0E0],"parents":[2147483647,0,0,1,1,2,2,3,3,4,4,6,6,7,7,9,9,10,10,12,12,13,13,15,15,16,16,17,17,20,20],"right_children":[2,4,6,8,10,-1,12,14,-1,16,18,-1,20,22,-1,24,26,28,-1,-1,30,-1,-1,-1,-1,-1,-1,-1,-1,-1,-1],"split_conditions":[-5.08E-2,-7E-2,3E1,5.5E1,5.943775E-1,1.0774313E-1,1E0,3.5E1,-6.4920954E-2,1.15E-2,1.352E1,2.0710461E-1,-3.27E-2,6.5E1,-3.2803315E-1,5E0,1E0,7.91385E-1,9.063721E-5,7.867148E-1,-1.27649E-1,-9.6005976E-4,-1.0790252E-3,3.2633208E-4,-4.3460843E-3,-6.0293577E-3,-1.1943817E-3,-1.0309334E-2,3.947754E-3,3.658833E-1,-5.851556E-1],"split_indices":[20,20,18,18,24,0,9,30,0,22,28,0,20,29,0,27,4,24,0,0,25,0,0,0,0,0,0,0,0,0,0],"split_type":[0,0,0,0,0,0,0,0,0,0,0,0,0,0,0,0,0,0,0,0,0,0,0,0,0,0,0,0,0,0,0],"sum_hessian":[1.376E3,1.89E2,1.187E3,1.23E2,6.6E1,1.164E3,2.3E1,1.22E2,1E0,5.3E1,1.3E1,1.2E1,1.1E1,1.21E2,1E0,4.2E1,1.1E1,1E1,3E0,2E0,9E0,1.13E2,8E0,2.7E1,1.5E1,5E0,6E0,9E0,1E0,1E0,8E0],"tree_param":{"num_deleted":"0","num_feature":"32","num_nodes":"31","size_leaf_vector":"1"}},{"base_weights":[3.2734085E-2,-5.7795696E-2,4.7347825E-2,-3.0747125E-2,-4.1538462E-1,4.8214287E-2,-2.9999998E-1,-3.5999998E-1,-2.0882351E-2,-5.55E-1,3E-3,-5.25E-2,3.996457E-3,-3.8E-2,2E-3,2E-3,-4.625E-1,-2.55E-1,-6.211179E-3,-7.0625E-1,2.6666666E-3,3.6000002E-3,-1.3636364E-1,2E-3,-5.0666664E-2,3.2E-3,-3.6666665E-2,6.849316E-4,-1.12499995E-2,2E-3,-6.5142855E-2,-1.9428572E-2,3.2E-3],"categories":[],"categories_nodes":[],"categories_segments":[],"categories_sizes":[],"default_left":[0,0,0,0,0,0,0,0,0,0,0,0,0,0,0,0,0,0,0,0,0,0,0,0,0,0,0,0,0,0,0,0,0],"id":36,"left_children":[1,3,5,7,9,11,13,15,17,19,-1,21,-1,-1,-1,-1,23,25,27,29,-1,-1,31,-1,-1,-1,-1,-1,-1,-1,-1,-1,-1],"loss_changes":[1.7689136E0,1.7862701E0,3.6057162E-1,5.576352E-1,8.4279823E-1,2.0396662E-1,1.8249997E-1,2.08875E-1,5.823288E-1,9.1339564E-1,0E0,1.6967046E-1,0E0,0E0,0E0,0E0,3.489583E-1,6.181667E-1,3.208971E-1,6.523659E-1,0E0,0E0,2.1631165E-1,0E0,0E0,0E0,0E0,0E0,0E0,0E0,0E0,0E0,0E0],"parents":[2147483647,0,0,1,1,2,2,3,3,4,4,5,5,6,6,7,7,8,8,9,9,11,11,16,16,17,17,18,18,19,19,22,22],"right_children":[2,4,6,8,10,12,14,16,18,20,-1,22,-1,-1,-1,-1,24,26,28,30,-1,-1,32,-1,-1,-1,-1,-1,-1,-1,-1,-1,-1],"split_conditions":[-5.34E-2,-5.6E-2,1E0,-3.37E-1,1E0,-6E-1,-3E-1,-1.915E-1,-8.951844E-2,4.3E1,2.788162E-4,1E0,8.540382E-2,-2.063839E-2,3.4986708E-1,3.561981E-2,0E0,-1.415E-1,1E0,-3E-1,1.0528945E-3,1.428374E-1,1E0,2.7141204E-1,-3.0179045E-1,1.2410247E-1,-3.6882781E-3,9.215929E-5,-5.9727173E-2,8.504371E-3,-1.0813828E-2,-5.383429E-1,1.855957E-1],"split_indices":[20,20,13,20,4,19,19,22,23,29,0,9,0,0,0,0,31,20,6,19,0,0,2,0,0,0,0,0,0,0,0,0,0],"split_type":[0,0,0,0,0,0,0,0,0,0,0,0,0,0,0,0,0,0,0,0,0,0,0,0,0,0,0,0,0,0,0,0,0],"sum_hessian":[1.334E3,1.85E2,1.149E3,1.73E2,1.2E1,1.147E3,2E0,4E0,1.69E2,9E0,3E0,1.9E1,1.128E3,1E0,1E0,1E0,3E0,9E0,1.6E2,7E0,2E0,9E0,1E1,1E0,2E0,4E0,5E0,1.45E2,1.5E1,1E0,6E0,6E0,4E0],"tree_param":{"num_deleted":"0","num_feature":"32","num_nodes":"33","size_leaf_vector":"1"}},{"base_weights":[3.2938566E-2,-5.7397958E-2,4.8226643E-2,-1.4999999E-2,-3.222222E-1,3.9964723E-3,-3.9130434E-2,-9.467455E-3,-3.8E-2,3.6000002E-3,-5.083333E-1,3.7894738E-3,-3.5999998E-1,-2.0625E-1,3.0864327E-4,-2.0625E-1,-6.818182E-1,-5.0666664E-2,2.6666666E-3,3.2E-3,-3.7E-2,2.3762377E-3,-3.8064516E-3,-7.999999E-3,-3.8E-2,-6.65E-2,-1.6999999E-2],"categories":[],"categories_nodes":[],"categories_segments":[],"categories_sizes":[],"default_left":[0,0,0,0,0,0,0,0,0,0,0,0,0,0,0,0,0,0,0,0,0,0,0,0,0,0,0],"id":37,"left_children":[1,3,5,7,9,-1,11,13,-1,-1,15,-1,17,19,21,23,25,-1,-1,-1,-1,-1,-1,-1,-1,-1,-1],"loss_changes":[1.8685961E0,2.195856E0,1.7658424E-1,4.281479E-1,1.8681667E0,0E0,6.5541416E-1,3.2518E-1,0E0,0E0,8.026991E-1,0E0,5.586666E-1,5.233125E-1,2.2945637E-1,1.8093753E-1,5.9480095E-1,0E0,0E0,0E0,0E0,0E0,0E0,0E0,0E0,0E0,0E0],"parents":[2147483647,0,0,1,1,2,2,3,3,4,4,6,6,7,7,10,10,12,12,13,13,14,14,15,15,16,16],"right_children":[2,4,6,8,10,-1,12,14,-1,-1,16,-1,18,20,22,24,26,-1,-1,-1,-1,-1,-1,-1,-1,-1,-1],"split_conditions":[-4.91E-2,-5.6E-2,3E1,5.5E1,-5.36E-2,9.4019055E-2,1E0,-1.1490216E-1,-5.4949034E-2,2.5650024E-4,1.221349E-4,2.0837326E-2,3.5E1,-6.83E-2,3.342392E-2,1E0,1E0,-4.9527526E-1,7.429461E-1,4.2178724E-3,-3.3932114E-3,2.8087044E-4,-3.5889512E-3,-9.9487305E-3,-6.454086E-3,-8.619499E-3,-3.1910324E-3],"split_indices":[20,20,18,18,22,0,0,23,0,0,25,0,18,20,23,6,4,0,0,0,0,0,0,0,0,0,0],"split_type":[0,0,0,0,0,0,0,0,0,0,0,0,0,0,0,0,0,0,0,0,0,0,0,0,0,0,0],"sum_hessian":[1.35E3,1.95E2,1.155E3,1.69E2,2.6E1,1.133E3,2.2E1,1.68E2,1E0,9E0,1.7E1,1.8E1,4E0,7E0,1.61E2,7E0,1E1,2E0,2E0,4E0,3E0,1E2,6.1E1,6E0,1E0,7E0,3E0],"tree_param":{"num_deleted":"0","num_feature":"32","num_nodes":"27","size_leaf_vector":"1"}},{"base_weights":[3.0545184E-2,-5.8620688E-2,4.6437994E-2,-1.3505746E-2,-3.1833333E-1,4.7315143E-2,-3.8E-2,8.275864E-3,-1.1833333E-1,3.4999999E-3,-4.3043476E-1,3.9963736E-3,-3.970588E-2,-3.265306E-2,2.886598E-2,-2.8846152E-2,-5.6E-1,-5.3157896E-1,3.2E-3,-8.863636E-2,3.6923077E-3,-3.8E-2,-1.0833332E-3,3.0869567E-3,-1E-2,6.400001E-4,-3.8E-2,-5.6999996E-2,2E-3,-5.1692307E-2,-1.9428572E-2,-3.8095235E-3,-3.8E-2],"categories":[],"categories_nodes":[],"categories_segments":[],"categories_sizes":[],"default_left":[0,0,0,0,0,0,0,0,0,0,0,0,0,0,0,0,0,0,0,0,0,0,0,0,0,0,0,0,0,0,0,0,0],"id":38,"left_children":[1,3,5,7,9,11,-1,13,15,-1,17,-1,19,21,23,25,27,29,-1,31,-1,-1,-1,-1,-1,-1,-1,-1,-1,-1,-1,-1,-1],"loss_changes":[1.9002143E0,2.3742359E0,5.4251266E-1,3.9827585E-1,1.2365332E0,2.6291633E-1,0E0,1.231386E-1,1.1695513E0,0E0,1.115643E0,0E0,1.4693026E-1,4.0780717E-1,1.4990896E-1,4.3121538E-1,4.6387494E-1,4.7160196E-1,0E0,3.2602814E-1,0E0,0E0,0E0,0E0,0E0,0E0,0E0,0E0,0E0,0E0,0E0,0E0,0E0],"parents":[2147483647,0,0,1,1,2,2,3,3,4,4,5,5,7,7,8,8,10,10,12,12,13,13,14,14,15,15,16,16,17,17,19,19],"right_children":[2,4,6,8,10,12,-1,14,16,-1,18,-1,20,22,24,26,28,30,-1,32,-1,-1,-1,-1,-1,-1,-1,-1,-1,-1,-1,-1,-1],"split_conditions":[-4.91E-2,-5.6E-2,6E1,1.31E2,-7.95E-2,2.5E1,-2.2829956E-1,1E0,-7.2E-2,2.3597716E-4,9.603538E-2,9.513724E-2,3.5E1,-1.1490216E-1,4.1456795E-1,1.6732395E1,-6.34E-2,2.0317461E1,3.1902312E-4,3.1E1,1.9170303E-2,-3.1217574E-3,-2.3526305E-3,9.1201783E-4,-1.5500335E-2,-9.3536945E-3,-7.2021486E-4,-3.1219863E-3,7.289886E-4,-9.1528315E-3,-5.9377667E-3,-4.331156E-1,-3.8196105E-1],"split_indices":[21,21,18,27,22,18,0,27,21,0,23,0,18,23,23,28,21,28,0,18,0,0,0,0,0,0,0,0,0,0,0,0,0],"split_type":[0,0,0,0,0,0,0,0,0,0,0,0,0,0,0,0,0,0,0,0,0,0,0,0,0,0,0,0,0,0,0,0,0],"sum_hessian":[1.338E3,2.02E2,1.136E3,1.73E2,2.9E1,1.135E3,1E0,1.44E2,2.9E1,7E0,2.2E1,1.102E3,3.3E1,4.8E1,9.6E1,2.5E1,4E0,1.8E1,4E0,2.1E1,1.2E1,1E0,4.7E1,9.1E1,5E0,2.4E1,1E0,3E0,1E0,1.2E1,6E0,2E1,1E0],"tree_param":{"num_deleted":"0","num_feature":"32","num_nodes":"33","size_leaf_vector":"1"}},{"base_weights":[3.274648E-2,-5.5526312E-2,4.811754E-2,-1.0179639E-2,-3.6875E-1,4.903404E-2,-2.9999998E-1,1.1742425E-2,-9.0277776E-2,3.4999999E-3,-5.4117644E-1,-1.5624998E-2,3.996269E-3,-3.8E-2,2E-3,-1.2083333E-1,2.479339E-2,1.1111112E-2,-3.55E-1,-2.0625E-1,-7.55E-1,3.7142858E-3,-2.9999998E-1,-3.8E-2,-3.6363634E-3,2.573913E-3,-7.999999E-3,3.84E-3,-2.3999998E-2,-3.65E-2,2.6666666E-3,-3.7E-2,3.2E-3,-6.65E-2,-2.3999998E-2,-3.8E-2,2E-3],"categories":[],"categories_nodes":[],"categories_segments":[],"categories_sizes":[],"default_left":[0,0,0,0,0,0,0,0,0,0,0,0,0,0,0,0,0,0,0,0,0,0,0,0,0,0,0,0,0,0,0,0,0,0,0,0,0],"id":39,"left_children":[1,3,5,7,9,11,13,15,17,-1,19,21,-1,-1,-1,23,25,27,29,31,33,-1,35,-1,-1,-1,-1,-1,-1,-1,-1,-1,-1,-1,-1,-1,-1],"loss_changes":[1.7367213E0,2.69494E0,3.6215544E-1,2.9429814E-1,1.7306991E0,6.539416E-2,1.8249997E-1,2.3138775E-1,9.701805E-1,0E0,1.0617385E0,2.9627234E-1,0E0,0E0,0E0,2.9876894E-1,1.1466332E-1,3.2426667E-1,4.0839577E-1,5.233125E-1,9.756279E-2,0E0,1.8249997E-1,0E0,0E0,0E0,0E0,0E0,0E0,0E0,0E0,0E0,0E0,0E0,0E0,0E0,0E0],"parents":[2147483647,0,0,1,1,2,2,3,3,4,4,5,5,6,6,7,7,8,8,10,10,11,11,15,15,16,16,17,17,18,18,19,19,20,20,22,22],"right_children":[2,4,6,8,10,12,14,16,18,-1,20,22,-1,-1,-1,24,26,28,30,32,34,-1,36,-1,-1,-1,-1,-1,-1,-1,-1,-1,-1,-1,-1,-1,-1],"split_conditions":[-4.8E-2,-5.6E-2,1E0,1.64E-2,-8.86E-2,-6E-1,-3E-1,-2.367E-1,-6.66E-2,4.1383742E-3,5E0,1E0,8.907762E-2,-2.2187918E-2,3.1867713E-1,1E0,3.263158E1,6.5E1,6.7410827E-1,-3.69E-2,1E0,1.1627792E-1,4E-4,-5.0364684E-2,-1.1807251E-2,7.7008246E-4,-1.4260254E-2,2.4907303E-3,-6.626129E-4,-2.8722382E-3,1.0062408E-3,-3.1561279E-3,2.935028E-4,-5.877037E-3,-2.4607468E-3,-3.514044E-1,2.0567727E0],"split_indices":[20,20,13,22,22,19,19,20,20,0,28,0,0,0,0,2,28,29,24,22,4,0,20,0,0,0,0,0,0,0,0,0,0,0,0,0,0],"split_type":[0,0,0,0,0,0,0,0,0,0,0,0,0,0,0,0,0,0,0,0,0,0,0,0,0,0,0,0,0,0,0,0,0,0,0,0,0],"sum_hessian":[1.277E3,1.89E2,1.088E3,1.66E2,2.3E1,1.086E3,2E0,1.31E2,3.5E1,7E0,1.6E1,1.5E1,1.071E3,1E0,1E0,1.1E1,1.2E2,2.6E1,9E0,7E0,9E0,1.3E1,2E0,1E0,1E1,1.14E2,6E0,2.4E1,2E0,7E0,2E0,3E0,4E0,7E0,2E0,1E0,1E0],"tree_param":{"num_deleted":"0","num_feature":"32","num_nodes":"37","size_leaf_vector":"1"}},{"base_weights":[2.1217853E-2,-1.1533019E-1,4.7254726E-2,-3.3136092E-2,-4.284091E-1,4.8153155E-2,-3.8E-2,-2.0625E-1,-2.4382714E-2,-5.039474E-1,3.4285714E-3,-9.6428566E-2,3.9963536E-3,-3.5999998E-1,3E-3,8.130094E-4,-1.0125E-1,-5.6911767E-1,3.2E-3,3.6666666E-3,-5.0666664E-2,-5.0666664E-2,2.6666666E-3,-1.6999999E-2,6.333334E-4,-1.5238095E-2,-1.999999E-4,3.2E-3,-5.213333E-2],"categories":[],"categories_nodes":[],"categories_segments":[],"categories_sizes":[],"default_left":[0,0,0,0,0,0,0,0,0,0,0,0,0,0,0,0,0,0,0,0,0,0,0,0,0,0,0,0,0],"id":40,"left_children":[1,3,5,7,9,11,-1,13,15,17,-1,19,-1,21,-1,23,25,27,-1,-1,-1,-1,-1,-1,-1,-1,-1,-1,-1],"loss_changes":[4.7055354E0,5.44125E0,5.44163E-1,2.510621E-1,1.5879383E0,2.9389477E-1,0E0,3.1331253E-1,3.1383207E-1,1.3698349E0,0E0,1.098363E0,0E0,5.586666E-1,0E0,1.8806453E-1,3.5196722E-1,1.7356567E0,0E0,0E0,0E0,0E0,0E0,0E0,0E0,0E0,0E0,0E0,0E0],"parents":[2147483647,0,0,1,1,2,2,3,3,4,4,5,5,7,7,8,8,9,9,11,11,13,13,15,15,16,16,17,17],"right_children":[2,4,6,8,10,12,-1,14,16,18,-1,20,-1,22,-1,24,26,28,-1,-1,-1,-1,-1,-1,-1,-1,-1,-1,-1],"split_conditions":[-4.6E-2,-5.6E-2,1E0,-3.37E-1,4.3E1,-6E-1,-2.0412903E-2,1.5E1,5.5552006E-1,1.5E1,2.709732E-3,1E0,9.536778E-2,2E1,3.4440305E-2,-6.0935274E-2,7.008471E-1,-1.265E-1,1.99332E-1,1.06975704E-1,-3.9289182E-1,-2.7345213E-1,2.4841857E-1,-1.234436E-4,1.9638061E-4,-2.9190578E-3,-3.594055E-3,1.8903693E-2,-7.5858305E-3],"split_indices":[20,20,13,20,29,19,0,29,24,18,0,0,0,18,0,25,24,22,0,0,0,0,0,0,0,0,0,0,0],"split_type":[0,0,0,0,0,0,0,0,0,0,0,0,0,0,0,0,0,0,0,0,0,0,0,0,0,0,0,0,0],"sum_hessian":[1.321E3,2.11E2,1.11E3,1.68E2,4.3E1,1.109E3,1E0,7E0,1.61E2,3.7E1,6E0,1.3E1,1.096E3,4E0,3E0,1.22E2,3.9E1,3.3E1,4E0,1.1E1,2E0,2E0,2E0,3E0,1.19E2,2E1,1.9E1,4E0,2.9E1],"tree_param":{"num_deleted":"0","num_feature":"32","num_nodes":"29","size_leaf_vector":"1"}},{"base_weights":[2.2853917E-2,-9.906977E-2,4.6364453E-2,-2.6764704E-2,-3.6413044E-1,3.996327E-3,-1.0576923E-1,-2.1301774E-2,-3.8E-2,3.6000002E-3,-4.6486485E-1,-4.3181818E-2,-3.5999998E-1,-3.3112569E-3,-1.631579E-1,-5.516667E-1,-8.125E-2,-2.4999988E-3,-2.3999998E-2,-5.0666664E-2,2.6666666E-3,2.400001E-4,-3.8E-2,3.6363637E-3,-3.2E-2,-2.9894736E-2,-6.299999E-2,3.4285714E-3,-3.8E-2,3.75E-3,-1.28E-2],"categories":[],"categories_nodes":[],"categories_segments":[],"categories_sizes":[],"default_left":[0,0,0,0,0,0,0,0,0,0,0,0,0,0,0,0,0,0,0,0,0,0,0,0,0,0,0,0,0,0,0],"id":41,"left_children":[1,3,5,7,9,-1,11,13,-1,-1,15,17,19,21,23,25,27,29,-1,-1,-1,-1,-1,-1,-1,-1,-1,-1,-1,-1,-1],"loss_changes":[3.8112936E0,4.110779E0,6.1364365E-1,4.0615696E-1,1.9167404E0,0E0,3.9815736E-1,4.307587E-1,0E0,0E0,1.1872201E0,2.2910228E-1,5.586666E-1,4.5094436E-1,9.5693785E-1,9.649496E-1,4.1129464E-1,1.6303124E-1,0E0,0E0,0E0,0E0,0E0,0E0,0E0,0E0,0E0,0E0,0E0,0E0,0E0],"parents":[2147483647,0,0,1,1,2,2,3,3,4,4,6,6,7,7,10,10,11,11,12,12,13,13,14,14,15,15,16,16,17,17],"right_children":[2,4,6,8,10,-1,12,14,-1,-1,16,18,20,22,24,26,28,30,-1,-1,-1,-1,-1,-1,-1,-1,-1,-1,-1,-1,-1],"split_conditions":[-4.6E-2,-5.6E-2,3E1,5.5E1,-8.86E-2,8.427841E-2,1E0,2E1,-4.635101E-2,4.92897E-4,1E0,6E1,3.5E1,3.5E1,1.7E1,3.3381405E-1,2.6E1,-4E-1,-2.2789611E-1,-3.6146057E-1,6.672211E-1,-1.1804574E-4,-2.5157592E-1,2.173462E-3,-1.3135223E-2,-6.6178893E-3,-6.1206818E-3,1.1300277E-3,-1.65699E-3,2.881012E-3,-1.8779868E-2],"split_indices":[20,20,18,18,22,0,0,28,0,0,4,18,18,30,27,24,28,19,0,0,0,0,0,0,0,0,0,0,0,0,0],"split_type":[0,0,0,0,0,0,0,0,0,0,0,0,0,0,0,0,0,0,0,0,0,0,0,0,0,0,0,0,0,0,0],"sum_hessian":[1.327E3,2.14E2,1.113E3,1.69E2,4.5E1,1.088E3,2.5E1,1.68E2,1E0,9E0,3.6E1,2.1E1,4E0,1.5E2,1.8E1,2.9E1,7E0,1.9E1,2E0,2E0,2E0,1.49E2,1E0,1E1,8E0,1.8E1,1.1E1,6E0,1E0,1.5E1,4E0],"tree_param":{"num_deleted":"0","num_feature":"32","num_nodes":"31","size_leaf_vector":"1"}},{"base_weights":[2.9191395E-2,-6.490825E-2,4.730327E-2,-8.430231E-3,-2.7021277E-1,3.996393E-3,-8.260869E-2,-2.9239752E-3,-3.8E-2,3.6000002E-3,-3.4605262E-1,-2.4999988E-3,-4.625E-1,-3.8E-2,2.6470602E-3,-5.638889E-1,-1.4285713E-1,3.7777778E-3,-2.3999998E-2,2E-3,-5.0666664E-2,6.62722E-4,-3.8E-2,-5.4933332E-2,3E-3,-2.8399998E-2,3.6666666E-3],"categories":[],"categories_nodes":[],"categories_segments":[],"categories_sizes":[],"default_left":[0,0,0,0,0,0,0,0,0,0,0,0,0,0,0,0,0,0,0,0,0,0,0,0,0,0,0],"id":42,"left_children":[1,3,5,7,9,-1,11,13,-1,-1,15,17,19,-1,21,23,25,-1,-1,-1,-1,-1,-1,-1,-1,-1,-1],"loss_changes":[2.3004954E0,2.5254738E0,3.9373374E-1,4.4048813E-1,1.1391399E0,0E0,6.987934E-1,4.5097917E-1,0E0,0E0,1.6014514E0,3.1001392E-1,3.489583E-1,0E0,4.6165645E-1,1.3548193E0,8.5688686E-1,0E0,0E0,0E0,0E0,0E0,0E0,0E0,0E0,0E0,0E0],"parents":[2147483647,0,0,1,1,2,2,3,3,4,4,6,6,7,7,10,10,11,11,12,12,14,14,15,15,16,16],"right_children":[2,4,6,8,10,-1,12,14,-1,-1,16,18,20,-1,22,24,26,-1,-1,-1,-1,-1,-1,-1,-1,-1,-1],"split_conditions":[-4.51E-2,-5.6E-2,3E1,5.5E1,-7.95E-2,8.404794E-2,1E0,-2.2412783E-1,-4.264282E-2,4.5345305E-4,-2.95E-2,6E1,1E0,-1.0921478E-4,3.5E1,1.6E1,-5.08E-2,1.4945617E-1,-2.096643E-1,6.1384344E-1,-3.3254394E-1,3.7582783E-4,-2.3144989E-1,-5.6310273E-3,3.7872314E-4,-7.307777E-3,1.0635376E-3],"split_indices":[20,20,18,18,22,0,0,23,0,0,22,18,9,0,30,28,20,0,0,0,0,0,0,0,0,0,0],"split_type":[0,0,0,0,0,0,0,0,0,0,0,0,0,0,0,0,0,0,0,0,0,0,0,0,0,0,0],"sum_hessian":[1.347E3,2.17E2,1.13E3,1.71E2,4.6E1,1.108E3,2.2E1,1.7E2,1E0,9E0,3.7E1,1.9E1,3E0,1E0,1.69E2,1.7E1,2E1,1.7E1,2E0,1E0,2E0,1.68E2,1E0,1.4E1,3E0,9E0,1.1E1],"tree_param":{"num_deleted":"0","num_feature":"32","num_nodes":"27","size_leaf_vector":"1"}},{"base_weights":[2.4721604E-2,-9.568182E-2,4.8182625E-2,-2.2155687E-2,-3.212963E-1,3.9964095E-3,-8.6666666E-2,-1.6566264E-2,-3.8E-2,-5.7142854E-1,-1.5735294E-1,-3.8E-2,-2.4999999E-2,-1.090909E-2,-3.8E-2,-7.5333333E-1,-9.9999994E-2,-3.025E-1,3.7333332E-3,3.6923077E-3,-3.8E-2,9.160306E-4,-7.542857E-3,2E-3,-6.485714E-2,3.3333334E-3,-3.8E-2,3.4285714E-3,-3.6285713E-2],"categories":[],"categories_nodes":[],"categories_segments":[],"categories_sizes":[],"default_left":[0,0,0,0,0,0,0,0,0,0,0,0,0,0,0,0,0,0,0,0,0,0,0,0,0,0,0,0,0],"id":43,"left_children":[1,3,5,7,9,-1,11,13,-1,15,17,-1,19,21,-1,23,25,27,-1,-1,-1,-1,-1,-1,-1,-1,-1,-1,-1],"loss_changes":[3.8095982E0,3.6423643E0,2.739432E-1,4.148312E-1,2.1244907E0,0E0,3.473333E-1,4.2532912E-1,0E0,1.7255235E0,1.0209533E0,0E0,4.701923E-1,3.0868205E-1,0E0,6.901903E-1,3.9166665E-1,1.0629108E0,0E0,0E0,0E0,0E0,0E0,0E0,0E0,0E0,0E0,0E0,0E0],"parents":[2147483647,0,0,1,1,2,2,3,3,4,4,6,6,7,7,9,9,10,10,12,12,13,13,15,15,16,16,17,17],"right_children":[2,4,6,8,10,-1,12,14,-1,16,18,-1,20,22,-1,24,26,28,-1,-1,-1,-1,-1,-1,-1,-1,-1,-1,-1],"split_conditions":[-4.34E-2,-5.6E-2,3.1E1,5.5E1,-5.08E-2,8.660156E-2,3.5E1,3.5E1,-3.9231263E-2,1E0,-2.53E-2,-2.3634094E-1,5.553738E-3,5.943775E-1,-2.1293396E-1,-1.557E-1,-5.22E-2,-1.011E-1,9.784698E-4,1.3749939E-1,-9.305954E-3,1.8826294E-4,-2.8722857E-3,2.0309066E-2,-6.7231366E-3,4.171753E-4,-9.397888E-4,3.5147858E-3,-3.4514617E-3],"split_indices":[21,21,18,18,21,0,18,30,0,4,22,0,25,24,0,22,21,22,0,0,0,0,0,0,0,0,0,0,0],"split_type":[0,0,0,0,0,0,0,0,0,0,0,0,0,0,0,0,0,0,0,0,0,0,0,0,0,0,0,0,0],"sum_hessian":[1.346E3,2.19E2,1.127E3,1.66E2,5.3E1,1.113E3,1.4E1,1.65E2,1E0,2E1,3.3E1,1E0,1.3E1,1.64E2,1E0,1.4E1,6E0,1.9E1,1.4E1,1.2E1,1E0,1.3E2,3.4E1,1E0,1.3E1,5E0,1E0,6E0,1.3E1],"tree_param":{"num_deleted":"0","num_feature":"32","num_nodes":"29","size_leaf_vector":"1"}},{"base_weights":[2.7908746E-2,-5.872641E-2,4.4519927E-2,-1.090909E-2,-2.21875E-1,4.902778E-2,-1.52E-1,-5.1829256E-3,-3.8E-2,-2.8846152E-2,-4.3043476E-1,3.996286E-3,-2.1249999E-1,-9.523809E-2,-3.5999998E-1,1.9083971E-2,-9.8529406E-2,-8.6666666E-2,3.6666666E-3,-5.9999996E-1,3.4285714E-3,2E-3,-2.9999998E-1,-5.25E-2,-3.8E-2,-5.0666664E-2,2.6666666E-3,2.6333334E-3,-9.666666E-3,5.000001E-4,-2.5454544E-2,-1.9999999E-3,-3.8E-2,2.6666666E-3,-5.4933332E-2,2E-3,-3.8E-2,-6.6666654E-4,-2.3999998E-2],"categories":[],"categories_nodes":[],"categories_segments":[],"categories_sizes":[],"default_left":[0,0,0,0,0,0,0,0,0,0,0,0,0,0,0,0,0,0,0,0,0,0,0,0,0,0,0,0,0,0,0,0,0,0,0,0,0,0,0],"id":44,"left_children":[1,3,5,7,9,11,13,15,-1,17,19,-1,21,23,25,27,29,31,-1,33,-1,-1,35,37,-1,-1,-1,-1,-1,-1,-1,-1,-1,-1,-1,-1,-1,-1,-1],"loss_changes":[1.8950475E0,1.6514612E0,9.8546624E-1,4.3601912E-1,1.9199698E0,2.721064E-1,2.6087618E-1,3.7337798E-1,0E0,1.1624038E-1,1.871553E0,0E0,9.062502E-2,3.1589878E-1,5.586666E-1,2.5751925E-1,7.845003E-1,3.473333E-1,0E0,9.560003E-1,0E0,0E0,1.8249997E-1,2.1612501E-1,0E0,0E0,0E0,0E0,0E0,0E0,0E0,0E0,0E0,0E0,0E0,0E0,0E0,0E0,0E0],"parents":[2147483647,0,0,1,1,2,2,3,3,4,4,5,5,6,6,7,7,9,9,10,10,12,12,13,13,14,14,15,15,16,16,17,17,19,19,22,22,23,23],"right_children":[2,4,6,8,10,12,14,16,-1,18,20,-1,22,24,26,28,30,32,-1,34,-1,-1,36,38,-1,-1,-1,-1,-1,-1,-1,-1,-1,-1,-1,-1,-1,-1,-1],"split_conditions":[-4.34E-2,-5.6E-2,3E1,5.5E1,7.9787235E0,1E0,1E0,5.9600097E-1,-3.6092833E-2,-3.99E-2,5.5E1,6.650031E-2,-5E-1,4.3763766E-1,3.5E1,2.7E1,-7.2E-2,-5.14E-2,9.0019224E-4,7.080664E0,3.2336044E-3,9.6394295E-1,-1.46E-2,6E1,-8.561477E-3,-3.1286865E-1,5.5373603E-1,5.713272E-4,-1.2129516E-2,-2.0026092E-3,-2.4908828E-3,-2.0782088E-3,-1.7368316E-3,2.844696E-3,-4.642715E-3,8.741952E-1,-5.4045105E-3,-4.0233918E-2,-2.0389098E-1],"split_indices":[21,21,18,18,28,15,0,24,0,22,29,0,19,24,18,28,21,22,0,26,0,0,21,18,0,0,0,0,0,0,0,0,0,0,0,0,0,0,0],"split_type":[0,0,0,0,0,0,0,0,0,0,0,0,0,0,0,0,0,0,0,0,0,0,0,0,0,0,0,0,0,0,0,0,0,0,0,0,0,0,0],"sum_hessian":[1.314E3,2.11E2,1.103E3,1.64E2,4.7E1,1.079E3,2.4E1,1.63E2,1E0,2.5E1,2.2E1,1.076E3,3E0,2E1,4E0,1.3E2,3.3E1,1.4E1,1.1E1,1.6E1,6E0,1E0,2E0,1.9E1,1E0,2E0,2E0,1.19E2,1.1E1,2.3E1,1E1,1.3E1,1E0,2E0,1.4E1,1E0,1E0,1.7E1,2E0],"tree_param":{"num_deleted":"0","num_feature":"32","num_nodes":"39","size_leaf_vector":"1"}},{"base_weights":[2.7473764E-2,-6.629464E-2,4.6354637E-2,2.6470602E-3,-2.7818182E-1,4.7249775E-2,-2.9999998E-1,8.284025E-3,-3.8E-2,3.6363637E-3,-3.511111E-1,-2.625E-2,3.9962614E-3,-3.8E-2,2E-3,1.3554218E-2,-2.1249999E-1,-1.4285713E-1,-5.1199996E-1,-2.5641012E-3,-3.8E-2,1.5214725E-3,-1.6999999E-2,-3.8E-2,2.6666666E-3,-3.0857142E-2,-1.5999997E-3,-4.9523804E-2,3.2E-3,-6.2499996E-3,3.8333333E-3],"categories":[],"categories_nodes":[],"categories_segments":[],"categories_sizes":[],"default_left":[0,0,0,0,0,0,0,0,0,0,0,0,0,0,0,0,0,0,0,0,0,0,0,0,0,0,0,0,0,0,0],"id":45,"left_children":[1,3,5,7,9,11,13,15,-1,-1,17,19,-1,-1,-1,21,23,25,27,29,-1,-1,-1,-1,-1,-1,-1,-1,-1,-1,-1],"loss_changes":[2.3648257E0,3.2728975E0,3.5862446E-1,4.6165645E-1,1.3141012E0,2.2167659E-1,1.8249997E-1,1.9952436E-1,0E0,0E0,1.4346156E0,4.239439E-1,0E0,0E0,0E0,2.0908506E-1,2.7395833E-1,6.1885715E-1,1.5020194E0,1.5250401E-1,0E0,0E0,0E0,0E0,0E0,0E0,0E0,0E0,0E0,0E0,0E0],"parents":[2147483647,0,0,1,1,2,2,3,3,4,4,5,5,6,6,7,7,10,10,11,11,15,15,16,16,17,17,18,18,19,19],"right_children":[2,4,6,8,10,12,14,16,-1,-1,18,20,-1,-1,-1,22,24,26,28,30,-1,-1,-1,-1,-1,-1,-1,-1,-1,-1,-1],"split_conditions":[-4.29E-2,-5.6E-2,1E0,3.5E1,-8.86E-2,-4E-1,-3E-1,1E0,-1.9594513E-1,2.9749298E-3,1E0,4.3641172E-2,7.559369E-2,-3.701519E-2,2.765806E-1,1E0,-6E-1,-3.69E-2,5.5E1,-1.9E-3,-7.876549E-3,5.22768E-4,-1.1718215E-2,-3.320526E-2,8.477207E-2,-1.9119644E-3,-6.257324E-3,-3.1816405E-3,3.8861847E-3,-2.8783935E-1,2.3563993E-1],"split_indices":[20,20,13,30,22,19,19,10,0,0,27,23,0,0,0,11,19,22,29,20,0,0,0,0,0,0,0,0,0,0,0],"split_type":[0,0,0,0,0,0,0,0,0,0,0,0,0,0,0,0,0,0,0,0,0,0,0,0,0,0,0,0,0,0,0],"sum_hessian":[1.333E3,2.23E2,1.11E3,1.69E2,5.4E1,1.108E3,2E0,1.68E2,1E0,1E1,4.4E1,3.9E1,1.069E3,1E0,1E0,1.65E2,3E0,2E1,2.4E1,3.8E1,1E0,1.62E2,3E0,1E0,2E0,6E0,1.4E1,2E1,4E0,1.5E1,2.3E1],"tree_param":{"num_deleted":"0","num_feature":"32","num_nodes":"31","size_leaf_vector":"1"}},{"base_weights":[2.8353205E-2,-5.705128E-2,4.634806E-2,3.7356333E-3,-2.2950819E-1,-1.6785714E-1,4.904197E-2,9.248557E-3,-3.8E-2,3.7142858E-3,-3.0520833E-1,3.4285714E-3,-3.3124998E-1,1.71875E-2,3.996244E-3,1.4411766E-2,-2.1249999E-1,-5.4117644E-1,-1.703125E-1,-4.583333E-1,2.6666666E-3,-1.6E-1,3.8571428E-3,2.3172414E-3,-5.384615E-3,2.6666666E-3,-3.8E-2,-4.9599998E-2,2.6666666E-3,-2.5684211E-2,3.7142858E-3,-4.48E-2,2E-3,-3.8E-2,3E-3],"categories":[],"categories_nodes":[],"categories_segments":[],"categories_sizes":[],"default_left":[0,0,0,0,0,0,0,0,0,0,0,0,0,0,0,0,0,0,0,0,0,0,0,0,0,0,0,0,0,0,0,0,0,0,0],"id":46,"left_children":[1,3,5,7,9,11,13,15,-1,-1,17,-1,19,21,-1,23,25,27,29,31,-1,33,-1,-1,-1,-1,-1,-1,-1,-1,-1,-1,-1,-1,-1],"loss_changes":[2.0650856E0,2.4539082E0,6.4817953E-1,4.636195E-1,1.2883658E0,4.9620533E-1,3.0949593E-2,2.0113614E-1,0E0,0E0,1.4357247E0,0E0,3.859375E-1,1.8363614E-1,0E0,2.0413479E-1,2.7395833E-1,7.905097E-1,1.0603964E0,3.0883336E-1,0E0,3.28875E-1,0E0,0E0,0E0,0E0,0E0,0E0,0E0,0E0,0E0,0E0,0E0,0E0,0E0],"parents":[2147483647,0,0,1,1,2,2,3,3,4,4,5,5,6,6,7,7,10,10,12,12,13,13,15,15,16,16,17,17,18,18,19,19,21,21],"right_children":[2,4,6,8,10,12,14,16,-1,-1,18,-1,20,22,-1,24,26,28,30,32,-1,34,-1,-1,-1,-1,-1,-1,-1,-1,-1,-1,-1,-1,-1],"split_conditions":[-4.29E-2,-5.6E-2,-6E-1,3.5E1,-7.26E-2,1E0,-3E-1,1E0,-1.8026946E-1,3.1204222E-4,-5.08E-2,9.573055E-2,1E0,-3.77E-2,7.426119E-2,6.5131474E-1,-3E-1,9.603538E-2,-3.2E-3,4E-4,1.3721024E0,1E0,6.0590766E-2,5.565453E-4,-2.345043E-3,7.816689E-2,-1.0780792E-2,-5.7567214E-3,2.9573822E-3,-2.9293823E-3,1.3287734E-3,-2.64812E-1,1.8227383E0,-3.4053992E-2,5.379927E-1],"split_indices":[20,20,19,30,22,9,19,11,0,0,20,0,2,20,0,24,19,23,22,20,0,9,0,0,0,0,0,0,0,0,0,0,0,0,0],"split_type":[0,0,0,0,0,0,0,0,0,0,0,0,0,0,0,0,0,0,0,0,0,0,0,0,0,0,0,0,0,0,0,0,0,0,0],"sum_hessian":[1.341E3,2.33E2,1.108E3,1.73E2,6E1,1.3E1,1.095E3,1.72E2,1E0,1.3E1,4.7E1,6E0,7E0,3.1E1,1.064E3,1.69E2,3E0,1.6E1,3.1E1,5E0,2E0,4E0,2.7E1,1.44E2,2.5E1,2E0,1E0,1.4E1,2E0,1.8E1,1.3E1,4E0,1E0,1E0,3E0],"tree_param":{"num_deleted":"0","num_feature":"32","num_nodes":"35","size_leaf_vector":"1"}},{"base_weights":[3.1944446E-2,-5.255814E-2,4.816637E-2,-3.5952378E-2,-6.25E-1,4.905914E-2,-2.9999998E-1,4.5161303E-3,-1.4732143E-1,-6.0799997E-2,2E-3,3.996377E-3,-3.0769229E-2,-3.8E-2,2E-3,1.0714287E-2,-3.8E-2,-3.4166667E-1,-5.384615E-2,3.6666666E-3,-3.8E-2,2.7480917E-3,-9.5E-3,-6.0799997E-2,-1.3428571E-2,-6.857142E-4,-2.8799998E-2],"categories":[],"categories_nodes":[],"categories_segments":[],"categories_sizes":[],"default_left":[0,0,0,0,0,0,0,0,0,0,0,0,0,0,0,0,0,0,0,0,0,0,0,0,0,0,0],"id":47,"left_children":[1,3,5,7,9,11,13,15,17,-1,-1,-1,19,-1,-1,21,-1,23,25,-1,-1,-1,-1,-1,-1,-1,-1],"loss_changes":[1.8284298E0,2.0212836E0,3.6222887E-1,9.4712263E-1,5.4550004E-1,8.132219E-2,1.8249997E-1,4.657673E-1,9.989251E-1,0E0,0E0,0E0,4.641506E-1,0E0,0E0,4.7533903E-1,0E0,1.1812143E0,5.374945E-1,0E0,0E0,0E0,0E0,0E0,0E0,0E0,0E0],"parents":[2147483647,0,0,1,1,2,2,3,3,4,4,5,5,6,6,7,7,8,8,12,12,15,15,17,17,18,18],"right_children":[2,4,6,8,10,12,14,16,18,-1,-1,-1,20,-1,-1,22,-1,24,26,-1,-1,-1,-1,-1,-1,-1,-1],"split_conditions":[-4.2E-2,-4.29E-2,1E0,-5.6E-2,7.244475E-2,4.5E1,5E1,3.5E1,-5.08E-2,-4.4925306E-3,6.2477265E-2,7.525335E-2,3.0693125E-2,-3.1329688E-2,2.485133E-1,6.5131474E-1,-1.6584778E-1,1.7351298E-1,1.59E2,4.2977903E-2,-1.2093697E-2,5.292911E-4,-2.6039581E-3,-5.296173E-3,-3.5562515E-3,-7.639885E-4,-2.6950454E-3],"split_indices":[20,20,13,20,23,18,18,30,20,0,0,0,23,0,0,24,0,24,27,0,0,0,0,0,0,0,0],"split_type":[0,0,0,0,0,0,0,0,0,0,0,0,0,0,0,0,0,0,0,0,0,0,0,0,0,0,0],"sum_hessian":[1.331E3,2.14E2,1.117E3,2.09E2,5E0,1.115E3,2E0,1.54E2,5.5E1,4E0,1E0,1.103E3,1.2E1,1E0,1E0,1.53E2,1E0,1.7E1,3.8E1,1.1E1,1E0,1.3E2,2.3E1,4E0,1.3E1,3.4E1,4E0],"tree_param":{"num_deleted":"0","num_feature":"32","num_nodes":"27","size_leaf_vector":"1"}},{"base_weights":[2.6028423E-2,-6.785714E-2,4.631818E-2,-3.7938595E-2,-6.818182E-1,3.9962963E-3,-1.4285713E-1,-1.2760416E-2,-1.6756757E-1,2E-3,-6.0399998E-2,-2.875E-1,3.6000002E-3,2.0000001E-2,-8.87931E-2,-4.5499998E-1,-5.8928568E-2,-1.55E-1,-5.0666664E-2,2.1791046E-3,-3.8E-2,-1.9764705E-2,-1.8095237E-3,3E-3,-5.3714283E-2,3.764706E-3,-1.6333332E-2,-5.333333E-3,-3.8E-2],"categories":[],"categories_nodes":[],"categories_segments":[],"categories_sizes":[],"default_left":[0,0,0,0,0,0,0,0,0,0,0,0,0,0,0,0,0,0,0,0,0,0,0,0,0,0,0,0,0],"id":48,"left_children":[1,3,5,7,9,-1,11,13,15,-1,-1,17,-1,19,21,23,25,27,-1,-1,-1,-1,-1,-1,-1,-1,-1,-1,-1],"loss_changes":[2.5500152E0,4.3459125E0,7.6366234E-1,7.42013E-1,5.8786297E-1,0E0,5.8355343E-1,4.8002145E-1,1.1285633E0,0E0,0E0,4.5170832E-1,0E0,4.9667162E-1,6.018506E-1,1.0910892E0,4.4062325E-1,2.51E-1,0E0,0E0,0E0,0E0,0E0,0E0,0E0,0E0,0E0,0E0,0E0],"parents":[2147483647,0,0,1,1,2,2,3,3,4,4,6,6,7,7,8,8,11,11,13,13,14,14,15,15,16,16,17,17],"right_children":[2,4,6,8,10,-1,12,14,16,-1,-1,18,-1,20,22,24,26,28,-1,-1,-1,-1,-1,-1,-1,-1,-1,-1,-1],"split_conditions":[-4.1E-2,-4.29E-2,3E1,6.5131474E-1,-1.193E-1,7.20829E-2,4E-4,-5.9E-2,7.008471E-1,5.7479095E-2,-8.144798E-3,1E0,2.2863221E-1,5E1,7.6202636E0,-1.68E-1,1.04838705E1,1E0,-2.4964783E-1,6.278534E-4,-3.0635681E-2,-4.8724744E-3,-2.0618287E-3,7.3452755E-3,-3.2717513E-3,7.209778E-6,-2.5830078E-3,-1.8868469E-1,-2.8823318E-2],"split_indices":[20,20,18,24,22,0,20,20,24,0,0,0,0,18,26,20,28,13,0,0,0,0,0,0,0,0,0,0,0],"split_type":[0,0,0,0,0,0,0,0,0,0,0,0,0,0,0,0,0,0,0,0,0,0,0,0,0,0,0,0,0],"sum_hessian":[1.336E3,2.37E2,1.099E3,2.27E2,1E1,1.079E3,2E1,1.91E2,3.6E1,1E0,9E0,1.1E1,9E0,1.34E2,5.7E1,9E0,2.7E1,9E0,2E0,1.33E2,1E0,1.6E1,4.1E1,3E0,6E0,1.6E1,1.1E1,8E0,1E0],"tree_param":{"num_deleted":"0","num_feature":"32","num_nodes":"29","size_leaf_vector":"1"}},{"base_weights":[2.6028423E-2,-6.413502E-2,4.5413263E-2,-2.785388E-2,-4.7894737E-1,3.9962893E-3,-1.6041666E-1,-4.625E-1,-1.9675924E-2,3E-3,-5.78125E-1,-2.6153845E-1,-3.7499998E-2,2E-3,-5.0666664E-2,5.769232E-3,-1.5142857E-1,2.6666666E-3,-6.678571E-1,-4E-1,3.2E-3,3.6363637E-3,-3.8E-2,8.83978E-4,-3.8E-2,3.7142858E-3,-2.1636363E-2,-5.7846155E-2,2E-3,-3.65E-2,2E-3],"categories":[],"categories_nodes":[],"categories_segments":[],"categories_sizes":[],"default_left":[0,0,0,0,0,0,0,0,0,0,0,0,0,0,0,0,0,0,0,0,0,0,0,0,0,0,0,0,0,0,0],"id":49,"left_children":[1,3,5,7,9,-1,11,13,15,-1,17,19,21,-1,-1,23,25,-1,27,29,-1,-1,-1,-1,-1,-1,-1,-1,-1,-1,-1],"loss_changes":[2.3397262E0,3.5534773E0,1.0369437E0,7.69339E-1,9.948602E-1,0E0,2.8850162E-1,3.489583E-1,7.2500634E-1,0E0,9.001417E-1,5.5876935E-1,4.5710227E-1,0E0,0E0,4.6729177E-1,8.368117E-1,0E0,5.5370855E-1,2.2656238E-1,0E0,0E0,0E0,0E0,0E0,0E0,0E0,0E0,0E0,0E0,0E0],"parents":[2147483647,0,0,1,1,2,2,3,3,4,4,6,6,7,7,8,8,10,10,11,11,12,12,15,15,16,16,18,18,19,19],"right_children":[2,4,6,8,10,-1,12,14,16,-1,18,20,22,-1,-1,24,26,-1,28,30,-1,-1,-1,-1,-1,-1,-1,-1,-1,-1,-1],"split_conditions":[-4.02E-2,-4.29E-2,3E1,-1.3385482E-1,7.080664E0,6.615626E-2,4E-4,-7.69E-2,6.5131474E-1,2.846527E-4,-1.011E-1,1E0,3.0693125E-2,3.2771681E-3,-1.9345473E-3,5.5E1,1.5E1,1.3813782E-3,2.66E-2,1E0,5.46344E-2,2.609652E-1,-2.9416809E-2,1.8904498E-4,-2.8184814E-2,6.6375733E-6,-2.946663E-3,-7.4932096E-3,6.930847E-3,-2.296759E-1,3.872854E-1],"split_indices":[20,20,18,25,26,0,20,20,24,0,22,2,23,0,0,18,29,0,22,17,0,0,0,0,0,0,0,0,0,0,0],"split_type":[0,0,0,0,0,0,0,0,0,0,0,0,0,0,0,0,0,0,0,0,0,0,0,0,0,0,0,0,0,0,0],"sum_hessian":[1.336E3,2.36E2,1.1E3,2.18E2,1.8E1,1.077E3,2.3E1,3E0,2.15E2,3E0,1.5E1,1.2E1,1.1E1,1E0,2E0,1.81E2,3.4E1,2E0,1.3E1,8E0,4E0,1E1,1E0,1.8E2,1E0,1.3E1,2.1E1,1.2E1,1E0,7E0,1E0],"tree_param":{"num_deleted":"0","num_feature":"32","num_nodes":"31","size_leaf_vector":"1"}},{"base_weights":[2.2121897E-2,-6.914498E-2,4.524034E-2,-1.9782607E-2,-3.5125E-1,3.9961203E-3,-1.1290322E-1,-1.5720522E-2,-3.8E-2,-5.3541666E-1,-7.058823E-2,-8.5E-2,-3.8E-2,-1.1622805E-2,-3.8E-2,-1.55E-1,-7.5333333E-1,-1.5624998E-2,-3.8E-2,-5.5172414E-2,-3.8E-2,-5.991188E-4,-3.8E-2,3.4999999E-3,-5.0666664E-2,2.6666666E-3,-7.015385E-2,3.7333332E-3,-3.8E-2,5.000001E-4,-2.3333332E-2],"categories":[],"categories_nodes":[],"categories_segments":[],"categories_sizes":[],"default_left":[0,0,0,0,0,0,0,0,0,0,0,0,0,0,0,0,0,0,0,0,0,0,0,0,0,0,0,0,0,0,0],"id":50,"left_children":[1,3,5,7,9,-1,11,13,-1,15,17,19,-1,21,-1,23,25,27,-1,29,-1,-1,-1,-1,-1,-1,-1,-1,-1,-1,-1],"loss_changes":[2.807249E0,3.7389765E0,7.9612756E-1,4.17833E-1,2.0297475E0,0E0,2.728387E-1,4.2545655E-1,0E0,1.8728123E0,3.7045035E-1,3.227759E-1,0E0,4.3318084E-1,0E0,9.783958E-1,1.4875889E0,4.800104E-1,0E0,4.2307836E-1,0E0,0E0,0E0,0E0,0E0,0E0,0E0,0E0,0E0,0E0,0E0],"parents":[2147483647,0,0,1,1,2,2,3,3,4,4,6,6,7,7,9,9,10,10,11,11,13,13,15,15,16,16,17,17,19,19],"right_children":[2,4,6,8,10,-1,12,14,-1,16,18,20,-1,22,-1,24,26,28,-1,30,-1,-1,-1,-1,-1,-1,-1,-1,-1,-1,-1],